tree
version=v4
num_class=1
num_tree_per_iteration=1
label_index=0
max_feature_idx=11
objective=binary sigmoid:1
feature_names=Age Education Initial_Capital Financial_Record_Keeping Internet_Usage Business_Plan Marketing_Effort Partnership Parent_Business_Experience Industry_Experience Owner_Gender Professional_Advice
feature_infos=[18:60] [1:5] [0:1] [0:1] [0:1] [0:1] [1:7] [0:1] [0:1] [0:20] [0:1] [1:7]
tree_sizes=1316 1664 1455 1490 1383 1500 1468 1490 1462 1379 1403 1481 1397 1612 1386 1602 1595 1595 1713 1506 1607 1698 1609 1703 1391 1602 1488 1683 1792 1682 1403 1605 1501 1613 1620 1361 1599 1809 1827 1704 1391 1665 1705 1704 1591 1694 1610 1608 1477 1397 1469 1704 1609 1584 1478 1506 1585 1504 1613 1609 1502 1706 1588 1603 1386 1562 1708 1672 1618 1707 1708 1717 1697 1805 1811

Tree=0
num_leaves=13
num_cat=0
split_feature=5 9 4 8 3 9 0 3 7 9 2 0
split_gain=43.1101 29.3481 14.4871 14.1479 10.28 10.6896 5.16556 3.9976 4.97228 3.2974 2.90585 1.18339
threshold=1.0000000180025095e-35 7.5000000000000009 1.0000000180025095e-35 1.0000000180025095e-35 1.0000000180025095e-35 11.500000000000002 46.500000000000007 1.0000000180025095e-35 1.0000000180025095e-35 7.5000000000000009 1.0000000180025095e-35 52.500000000000007
decision_type=2 2 2 2 2 2 2 2 2 2 2 2
left_child=3 2 -2 4 -1 9 -4 8 11 -6 -9 -3
right_child=1 7 6 -5 5 -7 -8 10 -10 -11 -12 -13
leaf_value=-0.06720000000000001 -0.083846153846153862 0.021111111111111098 -0.027142857142857135 -0.090869565217391285 0.0042105263157894727 -0.058666666666666659 0.054444444444444441 0.037241379310344817 -0.016470588235294112 0.068999999999999992 0.091428571428571415 0.073749999999999996
leaf_weight=5.2499999999999991 5.4999999999999982 3.5000000000000018 2.5 10.5 3.75 2.75 3.5 6.2500000000000009 3.25 4 11.25 3
leaf_count=21 22 14 10 42 15 11 14 25 13 16 45 12
internal_value=0 0.0332075 -0.0316 -0.0484404 -0.0161194 0.0126087 0.0207143 0.060885 0.0297674 0.0422857 0.0754054 0.0526667
internal_weight=65 38.75 11.5 26.25 15.75 10.5 6 27.25 9.75 7.75 17.5 6.5
internal_count=260 155 46 105 63 42 24 109 39 31 70 26
is_linear=0
shrinkage=0.05


Tree=1
num_leaves=15
num_cat=0
split_feature=9 2 3 4 11 7 6 3 7 1 8 9 11 11
split_gain=26.5542 15.798 15.1836 14.3604 11.7223 10.4526 6.43232 3.51124 3.40139 1.5727 1.30171 0.876907 0.213488 0.134529
threshold=7.5000000000000009 1.0000000180025095e-35 1.0000000180025095e-35 1.0000000180025095e-35 2.5000000000000004 1.0000000180025095e-35 4.5000000000000009 1.0000000180025095e-35 1.0000000180025095e-35 2.5000000000000004 1.0000000180025095e-35 17.500000000000004 2.5000000000000004 3.5000000000000004
decision_type=2 2 2 2 2 2 2 2 2 2 2 2 2 2
left_child=3 4 10 -1 -2 9 7 -5 -8 11 13 -6 -4 -3
right_child=1 2 12 6 5 -7 8 -9 -10 -11 -12 -13 -14 -15
leaf_value=-0.086763865219749173 -0.071246507965387715 0 0.042269406565335621 -0.071423657392793008 0.058406597950899447 -0.053097904518415687 0.053879183358401299 0 -0.010832877913156711 0.0036682980942649226 -0.030060177899516774 0.012932854255089369 0.084118497872700038 0.013772033668589187
leaf_weight=9.4850893616676331 4.7436643540859249 2.4979302138090143 4.4913012832403192 2.9955510646104813 5.2473757117986661 3.4971673041582099 3.4978559017181396 2.9989695250988007 2.9977612346410751 3.2467042952775955 2.7468120902776718 2.498552992939949 11.478782340884207 2.4987374395132065
leaf_count=38 19 10 18 12 21 14 14 12 12 13 11 10 46 10
internal_value=0 0.0227817 0.0493042 -0.043551 -0.0104922 0.0123902 -0.00636517 -0.040732 0.0258863 0.0363317 -0.00724296 0.047466 0.0758282 0.00738762
internal_weight=64.9223 42.947 23.7136 21.9752 19.2335 14.4898 12.4901 5.99452 6.49562 10.9926 7.74348 7.74593 15.9701 4.99667
internal_count=260 172 95 88 77 58 50 24 26 44 31 31 64 20
is_linear=0
shrinkage=0.05


Tree=2
num_leaves=13
num_cat=0
split_feature=5 9 4 8 9 7 0 1 10 2 7 0
split_gain=38.221 24.9423 12.3756 12.1338 9.31883 10.7449 4.64678 3.94737 2.01414 2.82177 1.68859 0.0771785
threshold=1.0000000180025095e-35 7.5000000000000009 1.0000000180025095e-35 1.0000000180025095e-35 12.500000000000002 1.0000000180025095e-35 46.500000000000007 3.5000000000000004 1.0000000180025095e-35 1.0000000180025095e-35 1.0000000180025095e-35 44.500000000000007
decision_type=2 2 2 2 2 2 2 2 2 2 2 2
left_child=3 2 -2 4 5 7 -4 -1 10 11 -3 -10
right_child=1 8 6 -5 -6 -7 -8 -9 9 -11 -12 -13
leaf_value=0.068167376053655734 -0.077118049531271438 0.08190992226902534 -0.025714516706924109 -0.085149707905024505 -0.075137296853306973 -0.049828917008422922 0.051669229173957582 0 0 0.055577986821851756 0.031405128873305904 0.010322909973300088
leaf_weight=4.2399982064962369 5.4601701796054822 10.707800790667532 2.4982443153858185 10.44718374311924 3.7437305897474298 4.2360726594924927 3.4940126687288284 3.4876477122306824 2.4979687035083771 6.4755157083272934 4.4790032356977472 2.9966665655374527
leaf_count=17 22 43 10 42 15 17 14 14 10 26 18 12
internal_value=0 0.0312925 -0.0285847 -0.0457218 -0.0156718 0.00691128 0.0196284 0.0407331 0.0568394 0.0354175 0.070184 0.00598898
internal_weight=64.764 38.6094 11.4524 26.1546 15.7074 11.9637 5.99226 7.72765 27.157 11.9702 15.1868 5.49464
internal_count=260 155 46 105 63 48 24 31 109 48 61 22
is_linear=0
shrinkage=0.05


Tree=3
num_leaves=13
num_cat=0
split_feature=5 9 4 8 3 9 0 3 7 9 2 0
split_gain=35.0653 22.9036 11.4403 11.1304 8.64829 8.96167 4.31341 3.42071 4.20385 2.76187 2.152 1.30399
threshold=1.0000000180025095e-35 7.5000000000000009 1.0000000180025095e-35 1.0000000180025095e-35 1.0000000180025095e-35 11.500000000000002 46.500000000000007 1.0000000180025095e-35 1.0000000180025095e-35 7.5000000000000009 1.0000000180025095e-35 52.500000000000007
decision_type=2 2 2 2 2 2 2 2 2 2 2 2
left_child=3 2 -2 4 -1 9 -4 8 11 -6 -9 -3
right_child=1 7 6 -5 5 -7 -8 10 -10 -11 -12 -13
leaf_value=-0.062050055334678347 -0.074374356746804857 0.016700615782911796 -0.024808720623423004 -0.08183493176753584 0.0036470653936630988 -0.054015010380311937 0.049761635968084875 0.034202869807141018 -0.016245850324283891 0.063115506990647746 0.082140259050004327 0.068376365065743336
leaf_weight=5.2223582267761222 5.4164730012416822 3.4872009903192538 2.4965371638536453 10.369210332632065 3.7406848222017288 2.735176756978035 3.4851023852825165 6.2340954244136819 3.2485812306404114 3.9731438457965851 11.107612892985344 2.9822035729885101
leaf_count=21 22 14 10 42 15 11 14 25 13 16 45 12
internal_value=0 0.0300163 -0.0274864 -0.0438999 -0.0150966 0.0113037 0.0188267 0.0545321 0.0259569 0.0385791 0.0679844 0.0471561
internal_weight=64.4984 38.4578 11.3981 26.0406 15.6714 10.449 5.98164 27.0597 9.71799 7.71383 17.3417 6.4694
internal_count=260 155 46 105 63 42 24 109 39 31 70 26
is_linear=0
shrinkage=0.05


Tree=4
num_leaves=12
num_cat=0
split_feature=5 9 4 8 9 7 0 3 7 9 0
split_gain=32.2335 21.088 10.6007 10.2655 8.16547 9.74908 4.00755 3.12446 3.91162 2.38902 1.21893
threshold=1.0000000180025095e-35 7.5000000000000009 1.0000000180025095e-35 1.0000000180025095e-35 12.500000000000002 1.0000000180025095e-35 46.500000000000007 1.0000000180025095e-35 1.0000000180025095e-35 8.5000000000000018 52.500000000000007
decision_type=2 2 2 2 2 2 2 2 2 2 2
left_child=3 2 -2 4 5 9 -4 8 10 -1 -3
right_child=1 7 6 -5 -6 -7 -8 -9 -10 -11 -12
leaf_value=0.010938318205933738 -0.071886160096572324 0.016064803573817774 -0.023940063566997856 -0.078878083715350641 -0.070422706719100989 -0.047530288420102214 0.047969890487251199 0.065388907351014103 -0.015626147934571174 0.068184597259532007 0.066136369454522476
leaf_weight=4.7196245491504651 5.3597749173641187 3.4836252629756945 2.4941110908985138 10.260190486907959 3.7094158083200464 4.2134030759334564 3.4721805602312088 17.212720707058907 3.2482088208198547 2.9679246097803116 2.9633752852678299
leaf_count=19 22 14 10 42 15 17 14 70 13 12 12
internal_value=0 0.0288622 -0.0264723 -0.0422214 -0.0145289 0.00661345 0.01807 0.0524467 0.0250363 0.0389194 0.0455421
internal_weight=64.1046 38.234 11.3261 25.8706 15.6104 11.901 5.96629 26.9079 9.69521 7.68755 6.447
internal_count=260 155 46 105 63 48 24 109 39 31 26
is_linear=0
shrinkage=0.05


Tree=5
num_leaves=13
num_cat=0
split_feature=5 9 4 3 4 2 0 3 7 2 0 2
split_gain=29.5975 19.3914 9.84358 9.6843 7.54948 4.06291 3.72643 2.8337 3.64363 2.20532 1.14439 0.484626
threshold=1.0000000180025095e-35 7.5000000000000009 1.0000000180025095e-35 1.0000000180025095e-35 1.0000000180025095e-35 1.0000000180025095e-35 46.500000000000007 1.0000000180025095e-35 1.0000000180025095e-35 1.0000000180025095e-35 52.500000000000007 1.0000000180025095e-35
decision_type=2 2 2 2 2 2 2 2 2 2 2 2
left_child=3 2 -2 -1 11 -6 -4 8 10 -9 -3 -5
right_child=1 7 6 4 5 -7 -8 9 -10 -11 -12 -13
leaf_value=-0.071883918531887511 -0.069617867640782885 0.01545446927811093 -0.023106401922576209 -0.064209370557122822 -0.0088683605650137481 0.056576111469918623 0.046281959547912005 0.030079195545114415 -0.015031515078662343 0.076961694417255852 0.064070719595134426 -0.020534063652099994
leaf_weight=11.913255885243416 5.2919658422470075 3.4797336608171481 2.4910474866628647 2.9312835335731506 4.678297147154808 3.2067488580942154 3.4557520896196365 6.1964897364377984 3.2474468350410461 10.868264257907867 2.9388166517019272 2.9411290138959885
leaf_count=49 22 14 10 12 19 13 14 25 13 45 12 12
internal_value=0 0.0277175 -0.0255318 -0.0406425 -0.0102123 0.0205564 0.0173541 0.0503995 0.0241655 0.0628221 0.0440241 -0.0492335
internal_weight=63.6402 37.9695 11.2388 25.6707 13.7575 7.88505 5.9468 26.7308 9.666 17.0648 6.41855 5.87241
internal_count=260 155 46 105 56 32 24 109 39 70 26 24
is_linear=0
shrinkage=0.05


Tree=6
num_leaves=13
num_cat=0
split_feature=5 9 8 9 7 6 1 11 3 7 2 9
split_gain=27.2609 17.908 9.25155 7.34856 8.82998 3.76027 3.50472 3.07872 2.60919 3.39739 2.08903 0.146597
threshold=1.0000000180025095e-35 7.5000000000000009 1.0000000180025095e-35 12.500000000000002 1.0000000180025095e-35 4.5000000000000009 3.5000000000000004 4.5000000000000009 1.0000000180025095e-35 1.0000000180025095e-35 1.0000000180025095e-35 12.500000000000002
decision_type=2 2 2 2 2 2 2 2 2 2 2 2
left_child=2 5 3 4 6 -2 -1 -7 9 11 -10 -3
right_child=1 8 -4 -5 -6 7 -8 -9 10 -11 -12 -13
leaf_value=0.063857065309836855 -0.054787885988502573 0.020283334392935122 -0.074420407451517984 -0.066348794123987143 -0.044644262763886458 -0.026956146798966654 0 0.03321418370851778 0.028855287576816702 -0.014460745199646678 0.07451720092239586 0.053668900274935032
leaf_weight=4.190621078014372 4.5899597704410535 3.2074098736047763 10.004317879676819 3.6461333632469186 4.1778496354818344 3.6028695404529572 3.450092077255249 2.9456106275320053 6.1792045682668695 3.2463406473398209 10.700565665960312 3.177435502409935
leaf_count=17 19 13 42 15 17 15 14 12 25 13 45 13
internal_value=0 0.0267248 -0.0391397 -0.0128786 0.00711647 -0.0246562 0.0378886 0.00026159 0.0486055 0.0233401 0.0606301 0.0425925
internal_weight=63.1184 37.6494 25.469 15.4647 11.8186 11.1384 7.64071 6.54848 26.511 9.63119 16.8798 6.38485
internal_count=260 155 105 63 48 46 31 27 109 39 70 26
is_linear=0
shrinkage=0.05


Tree=7
num_leaves=13
num_cat=0
split_feature=5 9 4 3 8 9 3 7 9 2 1 9
split_gain=25.1634 16.5604 8.97819 8.6127 6.62457 7.22419 2.41769 3.1658 2.35739 1.99308 1.76602 0.136351
threshold=1.0000000180025095e-35 7.5000000000000009 1.0000000180025095e-35 1.0000000180025095e-35 1.0000000180025095e-35 11.500000000000002 1.0000000180025095e-35 1.0000000180025095e-35 7.5000000000000009 1.0000000180025095e-35 2.5000000000000004 12.500000000000002
decision_type=2 2 2 2 2 2 2 2 2 2 2 2
left_child=3 2 -2 -1 5 8 7 11 -5 -8 -4 -3
right_child=1 6 10 4 -6 -7 9 -9 -10 -11 -12 -13
leaf_value=-0.067701665180347287 -0.066455316832296177 0.019544641071045366 0.036717582918928564 0.0033990746299312705 -0.061475810654124045 -0.047974966031618549 0.027689109855701246 -0.01391271214471056 0.058762966865105674 0.072301721626423621 -0.011402452291273681 0.051959820384383175
leaf_weight=11.613889649510384 5.1674136668443662 3.2001830637455004 3.4333261549472809 3.7148000299930555 3.313693270087243 2.6652593314647675 6.1600845307111749 3.2449314594268799 3.899408146739006 10.512416645884514 2.4839273393154144 3.1513978987932205
leaf_count=49 22 13 14 15 14 11 25 13 16 45 10 13
internal_value=0 0.0257488 -0.0237327 -0.0378173 -0.0090521 0.0113559 0.0469163 0.0225299 0.0358628 0.0586009 0.0170668 0.041188
internal_weight=62.5607 37.3537 11.0847 25.2071 13.5932 10.2795 26.269 9.59651 7.61421 16.6725 5.91725 6.35158
internal_count=260 155 46 105 56 42 109 39 31 70 24 26
is_linear=0
shrinkage=0.05


Tree=8
num_leaves=13
num_cat=0
split_feature=5 9 8 9 7 0 1 3 7 0 2 0
split_gain=23.252 15.322 8.15952 6.51061 8.04959 4.1067 3.14223 2.24772 2.95214 1.91431 1.91318 1.12841
threshold=1.0000000180025095e-35 7.5000000000000009 1.0000000180025095e-35 12.500000000000002 1.0000000180025095e-35 46.500000000000007 3.5000000000000004 1.0000000180025095e-35 1.0000000180025095e-35 52.500000000000007 1.0000000180025095e-35 52.500000000000007
decision_type=2 2 2 2 2 2 2 2 2 2 2 2
left_child=2 5 3 4 6 -2 -1 8 11 -7 -9 -3
right_child=1 7 -4 -5 -6 9 -8 10 -10 -11 -12 -13
leaf_value=0.061196974694424866 -0.049058886806009082 0.012652820227673814 -0.070344604915024089 -0.062730608535700547 -0.042674506845106874 0.034634226989773552 0 0.026576638538651144 -0.013386367040105261 -0.016680600507597187 0.070283662398508126 0.059641079596355
leaf_weight=4.1401301473379117 5.716632664203642 3.4561231136322039 9.6625753194093704 3.5593203306198129 4.1316631883382797 2.4309012889862061 3.4264998137950897 6.1394294500350961 3.243257001042366 2.8349272310733795 10.307440906763077 2.858757883310318
leaf_count=17 24 14 42 15 17 10 14 25 13 12 45 12
internal_value=0 0.0248645 -0.0365593 -0.0118449 0.0069647 -0.0229212 0.0364707 0.045332 0.0217577 0.00795708 0.0567133 0.0398534
internal_weight=61.9077 36.9875 24.9202 15.2576 11.6983 10.9825 7.56663 26.005 9.55814 5.26583 16.4469 6.31488
internal_count=260 155 105 63 48 46 31 109 39 22 70 26
is_linear=0
shrinkage=0.05


Tree=9
num_leaves=12
num_cat=0
split_feature=5 9 3 8 9 0 9 0 3 7 0
split_gain=21.5316 14.1781 7.69792 5.823 6.33566 3.8129 2.2396 2.22909 2.17869 2.20303 1.78497
threshold=1.0000000180025095e-35 7.5000000000000009 1.0000000180025095e-35 1.0000000180025095e-35 11.500000000000002 46.500000000000007 7.5000000000000009 26.500000000000004 1.0000000180025095e-35 1.0000000180025095e-35 52.500000000000007
decision_type=2 2 2 2 2 2 2 2 2 2 2
left_child=2 5 -1 4 6 -2 -4 -3 9 -9 -7
right_child=1 7 3 -5 -6 10 -8 8 -10 -11 -12
leaf_value=-0.064136453251931444 -0.047375336314974703 0.0015210197103332607 0.0025506815028849073 -0.05798545794935938 -0.044978326283313969 0.033503598742869338 0.05649914854270302 0.0404268659013386 0.061372068072577425 -0.0079710532614357902 -0.016084664947183174
leaf_weight=11.256403863430023 5.6607506573200208 3.068364784121516 3.6952135711908323 3.2027829736471185 2.6127572357654572 2.4212781935930252 3.842175230383873 5.5299206972122192 14.127076432108879 2.9932857602834702 2.8301363885402679
leaf_count=49 24 13 15 14 11 10 16 23 61 12 12
internal_value=0 0.0240278 -0.035406 -0.00805698 0.0110365 -0.0220394 0.0340332 0.0438541 0.0490706 0.0238526 0.00768125
internal_weight=61.2401 36.6308 24.6093 13.3529 10.1501 10.9122 7.53739 25.7186 22.6503 8.52321 5.25141
internal_count=260 155 105 56 42 46 31 109 96 35 22
is_linear=0
shrinkage=0.05


Tree=10
num_leaves=12
num_cat=0
split_feature=5 11 8 4 3 10 4 0 3 0 2
split_gain=19.8793 7.87757 7.26263 5.9504 5.18224 7.7191 5.32889 3.86144 3.17352 1.88107 1.43095
threshold=1.0000000180025095e-35 1.5000000000000002 1.0000000180025095e-35 1.0000000180025095e-35 1.0000000180025095e-35 1.0000000180025095e-35 1.0000000180025095e-35 26.500000000000004 1.0000000180025095e-35 34.500000000000007 1.0000000180025095e-35
decision_type=2 2 2 2 2 2 2 2 2 2 2
left_child=2 -2 3 -1 5 6 -3 -6 -5 -7 -10
right_child=1 4 -4 8 7 9 -8 -9 10 -11 -12
leaf_value=-0.04629980728769674 -0.036583848296713344 -0.0068478568250731064 -0.066907881491935051 -0.027542557717029431 -0.0050870952982063674 -0.0014415736810487819 0.068526258077392058 0.057396570309740075 0.0048592206262338261 -0.055541221578295052 0.051288085261221986
leaf_weight=5.9178264439105979 3.9572285860776892 3.5789912194013578 9.2730239927768707 2.3641044646501541 2.5546397715806988 3.1908345967531195 4.5558022409677505 15.594766110181807 3.6212339103221893 2.8492798507213593 3.1077414005994797
leaf_count=25 17 15 42 10 11 13 19 68 15 12 13
internal_value=0 0.0231367 -0.034297 -0.0109186 0.0314763 0.00754713 0.0376978 0.0485341 0.0139182 -0.0319363 0.0308105
internal_weight=60.5655 36.2815 24.2839 15.0109 32.3243 14.1749 8.13479 18.1494 9.09308 6.04011 6.72898
internal_count=260 155 105 63 138 59 34 79 38 25 28
is_linear=0
shrinkage=0.05


Tree=11
num_leaves=13
num_cat=0
split_feature=5 9 4 8 9 7 1 4 9 1 3 9
split_gain=18.2608 12.846 7.6752 6.86201 5.67557 7.20889 2.74024 2.26641 2.59585 1.39798 0.539158 0.487376
threshold=1.0000000180025095e-35 7.5000000000000009 1.0000000180025095e-35 1.0000000180025095e-35 12.500000000000002 1.0000000180025095e-35 3.5000000000000004 1.0000000180025095e-35 12.500000000000002 2.5000000000000004 1.0000000180025095e-35 17.500000000000004
decision_type=2 2 2 2 2 2 2 2 2 2 2 2
left_child=3 2 -2 4 5 6 -1 8 10 -4 -3 -10
right_child=1 7 9 -5 -6 -7 -8 -9 11 -11 -12 -13
leaf_value=0.058480297761050251 -0.062333102921053554 -0.01583247641893756 0.033519867864077971 -0.06530553646547127 -0.058820288124581926 -0.040263861341956364 0 0.059817527003407749 0.046873759013508827 -0.009489135825973459 0.010753465777843758 0.010761044395822632
leaf_weight=4.0597991496324521 4.942922577261923 2.4663006961345681 3.3604213744401932 9.0555724501609802 3.4245039373636255 4.0553137958049774 3.3819469958543777 10.125058382749557 7.1246358901262266 2.4672968089580536 3.1747122406959534 2.3172662854194641
leaf_count=17 22 10 14 42 15 17 14 44 31 10 14 10
internal_value=-5.87953e-05 0.0221705 -0.0218494 -0.033167 -0.0104722 0.00708307 0.0351899 0.0412857 0.0255888 0.0158558 -0.000751015 0.040369
internal_weight=59.9558 35.9786 10.7706 23.9771 14.9216 11.4971 7.44175 25.208 15.0829 5.82772 5.64101 9.4419
internal_count=260 155 46 105 63 48 31 109 65 24 24 41
is_linear=0
shrinkage=0.05


Tree=12
num_leaves=12
num_cat=0
split_feature=5 11 3 4 1 3 6 2 10 2 2
split_gain=16.9117 6.93628 6.63523 5.11075 4.73932 3.10195 6.57632 2.79605 1.89475 0.615059 0.565971
threshold=1.0000000180025095e-35 1.5000000000000002 1.0000000180025095e-35 1.0000000180025095e-35 4.5000000000000009 1.0000000180025095e-35 3.5000000000000004 1.0000000180025095e-35 1.0000000180025095e-35 1.0000000180025095e-35 1.0000000180025095e-35
decision_type=2 2 2 2 2 2 2 2 2 2 2
left_child=2 -2 -1 10 5 6 -3 -5 -8 -7 -4
right_child=1 4 3 7 -6 9 8 -9 -10 -11 -12
leaf_value=-0.059664079270759986 -0.034916012871146332 -0.034948799442145545 -0.054775720699367064 -0.0061683759665202625 -0.020640510674227577 0.030482164444406015 0.050999320898426848 0.049229820540627189 0 0.061868642444604938 -0.013687015499511682
leaf_weight=10.661579430103302 3.8978938311338416 3.6278951764106795 2.6805052757263184 4.4519877731800079 3.4400569945573798 7.3764821738004676 6.1024681031703931 3.0571654438972473 2.5917922854423523 8.5708627104759216 2.7716584801673889
leaf_count=49 17 15 12 19 15 31 26 13 11 40 12
internal_value=-8.16047e-05 0.0213886 -0.0322017 -0.00659834 0.0293186 0.0360663 0.0148755 0.018933 0.0376422 0.0503011 -0.0400215
internal_weight=59.2303 35.6075 23.6229 12.9613 31.7096 28.2695 12.3222 7.50915 8.69426 15.9473 5.45216
internal_count=260 155 105 56 138 123 52 32 37 71 24
is_linear=0
shrinkage=0.05


Tree=13
num_leaves=14
num_cat=0
split_feature=5 9 4 8 9 9 4 0 0 4 9 8 9
split_gain=15.6056 11.6782 6.90416 6.33881 5.17565 6.78871 3.96496 2.64092 2.15466 2.4805 2.64239 0.255917 0.0561678
threshold=1.0000000180025095e-35 7.5000000000000009 1.0000000180025095e-35 1.0000000180025095e-35 12.500000000000002 6.5000000000000009 1.0000000180025095e-35 46.500000000000007 25.500000000000004 1.0000000180025095e-35 12.500000000000002 1.0000000180025095e-35 10.500000000000002
decision_type=2 2 2 2 2 2 2 2 2 2 2 2 2
left_child=3 2 -2 4 5 -1 -7 -4 -3 10 12 -12 -10
right_child=1 8 7 -5 -6 6 -8 -9 9 -11 11 -13 -14
leaf_value=-0.040383868458456026 -0.060533971416945623 -0.0051755803820529205 -0.019612644894354214 -0.062827582886806274 -0.056254465125528876 -0.011946197507544193 0.056884511326455257 0.039212693567991015 -0.0068171019561920378 0.063972214632878083 0.047248270346965104 0.013894711920834699 0.0015780486246441548
leaf_weight=3.7969494313001615 4.8196402192115766 2.1064117848873165 2.465301588177681 8.6598004996776581 3.3098227828741082 2.6088209301233292 4.9386877566576004 3.3157513588666916 2.5360533893108377 8.9001695811748505 6.4746920019388181 2.3207112550735474 2.3624216020107269
leaf_count=16 22 9 10 42 15 11 21 14 11 40 29 10 10
internal_value=-0.00011092 0.0205709 -0.0216381 -0.0311902 -0.00935581 0.00737078 0.0338938 0.0141967 0.0390174 0.0433941 0.0262359 0.0412751 -0.00233952
internal_weight=58.6152 35.3012 10.6007 23.3141 14.6543 11.3445 7.54751 5.78105 24.7005 22.594 13.6939 8.7954 4.89847
internal_count=260 155 46 105 63 48 32 24 109 100 60 39 21
is_linear=0
shrinkage=0.05


Tree=14
num_leaves=12
num_cat=0
split_feature=3 11 6 0 7 2 1 11 0 0 6
split_gain=10.3637 8.76499 7.63714 6.05491 6.8555 5.0594 5.8637 3.06785 2.77752 3.98505 1.30875
threshold=1.0000000180025095e-35 2.5000000000000004 2.5000000000000004 51.500000000000007 1.0000000180025095e-35 1.0000000180025095e-35 2.5000000000000004 5.5000000000000009 35.500000000000007 29.500000000000004 4.5000000000000009
decision_type=2 2 2 2 2 2 2 2 2 2 2
left_child=3 2 -2 8 -5 6 7 -3 9 -1 -11
right_child=1 5 -4 4 -6 -7 -8 -9 -10 10 -12
leaf_value=-0.045718717642727044 0.021819014154952389 0.051021218959330664 -0.064734744769125691 0.048474698057815596 -0.036109130914899888 0.057195648362121279 -0.032413283152382948 -0.01053496630533202 -0.059881522565751882 -0.013191651144786841 0.02942031621789409
leaf_weight=5.1857148259878212 4.1816896349191683 5.8486743122339231 4.1575002819299698 4.4961711764335623 3.2564268708229065 11.112911388278008 4.2378123849630365 2.2779892534017563 7.7841782420873633 2.2752824127674103 3.0264315903186798
leaf_count=23 19 25 19 20 15 52 18 10 36 10 13
internal_value=-0.000148126 0.0186526 -0.023108 -0.0231582 0.0123083 0.0340284 0.0101103 0.0339548 -0.0383238 -0.0180676 0.0111482
internal_weight=57.8408 31.8166 8.33919 26.0242 7.7526 23.4774 12.3645 8.12666 18.2716 10.4874 5.30171
internal_count=260 143 38 117 35 105 53 35 82 46 23
is_linear=0
shrinkage=0.05


Tree=15
num_leaves=14
num_cat=0
split_feature=5 9 4 3 9 9 4 0 4 2 3 0 1
split_gain=14.0368 10.3309 6.19952 5.52471 4.36287 4.96396 3.11599 2.321 2.00225 4.17244 2.88168 1.60572 0.0500921
threshold=1.0000000180025095e-35 7.5000000000000009 1.0000000180025095e-35 1.0000000180025095e-35 11.500000000000002 4.5000000000000009 1.0000000180025095e-35 46.500000000000007 1.0000000180025095e-35 1.0000000180025095e-35 1.0000000180025095e-35 42.500000000000007 3.5000000000000004
decision_type=2 2 2 2 2 2 2 2 2 2 2 2 2
left_child=3 2 -2 -1 5 -5 -7 -4 9 11 -11 -3 -10
right_child=1 8 7 4 -6 6 -8 -9 12 10 -12 -13 -14
leaf_value=-0.055973972106580894 -0.058185301521104418 -0.034802050876000953 -0.01826501262496746 -0.042733691083478416 -0.04739236741331785 -0.0092546412100277271 0.053277534173498432 0.037062118658649099 0.060286096873276365 0.0004692610479849744 0.059655763513237682 0.01173423408594804 0.0219105894432866
leaf_weight=10.070016533136368 4.6353126764297468 2.4413896650075904 2.4525990933179855 2.088591203093527 3.4816889166831979 2.5225813686847687 4.5194429457187653 3.2619054466485977 7.3926611244678497 3.1879384070634842 5.950280025601387 3.0195680856704712 2.1653119176626205
leaf_count=49 22 10 10 9 16 11 20 14 34 13 29 13 10
internal_value=-0.000193353 0.0196104 -0.0205289 -0.0300881 -0.00645906 0.0117935 0.0318902 0.013388 0.0371387 0.0223722 0.0415842 -0.010463 0.0549646
internal_weight=57.1893 34.507 10.3498 22.6823 12.6123 9.13062 7.04202 5.7145 24.1571 14.5992 9.13822 5.46096 9.55797
internal_count=260 155 46 105 56 40 31 24 109 65 42 23 44
is_linear=0
shrinkage=0.05


Tree=16
num_leaves=14
num_cat=0
split_feature=5 9 4 8 2 4 0 0 4 9 1 9 9
split_gain=13.0614 9.60686 5.82278 5.54945 4.5764 2.23696 2.16753 1.95457 2.20947 2.28539 0.619047 0.327121 0.063238
threshold=1.0000000180025095e-35 7.5000000000000009 1.0000000180025095e-35 1.0000000180025095e-35 1.0000000180025095e-35 1.0000000180025095e-35 46.500000000000007 25.500000000000004 1.0000000180025095e-35 12.500000000000002 2.5000000000000004 9.5000000000000018 10.500000000000002
decision_type=2 2 2 2 2 2 2 2 2 2 2 2 2
left_child=3 2 -2 4 5 -1 -4 -3 9 12 -6 -7 -9
right_child=1 7 6 -5 10 11 -8 8 -10 -11 -12 -13 -14
leaf_value=-0.05689579626721443 -0.056911998917900435 -0.0058772568199084311 -0.017647106623869365 -0.059936084135504532 0 0.0048645566507154805 0.035908629204974278 -0.0072741739950710248 0.060248756379503846 0.038335262905844832 0.032624787147188333 -0.016656770327677498 0.0017278195023156643
leaf_weight=3.4863694161176664 4.5271885991096479 2.0776068717241314 2.4467171281576157 8.1072035580873489 2.1391118615865716 2.6195795685052872 3.2312588840723038 2.4922245889902124 8.4400912970304489 8.488119035959242 3.7293410152196884 2.2482796311378479 2.3426449447870255
leaf_count=16 22 9 10 42 10 11 14 11 40 39 16 10 10
internal_value=-0.00020121 0.0190128 -0.0199416 -0.0292699 -0.00867213 -0.0311895 0.0128952 0.0360203 0.0403221 0.0240245 0.0225292 -0.00536792 -0.00250692
internal_weight=56.3757 34.0459 10.2052 22.3299 14.2227 8.35423 5.67798 23.8407 21.7631 13.323 5.86845 4.86786 4.83487
internal_count=260 155 46 105 63 37 24 109 100 60 26 21 21
is_linear=0
shrinkage=0.05


Tree=17
num_leaves=14
num_cat=0
split_feature=5 9 8 9 7 6 0 1 10 2 7 3 0
split_gain=12.0988 8.8969 5.26835 4.44448 5.99549 2.86831 2.65004 2.20197 1.95187 2.55362 1.74495 0.490173 0.00175877
threshold=1.0000000180025095e-35 7.5000000000000009 1.0000000180025095e-35 12.500000000000002 1.0000000180025095e-35 4.5000000000000009 46.500000000000007 3.5000000000000004 1.0000000180025095e-35 1.0000000180025095e-35 1.0000000180025095e-35 1.0000000180025095e-35 44.500000000000007
decision_type=2 2 2 2 2 2 2 2 2 2 2 2 2
left_child=2 5 3 4 7 -2 -7 -1 10 12 -3 -11 -10
right_child=1 8 -4 -5 -6 6 -8 -9 9 11 -12 -13 -14
leaf_value=0.054543448577565407 -0.046906817898552736 0.059530568691601241 -0.058805009316388913 -0.052913888587852211 -0.036796555723333027 -0.028075240829299897 0.029801025905461784 0 -0.010584703230525579 0.011911260176192042 0.013431606720604434 0.049843898206454712 -0.0022491107283889159
leaf_weight=3.8793338835239428 4.1189384460449201 8.8832057863473874 7.8751136362552634 3.1274321377277365 3.8737246543169022 2.6428303271532059 3.2967550605535507 3.2527875900268555 2.370980829000473 2.6775070875883102 3.8809277117252359 2.9381541013717651 2.8062011301517487
leaf_count=17 19 43 42 15 17 12 15 14 10 11 18 15 12
internal_value=-0.000238544 0.0183568 -0.0284216 -0.00839437 0.00719351 -0.0193822 0.0029936 0.0332878 0.0348075 0.016184 0.0478716 0.037048 -0.0079715
internal_weight=55.6239 33.6155 22.0084 14.1333 11.0058 10.0585 5.93959 7.13212 23.557 10.7928 12.7641 5.61566 5.17718
internal_count=260 155 105 63 48 46 27 31 109 48 61 26 22
is_linear=0
shrinkage=0.05


Tree=18
num_leaves=15
num_cat=0
split_feature=5 9 4 8 9 9 4 4 9 1 1 9 1 10
split_gain=11.2496 8.28043 5.42551 4.99079 4.18565 5.85851 3.12297 1.83369 1.9127 0.964488 0.687423 0.58467 0.096049 0.015492
threshold=1.0000000180025095e-35 7.5000000000000009 1.0000000180025095e-35 1.0000000180025095e-35 12.500000000000002 6.5000000000000009 1.0000000180025095e-35 1.0000000180025095e-35 12.500000000000002 2.5000000000000004 3.5000000000000004 17.500000000000004 3.5000000000000004 1.0000000180025095e-35
decision_type=2 2 2 2 2 2 2 2 2 2 2 2 2 2
left_child=3 2 -2 4 5 -1 -7 8 10 -4 -3 13 -9 -10
right_child=1 7 9 -5 -6 6 -8 12 11 -11 -12 -13 -14 -15
leaf_value=-0.037844358959392428 -0.055181150133263579 -0.018725384962639809 0.028068912150790437 -0.057738680323858677 -0.051778697714082639 -0.0092870073296674929 0.052924617543565228 0.056469028031457813 0.050325294353278677 -0.007918807587092699 0.011443229167434198 0.0048307823708655193 0.019242743669633734 0.021272678193975672
leaf_weight=3.6797285526990908 4.3643079698085767 2.5750367939472207 3.1769122779369354 7.6438685655593863 3.0598396956920615 2.5237965732812881 4.7209853231906891 6.9720516353845596 2.9321782439947111 2.4320896714925766 2.9030944406986237 2.1795540601015091 2.086615189909935 3.6180753111839294
leaf_count=16 22 11 14 42 15 11 21 34 15 10 13 10 10 16
internal_value=-0.000241898 0.0177521 -0.0187678 -0.0276798 -0.00815912 0.0069566 0.0321483 0.0337408 0.0196744 0.0128708 -0.00266743 0.0330414 0.0511568 0.039883
internal_weight=54.8681 33.2399 9.97331 21.6282 13.9844 10.9245 7.24478 23.2666 14.2079 5.609 5.47813 8.72981 9.05867 6.55025
internal_count=260 155 46 105 63 48 32 109 65 24 24 41 44 31
is_linear=0
shrinkage=0.05


Tree=19
num_leaves=13
num_cat=0
split_feature=5 9 4 3 9 9 4 2 4 3 0 0
split_gain=10.5225 7.7147 5.10962 4.72565 3.64706 4.28001 2.49861 1.99519 3.37942 2.15564 1.85465 1.33762
threshold=1.0000000180025095e-35 7.5000000000000009 1.0000000180025095e-35 1.0000000180025095e-35 11.500000000000002 4.5000000000000009 1.0000000180025095e-35 1.0000000180025095e-35 1.0000000180025095e-35 1.0000000180025095e-35 46.500000000000007 42.500000000000007
decision_type=2 2 2 2 2 2 2 2 2 2 2 2
left_child=3 2 -2 -1 5 -5 -7 8 11 -9 -4 -3
right_child=1 7 10 4 -6 6 -8 9 -10 -11 -12 -13
leaf_value=-0.052063690814728517 -0.054071544285959366 -0.03422615708632213 -0.015889868431103432 -0.039417534004862233 -0.043496714677268837 -0.0067160473070392874 0.050396514711814222 0.012989860317299385 0.041346018063987813 0.059444017577196223 0.033900523388256609 0.0085864735456780486
leaf_weight=9.2360477894544601 4.2544878423213941 2.4435389190912247 2.4274996817111969 2.0053546577692014 3.2461983114480981 2.4418147951364517 4.3201853483915329 4.7548189610242835 4.4434496611356735 8.4316099882125854 3.1605123579502106 2.9356394857168198
leaf_count=49 22 10 10 9 16 11 20 20 21 45 14 13
internal_value=-0.000221654 0.0172479 -0.0182188 -0.0270154 -0.00485309 0.0119316 0.0309203 0.0327546 0.0130282 0.0451422 0.0123833 -0.0123944
internal_weight=54.1012 32.8516 9.8425 21.2496 12.0136 8.76735 6.762 23.0091 9.82263 13.1864 5.58801 5.37918
internal_count=260 155 46 105 56 40 31 109 44 65 24 23
is_linear=0
shrinkage=0.05


Tree=20
num_leaves=14
num_cat=0
split_feature=5 9 4 8 2 2 4 3 4 8 9 7 6
split_gain=9.79783 7.17683 4.81334 4.63348 4.0347 1.89176 3.15755 2.09265 1.85307 0.846085 0.250056 0.244733 0.135746
threshold=1.0000000180025095e-35 7.5000000000000009 1.0000000180025095e-35 1.0000000180025095e-35 1.0000000180025095e-35 1.0000000180025095e-35 1.0000000180025095e-35 1.0000000180025095e-35 1.0000000180025095e-35 1.0000000180025095e-35 9.5000000000000018 1.0000000180025095e-35 1.5000000000000002
decision_type=2 2 2 2 2 2 2 2 2 2 2 2 2
left_child=3 2 -2 4 8 6 9 -7 -1 -3 -10 -4 -6
right_child=1 5 11 -5 12 7 -8 -9 10 -11 -12 -13 -14
leaf_value=-0.053272365275108452 -0.053017086962777217 0.0055892551812774293 0.019170178009409403 -0.056087543932172329 0.031044208925227079 0.012471327119569574 0.04017158602576959 0.058365796537285387 0.0038155054482460976 -0.028413730720431442 -0.015144864317541291 0 0.0086069070372964962
leaf_weight=3.2658989578485507 4.1448274403810483 2.7803761810064316 3.2040039449930191 7.2495921403169623 2.4180397242307663 4.7466775923967353 4.3756591379642487 8.1827972382307053 2.5489117205142975 2.5991949886083603 2.15227210521698 2.345659539103508 3.2586283385753632
leaf_count=16 22 12 14 42 11 20 21 45 11 11 10 10 15
internal_value=-0.000249388 0.0167127 -0.0177275 -0.0263272 -0.00742231 0.0317691 0.0125345 0.0439808 -0.0291571 -0.0119345 -0.00512172 0.011936 0.0221314
internal_weight=53.2725 32.3792 9.69449 20.8933 13.6438 22.6847 9.75523 12.9295 7.96708 5.37957 4.70118 5.54966 5.67667
internal_count=260 155 46 105 63 109 44 65 37 23 21 24 26
is_linear=0
shrinkage=0.05


Tree=21
num_leaves=15
num_cat=0
split_feature=5 9 4 8 2 10 2 4 1 11 1 11 9 9
split_gain=9.09573 6.6747 4.54402 4.42295 3.77337 1.88467 2.27505 1.76455 0.856292 0.652282 0.551975 0.257746 0.234258 0.177692
threshold=1.0000000180025095e-35 7.5000000000000009 1.0000000180025095e-35 1.0000000180025095e-35 1.0000000180025095e-35 1.0000000180025095e-35 1.0000000180025095e-35 1.0000000180025095e-35 2.5000000000000004 2.5000000000000004 2.5000000000000004 3.5000000000000004 9.5000000000000018 10.500000000000002
decision_type=2 2 2 2 2 2 2 2 2 2 2 2 2 2
left_child=3 2 -2 4 7 13 11 -1 -4 -8 -6 -7 -9 -3
right_child=1 5 8 -5 10 6 9 12 -10 -11 -12 -13 -14 -15
leaf_value=-0.052145057306129478 -0.0520123871562857 0.02151939045599649 0.026032652846600529 -0.055162998377422237 0 -0.018388390158583619 0.050329055673189675 0.0036787634759204986 -0.0079039280483406537 0.010484132937177563 0.030893832148625816 0.00056637024987850413 -0.01465660962736101 0.050512553452887257
leaf_weight=3.1931464970111865 4.0357373952865618 3.8155570328235635 3.1164408177137375 7.0250088274478903 2.0289880782365799 2.5936197936534882 2.2227221131324768 2.5486502051353455 2.4224587082862854 3.1072516441345215 3.6407508850097656 2.512230321764946 2.1462401449680328 8.1139931976795179
leaf_count=16 22 18 14 42 10 11 11 11 10 15 16 11 10 43
internal_value=-0.00025086 0.0161917 -0.017193 -0.0255658 -0.0071507 0.0308219 0.0127814 -0.0283201 0.0114868 0.0332162 0.021382 -0.00967788 -0.00492697 0.0440076
internal_weight=52.5228 31.94 9.57464 20.5828 13.5578 22.3654 10.4358 7.88804 5.5389 5.32997 5.66974 5.10585 4.69489 11.9296
internal_count=260 155 46 105 63 109 48 37 24 26 26 22 21 61
is_linear=0
shrinkage=0.05


Tree=22
num_leaves=14
num_cat=0
split_feature=5 9 4 3 9 9 4 10 2 0 11 11 9
split_gain=8.47553 6.21685 4.28897 4.2608 3.23541 3.9164 2.25567 1.76734 2.13739 1.69055 0.625823 0.240129 0.177083
threshold=1.0000000180025095e-35 7.5000000000000009 1.0000000180025095e-35 1.0000000180025095e-35 11.500000000000002 4.5000000000000009 1.0000000180025095e-35 1.0000000180025095e-35 1.0000000180025095e-35 46.500000000000007 2.5000000000000004 3.5000000000000004 10.500000000000002
decision_type=2 2 2 2 2 2 2 2 2 2 2 2 2
left_child=3 2 -2 -1 5 -5 -7 12 11 -4 -10 -9 -3
right_child=1 7 9 4 -6 6 -8 8 10 -11 -12 -13 -14
leaf_value=-0.049489938560563995 -0.051052679126363701 0.020773216909966162 -0.015698886148386229 -0.037603353025639843 -0.041003641540028508 -0.0058188261545840331 0.04907757117901565 -0.017687810660278414 0.049247037085335017 0.031949307638024567 0.010111994301857229 0.00054616801386544089 0.049305824395019016
leaf_weight=8.6516245454549789 3.9275718480348605 3.7915212363004684 2.4242520481348038 1.9393291175365428 3.076060116291047 2.3842665404081345 4.2166718244552612 2.600946843624115 2.1810117661952972 3.0934031158685684 3.0975754410028458 2.5118893682956696 7.9262202084064484
leaf_count=49 22 18 10 9 16 11 20 11 11 14 15 11 43
internal_value=-0.000237914 0.0157098 -0.0167101 -0.0248727 -0.00367245 0.0121381 0.0304343 0.0299001 0.0124054 0.0110507 0.0323465 -0.0092878 0.042826
internal_weight=51.8223 31.5544 9.44523 20.268 11.6163 8.54027 6.60094 22.1092 10.3914 5.51766 5.27859 5.11284 11.7177
internal_count=260 155 46 105 56 40 31 109 48 24 26 22 61
is_linear=0
shrinkage=0.05


Tree=23
num_leaves=15
num_cat=0
split_feature=5 9 8 4 7 0 4 2 1 1 0 0 0 1
split_gain=7.91646 5.79505 4.14446 4.04869 3.73862 4.972 1.77924 3.12868 3.34545 2.64837 1.58104 0.36546 0.314758 0.215999
threshold=1.0000000180025095e-35 7.5000000000000009 1.0000000180025095e-35 1.0000000180025095e-35 1.0000000180025095e-35 34.500000000000007 1.0000000180025095e-35 1.0000000180025095e-35 2.5000000000000004 2.5000000000000004 46.500000000000007 37.500000000000007 37.500000000000007 3.5000000000000004
decision_type=2 2 2 2 2 2 2 2 2 2 2 2 2 2
left_child=2 3 4 -2 5 -1 7 8 -3 -9 -5 -6 -11 -8
right_child=1 6 -4 10 11 -7 13 9 -10 12 -12 -13 -14 -15
leaf_value=-0.037153811262537931 -0.050133745301794402 0.02162144588463033 -0.05373919982311845 -0.01517212741958323 -0.011616286950279553 0.035539806070306677 0.052212215211428097 -0.01077592771183254 -0.045995382753999087 0.05713961505451487 0.030992260446778375 -0.050858340171261923 0.016166777896746774 0.015055459180406511
leaf_weight=2.5057825595140475 3.8206342607736605 2.7534157782793036 6.6486562937498084 2.4178805351257324 2.1193046271800986 6.1921325474977493 6.3832003176212311 2.0056047439575195 2.5874352753162384 4.0584629774093628 3.061187818646431 2.4534386396408081 2.1068735718727112 1.9596464931964872
leaf_count=12 22 12 42 10 10 29 34 10 11 21 14 12 11 10
internal_value=-0.00023309 0.0152518 -0.0242623 -0.0162789 -0.00641295 0.0124103 0.0290129 0.0153687 -0.0124354 0.0334621 0.010651 -0.0389164 0.0480461 0.0465653
internal_weight=51.0737 31.1543 19.9193 9.2997 13.2707 8.69792 21.8546 13.5118 5.34085 8.17094 5.47907 4.57274 6.16534 8.34285
internal_count=260 155 105 46 63 41 109 65 23 42 24 22 32 44
is_linear=0
shrinkage=0.05


Tree=24
num_leaves=12
num_cat=0
split_feature=3 11 6 0 7 2 1 0 0 11 6
split_gain=6.4076 6.50963 5.11554 4.2493 4.0781 3.58023 4.22165 2.34742 2.94237 2.22934 0.898308
threshold=1.0000000180025095e-35 2.5000000000000004 2.5000000000000004 51.500000000000007 1.0000000180025095e-35 1.0000000180025095e-35 2.5000000000000004 35.500000000000007 29.500000000000004 5.5000000000000009 4.5000000000000009
decision_type=2 2 2 2 2 2 2 2 2 2 2
left_child=3 2 -2 7 -5 6 9 8 -1 -3 -10
right_child=1 5 -4 4 -6 -7 -8 -9 10 -11 -12
leaf_value=-0.039284315543773304 0.016370006866563827 0.044966301042105604 -0.058862758550202482 0.041103445150576345 -0.02827694371461564 0.051090073608327083 -0.028279560986734082 -0.054704236250839713 -0.0094221470227089186 -0.0099247100034375538 0.027176433906116682
leaf_weight=4.5658944696187991 3.6535287201404598 5.3387520313262939 3.5680423378944397 3.9313607364892951 2.7247292846441269 9.3062182068824768 3.9239117503166199 6.5126491934061042 2.0609050244092941 1.9822214394807813 2.7577642351388931
leaf_count=23 19 25 19 20 15 52 18 36 10 10 13
internal_value=-0.000271776 0.0154669 -0.0228313 -0.0196988 0.0120652 0.0295916 0.00867191 -0.0332211 -0.0139987 0.0300965 0.011735
internal_weight=50.326 27.7727 7.22157 22.5533 6.65609 20.5511 11.2449 15.8972 9.38456 7.32097 4.81867
internal_count=260 143 38 117 35 105 53 82 46 35 23
is_linear=0
shrinkage=0.05


Tree=25
num_leaves=14
num_cat=0
split_feature=5 9 8 4 7 9 4 2 3 9 8 11 7
split_gain=7.22188 5.17087 3.7348 3.67698 3.42273 3.28041 1.68571 2.84373 2.63004 1.40311 0.757053 0.196392 0.178119
threshold=1.0000000180025095e-35 7.5000000000000009 1.0000000180025095e-35 1.0000000180025095e-35 1.0000000180025095e-35 11.500000000000002 1.0000000180025095e-35 1.0000000180025095e-35 1.0000000180025095e-35 8.5000000000000018 1.0000000180025095e-35 4.5000000000000009 1.0000000180025095e-35
decision_type=2 2 2 2 2 2 2 2 2 2 2 2 2
left_child=2 3 4 -2 5 9 7 10 -9 -1 -3 -6 -5
right_child=1 6 -4 12 11 -7 -8 8 -10 -11 -12 -13 -14
leaf_value=0.0065482363801415856 -0.04864227858106332 0.0047835568093323975 -0.052449330800911666 0.016325865582959804 -0.012927815478100761 -0.032091885599212354 0.045142180394586368 -0.0027028013794432142 0.051928788707216011 0.054018676915261299 -0.027559586721425191 -0.048263123565110616 0
leaf_weight=4.1322722882032412 3.6349674761295336 2.7329206168651581 6.2954732775688163 3.1081129014492035 2.1182004660367957 2.1162312924861908 8.0585639923810959 3.1211816370487213 4.8315549045801163 2.2779256701469421 2.5733632743358612 2.3693435043096542 2.2930551022291183
leaf_count=19 22 12 42 14 10 11 44 13 29 11 11 12 10
internal_value=-0.000313456 0.01464 -0.0236293 -0.0155407 -0.00658313 0.0116172 0.0277802 0.0144514 0.0320223 0.0291054 -0.0119918 -0.0378906 0.0100742
internal_weight=49.6632 30.3537 19.3094 9.03614 13.014 8.52643 21.3176 13.259 7.95274 6.4102 5.30628 4.48754 5.40117
internal_count=260 155 105 46 63 41 109 65 42 30 23 22 24
is_linear=0
shrinkage=0.05


Tree=26
num_leaves=13
num_cat=0
split_feature=5 9 8 4 9 9 4 11 3 7 9 7
split_gain=6.72938 4.81129 3.55481 3.48135 3.25165 4.75939 2.25438 1.77638 2.4985 1.4256 0.475235 0.166316
threshold=1.0000000180025095e-35 7.5000000000000009 1.0000000180025095e-35 1.0000000180025095e-35 12.500000000000002 6.5000000000000009 1.0000000180025095e-35 1.5000000000000002 1.0000000180025095e-35 1.0000000180025095e-35 12.500000000000002 1.0000000180025095e-35
decision_type=2 2 2 2 2 2 2 2 2 2 2 2
left_child=2 3 4 -2 5 -1 -7 -3 9 10 -9 -5
right_child=1 7 -4 11 -6 6 -8 8 -10 -11 -12 -13
leaf_value=-0.034112295658141521 -0.047816130653197592 -0.012963383993256845 -0.051681061660263455 0.015749286428259932 -0.04685133707466415 -0.005919987691180858 0.048854394536780858 0.0032752620697479012 0.045662308888797569 -0.017159291359347795 0.03491584415378967 0
leaf_weight=3.4662823677063006 3.5327600240707415 1.8203730583190942 6.0897002965211859 3.0976840406656265 2.7080444097518912 2.3602618277072906 4.3560114949941635 2.7848613411188134 11.315766155719757 2.7019956260919571 2.3872466236352921 2.2930551022291183
leaf_count=16 22 8 42 14 15 11 21 13 65 11 12 10
internal_value=-0.000351651 0.0141645 -0.0230584 -0.015094 -0.00642953 0.00710185 0.0306848 0.0269396 0.031427 0.00756599 0.0219803 0.00969432
internal_weight=48.914 29.9337 18.9803 8.9235 12.8906 10.1826 6.71627 21.0102 19.1899 7.8741 5.17211 5.39074
internal_count=260 155 105 46 63 48 32 109 101 36 25 24
is_linear=0
shrinkage=0.05


Tree=27
num_leaves=15
num_cat=0
split_feature=5 9 8 7 0 6 0 11 1 7 0 9 9 0
split_gain=6.27813 4.46807 3.37232 3.17272 4.22164 2.55196 1.78179 1.67146 1.69245 1.13896 1.15738 0.39978 0.564559 0.283214
threshold=1.0000000180025095e-35 7.5000000000000009 1.0000000180025095e-35 1.0000000180025095e-35 34.500000000000007 4.5000000000000009 46.500000000000007 1.5000000000000002 4.5000000000000009 1.0000000180025095e-35 32.500000000000007 12.500000000000002 11.500000000000002 37.500000000000007
decision_type=2 2 2 2 2 2 2 2 2 2 2 2 2 2
left_child=2 5 3 4 -1 -2 -7 -3 9 11 -11 12 -9 -5
right_child=1 7 -4 13 -6 6 -8 8 -10 10 -12 -13 -14 -15
leaf_value=-0.034941110776034782 -0.042313547710150057 -0.012525715307648283 -0.050940811908447819 -0.011191046096245249 0.033081177094428531 -0.020140726040262045 0.029508415557482789 0.03396322933099797 -0.0075396260207976507 0.033705619059889766 -0.0070634475437884054 0.05263732378903653 0 -0.047940574367893937
leaf_weight=2.4010393917560595 3.5662053674459475 1.8246127068996454 5.8889166563749304 2.079684078693389 5.9486300647258759 2.3136940896511078 2.9330607503652573 2.3486737459898048 2.041528806090354 2.0722350478172293 3.0506472736597061 7.3580091446638107 2.0220697075128555 2.3080496788024902
leaf_count=12 19 8 42 10 29 12 15 12 10 11 15 42 11 12
internal_value=-0.00041768 0.013672 -0.0225691 -0.00633467 0.0113408 -0.0146637 0.00709459 0.0260759 0.0304975 0.0355499 0.0114227 0.04397 0.0213639 -0.0367603
internal_weight=48.1571 29.5307 18.6263 12.7374 8.34967 8.81296 5.24675 20.7178 18.8932 16.8516 5.12288 11.7288 4.37074 4.38773
internal_count=260 155 105 63 41 46 27 109 101 91 26 65 23 22
is_linear=0
shrinkage=0.05


Tree=28
num_leaves=16
num_cat=0
split_feature=0 4 9 9 0 11 3 8 9 6 9 6 1 0 0
split_gain=5.95261 6.24117 5.38416 4.56291 1.90484 1.51337 1.69098 1.50534 1.0796 1.05301 0.918156 0.863661 0.72964 0.657277 0.222185
threshold=25.500000000000004 1.0000000180025095e-35 10.500000000000002 3.5000000000000004 48.500000000000007 5.5000000000000009 1.0000000180025095e-35 1.0000000180025095e-35 16.500000000000004 4.5000000000000009 12.500000000000002 3.5000000000000004 2.5000000000000004 33.500000000000007 52.500000000000007
decision_type=2 2 2 2 2 2 2 2 2 2 2 2 2 2 2
left_child=11 2 13 9 7 10 -7 8 -4 -3 -5 -1 -6 -2 -15
right_child=1 3 4 5 12 6 -8 -9 -10 -11 -12 -13 -14 14 -16
leaf_value=-0.011948335471711459 -0.0052228805289778763 -0.030123640730660844 0.043824064747784316 0.054272061281221334 -0.034571687659739725 -0.022591593938566325 0.03270104865156799 -0.0082817467591371971 0 0.0088104247811882832 0.01367171369381296 -0.060309652599561371 0.00066976064183575917 -0.057219188476971251 -0.019212380196855602
leaf_weight=2.3613086789846411 1.6281113550066963 2.7887828424572971 4.3262323886156064 8.9736853167414647 1.80248463153839 1.7040749564766875 1.7962005287408829 2.6219556108117104 1.9966282993555067 2.2812568247318268 3.0091992840170851 3.1073800101876259 2.4520626217126846 4.1638856679201126 2.5000282675027847
leaf_count=13 10 14 23 47 10 11 10 14 11 12 18 15 13 24 15
internal_value=-0.000470662 0.00615741 -0.0122797 0.0253434 0.00741267 0.0383091 0.00563284 0.0200939 0.0320675 -0.0132162 0.0462998 -0.0452761 -0.0170471 -0.0415887 -0.0479803
internal_weight=47.5133 42.0446 21.4914 20.5532 13.1994 15.4832 3.50028 8.94482 6.32286 5.07004 11.9829 5.46869 4.25455 8.29203 6.66391
internal_count=260 232 120 112 71 86 21 48 34 26 65 28 23 49 39
is_linear=0
shrinkage=0.05


Tree=29
num_leaves=15
num_cat=0
split_feature=0 4 9 9 11 3 1 11 3 6 0 9 6 0
split_gain=5.54879 5.8004 5.11628 4.24541 2.13914 2.91206 1.55683 1.40031 1.59557 0.983214 0.893614 0.859828 0.822401 0.237597
threshold=25.500000000000004 1.0000000180025095e-35 7.5000000000000009 3.5000000000000004 1.5000000000000002 1.0000000180025095e-35 3.5000000000000004 5.5000000000000009 1.0000000180025095e-35 4.5000000000000009 48.500000000000007 12.500000000000002 3.5000000000000004 34.500000000000007
decision_type=2 2 2 2 2 2 2 2 2 2 2 2 2 2
left_child=12 2 -2 9 -4 6 -6 11 -9 -3 13 -5 -1 -7
right_child=1 3 4 7 5 10 -8 8 -10 -11 -12 -13 -14 -15
leaf_value=-0.011534905315355077 -0.051287652194506678 -0.029111627504750021 -0.032149706497264091 0.052650722741017376 -0.031180431341534993 0.015426348112840205 0.014068057678480565 -0.021936359147380773 0.031897980889799178 0.0085092475853559418 0 0.013185314312020394 -0.058827986451894423 0.048699293939120869
leaf_weight=2.3595323860645285 5.0463631600141552 2.7765206843614605 2.5916807278990772 8.8221995383501035 3.6797300875186902 2.834572434425354 2.2588716298341751 1.6972716599702826 1.7750676572322845 2.2793434858322144 1.8086548894643781 3.0012909173965445 3.0529302805662155 3.0534248352050781
leaf_count=13 33 14 14 47 18 16 10 11 10 12 11 18 15 18
internal_value=-0.000559321 0.00587236 -0.0119834 0.024458 0.00221711 0.0108413 -0.0137016 0.0370803 0.00544474 -0.0127209 0.0297512 0.0448321 -0.0440046 0.0379722
internal_weight=47.0375 41.625 21.2733 20.3517 16.2269 13.6353 5.9386 15.2958 3.47234 5.05586 7.69665 11.8235 5.41246 5.888
internal_count=260 232 120 112 87 73 28 86 21 26 45 65 28 34
is_linear=0
shrinkage=0.05


Tree=30
num_leaves=12
num_cat=0
split_feature=5 9 4 3 9 9 2 1 3 4 1
split_gain=5.97758 3.73866 3.02772 2.95457 2.46089 2.92773 1.6352 4.58013 1.91129 1.51837 0.62152
threshold=1.0000000180025095e-35 7.5000000000000009 1.0000000180025095e-35 1.0000000180025095e-35 11.500000000000002 4.5000000000000009 1.0000000180025095e-35 2.5000000000000004 1.0000000180025095e-35 1.0000000180025095e-35 2.5000000000000004
decision_type=2 2 2 2 2 2 2 2 2 2 2
left_child=3 2 -2 -1 5 -5 7 -3 -8 -7 -4
right_child=1 6 10 4 -6 9 8 -9 -10 -11 -12
leaf_value=-0.044802467899184087 -0.045242576450517755 0.032908350378695786 0.022607135404591208 -0.033258387385774829 -0.037779383401832761 -0.0033567595344700645 0.0080330129682587206 -0.033089235823160854 0.052608243067372079 0.043662587288018605 -0.006613069026906399
leaf_weight=7.4208162873983392 3.2009066194295901 5.6388382911682129 2.9089658856391907 1.7908802628517149 2.7616969496011734 2.203240841627121 4.5635066479444504 3.3387831896543503 6.5897653326392174 3.6980886310338974 2.3807738274335861
leaf_count=49 22 29 14 9 16 11 20 15 45 20 10
internal_value=-0.000589402 0.0133293 -0.0130704 -0.0226668 -0.00397738 0.0105333 0.0247922 0.0070063 0.0369428 0.0274408 0.00970044
internal_weight=46.4963 28.6215 8.49065 17.8747 10.4539 7.69221 20.1309 8.97762 11.1533 5.90133 5.28974
internal_count=260 155 46 105 56 40 109 44 65 31 24
is_linear=0
shrinkage=0.05


Tree=31
num_leaves=14
num_cat=0
split_feature=5 9 8 4 2 10 7 2 0 7 0 0 3
split_gain=5.57675 3.48525 2.88075 2.86828 2.76014 1.58228 1.88382 1.86932 1.16083 1.12738 1.01065 0.456523 0.448403
threshold=1.0000000180025095e-35 7.5000000000000009 1.0000000180025095e-35 1.0000000180025095e-35 1.0000000180025095e-35 1.0000000180025095e-35 1.0000000180025095e-35 1.0000000180025095e-35 46.500000000000007 1.0000000180025095e-35 34.500000000000007 45.500000000000007 1.0000000180025095e-35
decision_type=2 2 2 2 2 2 2 2 2 2 2 2 2
left_child=2 3 4 -2 9 6 -3 -7 -5 10 -1 -6 -9
right_child=1 5 -4 8 11 7 -8 12 -10 -11 -12 -13 -14
leaf_value=-0.027840150667941384 -0.044524837382535737 0.050421375523728745 -0.049396771206076884 -0.01269787835206458 0.028753012321023143 -0.012460196235228243 0.0027297276465050686 0.0065201417114577236 0.027304979443358485 -0.047323194895770797 0.011732116724188668 0 0.040788202509248993
leaf_weight=1.8988658338785187 3.1083546131849307 6.890712633728981 5.4396960586309424 2.3740527778863907 2.9672957956790924 4.861225426197052 3.2805455923080444 2.5978988856077194 2.8954780697822571 2.5533096045255661 2.562411442399025 2.1356402337551117 2.2203261628746986
leaf_count=10 22 43 42 10 14 22 18 11 14 14 13 12 15
internal_value=-0.000619804 0.0128957 -0.0221434 -0.0127322 -0.00669487 0.0240435 0.0371082 0.00765752 0.00933445 -0.0258359 -0.00620921 0.0187195 0.0274672
internal_weight=45.7858 28.2286 17.5572 8.37789 12.1175 19.8507 10.1713 9.67945 5.26953 7.01459 4.46128 5.10294 4.81823
internal_count=260 155 105 46 63 109 61 48 24 37 23 26 26
is_linear=0
shrinkage=0.05


Tree=32
num_leaves=13
num_cat=0
split_feature=5 9 4 3 9 9 2 1 3 4 0 0
split_gain=5.21525 3.2599 2.71727 2.70774 2.26009 2.67699 1.53748 4.23923 1.86733 1.40884 1.08698 0.174727
threshold=1.0000000180025095e-35 7.5000000000000009 1.0000000180025095e-35 1.0000000180025095e-35 11.500000000000002 4.5000000000000009 1.0000000180025095e-35 2.5000000000000004 1.0000000180025095e-35 1.0000000180025095e-35 46.500000000000007 37.500000000000007
decision_type=2 2 2 2 2 2 2 2 2 2 2 2
left_child=3 2 -2 -1 5 -5 7 11 -8 -7 -4 -3
right_child=1 6 10 4 -6 9 8 -9 -10 -11 -12 -13
leaf_value=-0.04330533950961462 -0.043826968749393007 0.040220425351501866 -0.012274580235715656 -0.03183179085478631 -0.036419536718476371 -0.0030768488566986635 0.0071267438809320838 -0.032263772134803428 0.051403670322835077 0.042507371014210538 0.026504121924021736 0.011294479980679114
leaf_weight=7.0818486660718927 3.0181750431656855 2.9833145290613174 2.367775022983551 1.7443957328796384 2.6702747121453285 2.1763287484645844 4.5335093885660172 3.3326419740915298 6.2315945401787758 3.6089499890804291 2.864824041724205 2.5299636721611023
leaf_count=49 22 16 10 9 16 11 20 15 45 20 14 13
internal_value=-0.000616004 0.0125235 -0.0124323 -0.0215993 -0.0035614 0.0104086 0.0233593 0.00612359 0.0353729 0.0266962 0.00900038 0.0314864
internal_weight=45.1436 27.8618 8.25077 17.2818 10.1999 7.52967 19.611 8.84592 10.7651 5.78528 5.2326 5.51328
internal_count=260 155 46 105 56 40 109 44 65 31 24 29
is_linear=0
shrinkage=0.05


Tree=33
num_leaves=14
num_cat=0
split_feature=0 4 9 9 5 5 9 5 0 6 9 9 3
split_gain=4.93261 5.08235 4.19182 3.72705 2.48966 1.47288 3.27243 1.22311 0.790881 0.709452 0.63047 1.16375 0.587038
threshold=25.500000000000004 1.0000000180025095e-35 10.500000000000002 3.5000000000000004 1.0000000180025095e-35 1.0000000180025095e-35 11.500000000000002 1.0000000180025095e-35 42.500000000000007 3.5000000000000004 12.500000000000002 17.500000000000004 1.0000000180025095e-35
decision_type=2 2 2 2 2 2 2 2 2 2 2 2 2
left_child=9 2 12 7 8 6 -5 -3 -4 -1 -6 -12 -2
right_child=1 3 4 5 10 -7 -8 -9 -10 -11 11 -13 -14
leaf_value=-0.010825904786178018 -0.048728330690665358 -0.034062710691296141 0.00066202591678109809 0.035432417013141385 -0.0016102672865071326 0.049968908630555364 -0.029447888335513574 0.0084198035240499857 -0.040485874460073623 -0.056359808646789272 0.036603229872020929 -0.0050841257262126578 -0.011406143407300865
leaf_weight=2.2413505762815467 4.8037626445293453 2.1144015043973949 1.5092647373676276 4.6998504325747472 2.1324725151062012 7.7314825728535652 1.9767688810825346 2.7555780559778214 1.9185248166322706 2.9205290153622627 5.2112641483545303 1.7195991873741148 2.7165242880582809
leaf_count=13 32 13 9 27 10 47 12 13 13 15 30 9 17
internal_value=-0.000618843 0.00565715 -0.0115754 0.0234805 0.00607685 0.0357346 0.014238 -0.0118337 -0.0251814 -0.0423655 0.0197232 0.0262929 -0.0387544
internal_weight=44.4514 39.2895 20.0114 19.2781 12.4911 14.4081 6.67662 4.86998 3.42779 5.16188 9.06334 6.93086 7.52029
internal_count=260 232 120 112 71 86 39 26 22 28 49 39 49
is_linear=0
shrinkage=0.05


Tree=34
num_leaves=14
num_cat=0
split_feature=5 9 3 4 9 9 10 7 2 4 11 1 11
split_gain=4.61648 2.88672 2.47827 2.4408 2.01081 2.41007 1.51667 1.79783 1.69062 1.24327 0.822861 0.542695 0.116497
threshold=1.0000000180025095e-35 7.5000000000000009 1.0000000180025095e-35 1.0000000180025095e-35 11.500000000000002 4.5000000000000009 1.0000000180025095e-35 1.0000000180025095e-35 1.0000000180025095e-35 1.0000000180025095e-35 2.5000000000000004 2.5000000000000004 3.5000000000000004
decision_type=2 2 2 2 2 2 2 2 2 2 2 2 2
left_child=2 3 -1 -2 5 -4 7 -3 12 -7 -10 -5 -8
right_child=1 6 4 11 -6 9 8 -9 10 -11 -12 -13 -14
leaf_value=-0.041986204376761205 -0.042560273204887561 0.048705094613489958 -0.030308556535008947 0.020629482226721684 -0.034772495260712605 -0.0024031708451447446 -0.018934895289890726 0.0016556478569888799 0.044324652123816866 0.040724342599772458 0.0027514638549732311 -0.00678417711060849 -0.0011358681031674504
leaf_weight=6.7953336909413347 2.8536069691181201 6.4617820456624031 1.7141840755939481 2.8100137412548065 2.5788522809743881 2.1636818274855614 2.481974795460701 3.1988782435655594 1.8931906223297117 3.4881657510995865 2.743328258395195 2.3554052114486694 2.3226912319660187
leaf_count=49 22 43 9 14 16 11 11 18 11 20 15 10 11
internal_value=-0.00073099 0.0117719 -0.0207906 -0.0119942 -0.00333799 0.00991052 0.0220981 0.0352116 0.00611371 0.0255831 0.0254659 0.00824517 -0.0128698
internal_weight=43.8611 27.1209 16.7402 8.01903 9.94488 7.36603 19.1018 9.66066 9.44118 5.65185 4.63652 5.16542 4.80467
internal_count=260 155 105 46 56 40 109 61 48 31 26 24 22
is_linear=0
shrinkage=0.05


Tree=35
num_leaves=12
num_cat=0
split_feature=0 4 11 5 7 3 11 2 0 0 11
split_gain=4.53227 4.65664 3.00801 2.80183 2.62011 2.18032 2.75975 1.6368 1.00427 1.31596 0.470422
threshold=25.500000000000004 1.0000000180025095e-35 6.5000000000000009 1.0000000180025095e-35 1.0000000180025095e-35 1.0000000180025095e-35 1.5000000000000002 1.0000000180025095e-35 32.500000000000007 54.500000000000007 4.5000000000000009
decision_type=2 2 2 2 2 2 2 2 2 2 2
left_child=10 5 3 4 -3 8 -7 -8 -2 -10 -1
right_child=1 2 -4 -5 -6 6 7 -9 9 -11 -12
leaf_value=-0.054586336274647831 0 0.026013514343437783 -0.022283722420240095 0.048075691515255134 -0.028032856086887978 -0.036237433531872892 -0.0077737448126818307 0.034213200461292261 -0.048136691755644126 0 -0.013505430653391904
leaf_weight=2.6126242429018012 2.4319566041231155 4.9493618011474654 2.3534536659717551 8.8374988883733749 2.577542282640934 2.0763626992702484 3.0375016331672668 4.9219170659780502 4.8876863643527031 2.1235418319702148 2.4397023394703865
leaf_count=14 13 27 14 53 18 12 17 34 31 13 14
internal_value=-0.0007321 0.00538972 0.0227049 0.0303736 0.00580223 -0.011301 0.00450731 0.0185527 -0.027403 -0.0359482 -0.0410841
internal_weight=43.2491 38.1968 18.7179 16.3644 7.5269 19.479 10.0358 7.95942 9.44318 7.01123 5.05233
internal_count=260 232 112 98 45 120 63 51 57 44 28
is_linear=0
shrinkage=0.05


Tree=36
num_leaves=14
num_cat=0
split_feature=0 4 9 9 2 11 1 0 5 9 5 0 6
split_gain=4.23271 4.31425 3.72054 3.38015 2.01519 1.79648 1.51998 2.39328 1.23139 2.88158 1.0257 0.993157 0.702572
threshold=25.500000000000004 1.0000000180025095e-35 7.5000000000000009 3.5000000000000004 1.0000000180025095e-35 2.5000000000000004 2.5000000000000004 37.500000000000007 1.0000000180025095e-35 11.500000000000002 1.0000000180025095e-35 42.500000000000007 3.5000000000000004
decision_type=2 2 2 2 2 2 2 2 2 2 2 2 2
left_child=12 2 -2 10 5 -4 -6 -8 9 -5 -3 -7 -1
right_child=1 3 4 8 6 11 7 -9 -10 -11 -12 -13 -14
leaf_value=-0.0092701112435914033 -0.047366153344567841 -0.032470346437688362 -0.049850128978094356 0.03386946901168774 -0.013431326582186388 -0.01938629859734407 0.049027523663910832 -0.0062730590846267684 0.047490765378099105 -0.02782651428192693 0.0068323402298802495 0.01992425353130569 -0.053960226414401492
leaf_weight=2.1925035342574111 4.2288065925240543 2.0404672995209721 1.8126155138015718 4.5370700955390912 2.3148178160190582 2.10698601603508 3.8269107043743134 2.7064911127090454 7.2765664160251617 1.900708921253681 2.7056712806224823 2.3133288025856018 2.8056000545620918
leaf_count=13 33 13 11 27 13 10 23 17 47 12 13 13 15
internal_value=-0.000838229 0.00511363 -0.0109905 0.0219149 0.00120958 -0.0185854 0.0161327 0.0276635 0.0339724 0.0136897 -0.0119048 0.000144391 -0.0400036
internal_weight=42.7685 37.7704 19.31 18.4605 15.0811 6.23293 8.84822 6.5334 13.7143 6.43778 4.74614 4.42031 4.9981
internal_count=260 232 120 112 87 34 53 40 86 39 26 23 28
is_linear=0
shrinkage=0.05


Tree=37
num_leaves=16
num_cat=0
split_feature=0 4 9 9 2 3 11 11 3 0 6 6 9 0 7
split_gain=3.95315 4.01831 3.51782 3.16458 1.88057 2.16827 1.7056 1.1427 1.283 0.928002 0.828017 0.672931 0.63878 0.0604739 0.0281557
threshold=25.500000000000004 1.0000000180025095e-35 7.5000000000000009 3.5000000000000004 1.0000000180025095e-35 1.0000000180025095e-35 2.5000000000000004 5.5000000000000009 1.0000000180025095e-35 42.500000000000007 4.5000000000000009 3.5000000000000004 12.500000000000002 48.500000000000007 1.0000000180025095e-35
decision_type=2 2 2 2 2 2 2 2 2 2 2 2 2 2 2
left_child=11 2 -2 10 6 -6 -4 12 -9 -8 -3 -1 14 -7 -5
right_child=1 3 4 7 5 13 9 8 -10 -11 -12 -13 -14 -15 -16
leaf_value=-0.0089565324363777895 -0.046685795282138842 -0.026819035814472897 -0.048789937790285696 0.055228666628262792 -0.011228578747397418 0.039898298035027084 -0.018749508146405275 -0.021896767052210817 0.028268485500350871 0.019288404541325278 0.008515017593323326 -0.052795450655222079 0.010602873569976632 0.010361403961793365 0.022617806105050625
leaf_weight=2.1908561289310446 4.093914799392226 2.6283430233597782 1.7819141745567293 4.8439753055572492 3.6798431426286697 3.4322647601366043 2.103666365146637 1.5108202993869773 1.5531275719404221 2.3033321052789688 2.0849634930491447 2.7476583793759346 2.6063841879367828 1.672975957393646 2.9615000411868095
leaf_count=13 33 14 11 31 18 25 10 11 10 13 12 15 18 10 16
internal_value=-0.000942743 0.00485443 -0.010765 0.0211968 0.00105058 0.0155326 -0.018112 0.0330059 0.00300058 9.68723e-05 -0.011559 -0.0389724 0.0403609 0.0343206 0.0473973
internal_weight=42.1955 37.257 19.0679 18.1891 14.974 8.78508 6.18891 13.4758 3.06395 4.407 4.71331 4.93851 10.4119 5.10524 7.80548
internal_count=260 232 120 112 87 53 34 86 21 23 26 28 65 35 47
is_linear=0
shrinkage=0.05


Tree=38
num_leaves=16
num_cat=0
split_feature=5 9 4 0 3 0 0 4 10 2 7 9 3 3 0
split_gain=4.13315 2.43371 2.91323 2.85725 2.03935 1.83515 1.80751 1.3649 1.22838 1.38353 0.943986 0.850608 0.223732 0.158788 0.0107643
threshold=1.0000000180025095e-35 10.500000000000002 1.0000000180025095e-35 30.500000000000004 1.0000000180025095e-35 55.500000000000007 34.500000000000007 1.0000000180025095e-35 1.0000000180025095e-35 1.0000000180025095e-35 1.0000000180025095e-35 3.5000000000000004 1.0000000180025095e-35 1.0000000180025095e-35 44.500000000000007
decision_type=2 2 2 2 2 2 2 2 2 2 2 2 2 2 2
left_child=4 2 12 -4 -1 6 -6 -8 10 14 -3 -5 -2 -11 -10
right_child=1 8 3 11 5 -7 7 -9 9 13 -12 -13 -14 -15 -16
leaf_value=-0.040323560214416382 -0.04069625557046052 0.049739394838605983 -0.0286977733781703 0.0069680210357934676 -0.021150070470526958 -0.041081404277567984 -0.007796122828178759 0.038467143061383012 -0.011330199315986939 0.0082133199064005 0.00030408514178142422 0.05088528893961574 -0.0081606734164138932 0.037360551501540204 -0.0015386690549267293
leaf_weight=6.3605143278837177 2.8764543309807795 4.5126368701457951 1.7721041142940519 2.6960852891206741 2.6966740787029266 1.5907347947359083 1.8058830648660658 3.3898398578166962 2.1981943398714066 2.0780424028635025 1.4354141503572462 2.2537373900413513 1.8362055867910383 1.9210398569703104 2.2718088924884796
leaf_count=49 20 34 9 13 16 9 11 20 10 9 9 12 13 15 11
internal_value=-0.000948217 0.0111331 -0.00555981 0.0144742 -0.0204486 -0.00406618 0.00661292 0.0229174 0.0241989 0.00930842 0.0402898 0.0329962 -0.0325422 0.0278876 -0.00845894
internal_weight=41.6954 25.8517 11.4346 6.72193 15.8436 9.48313 7.8924 5.19572 14.4171 8.46909 5.94805 4.94982 4.71266 3.99908 4.47
internal_count=260 155 67 34 105 56 47 31 88 45 43 25 33 24 21
is_linear=0
shrinkage=0.05


Tree=39
num_leaves=15
num_cat=0
split_feature=5 9 3 10 0 3 9 7 11 7 6 0 11 11
split_gain=3.88014 2.32301 1.90229 1.80277 3.27551 1.81939 1.70356 1.9433 1.70811 0.917901 0.826749 1.45364 1.29179 0.315195
threshold=1.0000000180025095e-35 12.500000000000002 1.0000000180025095e-35 1.0000000180025095e-35 33.500000000000007 1.0000000180025095e-35 12.500000000000002 1.0000000180025095e-35 3.5000000000000004 1.0000000180025095e-35 4.5000000000000009 37.500000000000007 4.5000000000000009 2.5000000000000004
decision_type=2 2 2 2 2 2 2 2 2 2 2 2 2 2
left_child=2 3 -1 10 -5 -6 7 8 -4 13 11 -2 -12 -3
right_child=1 9 6 4 5 -7 -8 -9 -10 -11 12 -13 -14 -15
leaf_value=-0.039452549885981958 0.021896647286162821 0.0069685961975888694 -0.0048416051173685859 -0.056972980907721515 -0.020362020514933455 0.030541956741869988 -0.037852375239220054 -0.022376603658236339 0.046257565791160138 0 -0.0016378120647923087 -0.027431232378356346 0.045070566364056146 0.041817542967407986
leaf_weight=6.2020250335335705 1.978271022439005 1.6298838332295398 2.4049703031778336 2.3173955976963034 2.4499158263206482 2.5341774001717567 1.8091114014387129 2.5812663733959198 2.5808088779449463 2.3158748149871826 2.1252253651618958 1.9651110395789144 2.4599604681134224 5.7798308804631233
leaf_count=49 15 10 14 11 14 15 13 13 16 12 14 11 15 38
internal_value=-0.000927554 0.0108215 -0.0199933 -0.000986754 -0.0182267 0.00546339 -0.00407802 0.00688889 0.0240827 0.0288076 0.0136118 -0.00224998 0.026109 0.0364867
internal_weight=41.1338 25.5556 15.5782 15.8301 7.30149 4.98409 9.37616 7.56705 4.98578 9.72559 8.52857 3.94338 4.58519 7.40971
internal_count=260 155 105 95 40 29 56 43 30 60 55 26 29 48
is_linear=0
shrinkage=0.05


Tree=40
num_leaves=12
num_cat=0
split_feature=2 7 3 11 11 1 11 6 4 0 0
split_gain=3.78192 5.0143 3.79423 3.11588 3.05448 2.50425 2.89882 2.2036 1.34096 0.69627 0.626261
threshold=1.0000000180025095e-35 1.0000000180025095e-35 1.0000000180025095e-35 2.5000000000000004 1.5000000000000002 3.5000000000000004 5.5000000000000009 4.5000000000000009 1.0000000180025095e-35 35.500000000000007 46.500000000000007
decision_type=2 2 2 2 2 2 2 2 2 2 2
left_child=1 3 7 -1 -4 6 -5 9 -9 -2 -3
right_child=2 10 4 5 -6 -7 -8 8 -10 -11 -12
leaf_value=-0.042300966515755892 -0.0012267797088008608 -0.057793078306858252 -0.021276308947175721 0.042761561420162242 0.044019574560728657 -0.024529395271562851 -0.011346376050280736 -0.0085305829312007139 0.04022090207471074 -0.040119221432833939 -0.01642420857260864
leaf_weight=2.0783801674842861 2.0733091086149216 4.4398454651236525 1.4353112950921065 6.2993131354451162 9.0898487195372564 2.3649437353014937 3.027335949242115 2.0098169595003128 1.7995902448892596 3.096887044608593 2.8699531257152557
leaf_count=14 11 27 9 36 67 14 19 14 10 20 19
internal_value=-0.000917209 -0.0153657 0.014442 0.00261855 0.0336079 0.0137015 0.0253165 -0.00863838 0.0170346 -0.0280598 -0.0460837
internal_weight=40.5845 21.0798 19.5048 13.77 10.5252 11.6916 9.32665 8.9796 3.80941 5.1702 7.3098
internal_count=260 129 131 83 76 69 55 55 24 31 46
is_linear=0
shrinkage=0.05


Tree=41
num_leaves=15
num_cat=0
split_feature=5 9 4 0 0 3 0 9 11 11 6 9 9 6
split_gain=3.60027 2.14967 2.91539 2.31063 1.69441 1.62781 1.64412 1.55068 1.50502 1.49786 1.29562 1.13432 0.972302 0.00530409
threshold=1.0000000180025095e-35 12.500000000000002 1.0000000180025095e-35 30.500000000000004 30.500000000000004 1.0000000180025095e-35 55.500000000000007 11.500000000000002 5.5000000000000009 2.5000000000000004 2.5000000000000004 6.5000000000000009 18.500000000000004 2.5000000000000004
decision_type=2 2 2 2 2 2 2 2 2 2 2 2 2 2
left_child=5 2 4 -4 -2 -1 7 9 -5 -7 -6 -11 13 -3
right_child=1 12 3 8 10 6 -8 -9 -10 11 -12 -13 -14 -15
leaf_value=-0.038157392133384413 0.0086408404437078295 0.012622537383600363 -0.022216486437216451 0.046050754252466929 0 -0.015185329484503374 -0.039894254148731774 -0.025882442207396814 -0.00046568412692282469 -0.0013041490169984028 -0.052799632588906811 0.046664047940913611 0 0.040928929515813103
leaf_weight=5.9352870136499378 2.2738425135612497 1.7923369184136371 1.8448850512504575 4.2285173535346985 1.749807074666023 1.5651184543967245 1.5429565012454984 1.7576745375990865 2.2620585635304451 1.4529545307159422 3.1553435921669006 2.810218334197998 2.624722383916378 5.0594354048371315
leaf_count=49 14 11 10 27 10 9 9 12 12 8 22 18 16 33
internal_value=-0.00102846 0.0103722 -0.00106858 0.0177875 -0.0230715 -0.0197214 -0.00465752 0.00573886 0.0312737 0.0184012 -0.0375927 0.0322241 0.027894 0.0367118
internal_weight=40.0552 24.9909 15.5145 8.33546 7.17899 15.0642 9.12892 7.58597 6.49058 5.82829 4.90515 4.26317 9.47649 6.85177
internal_count=260 155 95 49 46 105 56 47 39 35 32 26 60 44
is_linear=0
shrinkage=0.05


Tree=42
num_leaves=15
num_cat=0
split_feature=2 7 9 11 0 11 4 0 0 0 5 6 6 0
split_gain=3.50726 4.51624 3.27731 2.87517 2.10321 2.28731 1.90058 0.601883 0.493898 0.493373 1.26774 0.262762 0.903874 0.156279
threshold=1.0000000180025095e-35 1.0000000180025095e-35 7.5000000000000009 2.5000000000000004 27.500000000000004 5.5000000000000009 1.0000000180025095e-35 46.500000000000007 51.500000000000007 39.500000000000007 1.0000000180025095e-35 2.5000000000000004 5.5000000000000009 48.500000000000007
decision_type=2 2 2 2 2 2 2 2 2 2 2 2 2 2
left_child=1 3 6 -1 -5 8 -2 -3 -6 11 -11 -4 -13 -12
right_child=2 7 9 4 5 -7 -8 -9 -10 10 13 12 -14 -15
leaf_value=-0.041416894438313673 -0.041386508458376499 -0.056334577786542397 0.046228554289637458 -0.027394959590730517 0.044313023620048769 -0.010334279067952914 0.011452949052103093 -0.015500446196008488 0.0057468974824562901 -0.012665149951560033 0.0055632828128904721 -0.0034111120916588441 0.036862716408616901 0.033691430515825245
leaf_weight=2.0198234021663692 2.6320584490895298 4.2793803662061682 3.5031183734536153 1.6834983676671971 4.9824814945459348 3.0415221899747849 2.3535020276904106 2.7944199442863464 1.717043876647949 2.3863788619637489 1.6778890192508695 2.246452815830708 1.6043618246912954 2.5640755146741867
leaf_count=14 23 27 22 11 29 19 13 19 10 18 15 14 9 17
internal_value=-0.0010518 -0.0151436 0.0139364 0.00210215 0.0129128 0.0222465 -0.0178614 -0.0447406 0.0371083 0.0260434 0.0120718 0.0350856 0.0164776 0.0267031
internal_weight=39.486 20.5182 18.9678 13.4444 11.4245 9.74105 4.98556 7.0738 6.69953 13.9823 6.62834 7.35393 3.85081 4.24196
internal_count=260 129 131 83 69 58 36 46 39 95 50 45 23 32
is_linear=0
shrinkage=0.05


Tree=43
num_leaves=15
num_cat=0
split_feature=5 8 9 9 9 10 7 3 9 9 7 7 11 6
split_gain=3.31334 2.19511 2.02892 2.97222 1.91946 1.4922 1.3742 1.32955 0.932941 0.747187 0.356847 0.198298 0.0917992 0.0153972
threshold=1.0000000180025095e-35 1.0000000180025095e-35 12.500000000000002 6.5000000000000009 12.500000000000002 1.0000000180025095e-35 1.0000000180025095e-35 1.0000000180025095e-35 18.500000000000004 7.5000000000000009 1.0000000180025095e-35 1.0000000180025095e-35 4.5000000000000009 2.5000000000000004
decision_type=2 2 2 2 2 2 2 2 2 2 2 2 2 2
left_child=1 2 3 -1 5 9 -5 -7 13 12 -11 -9 -2 -6
right_child=4 -3 -4 6 8 7 -8 11 -10 10 -12 -13 -14 -15
leaf_value=-0.02745598447834173 -0.01164243568058327 -0.045599582941955284 -0.039753814320668997 0.042160296272832597 0.011795522588628345 -0.034882539085687003 -0.00580049004003131 0.013358807805855487 0 0.033440063721279854 0.0039662823774518994 -0.0051996324702319663 0.001117982027588576 0.039645193304038255
leaf_weight=2.9014829173684102 1.3946599811315556 4.3029031604528418 2.0883327201008788 3.6602130085229874 1.7621502205729465 3.5517796277999869 1.6303205490112302 1.7855814099311829 2.5781222209334373 2.6336027681827545 2.4643470719456673 1.6914304345846176 1.6411297321319578 4.9193300530314445
leaf_count=16 12 42 15 23 11 20 9 10 16 19 15 10 9 33
internal_value=-0.00104315 -0.0192825 -0.00475812 0.00697342 0.00998153 -0.000942828 0.0280133 -0.0168842 0.0267058 0.0126259 0.0229993 0.00406914 -0.00493756 0.0354429
internal_weight=39.0054 14.5833 10.2803 8.19202 24.4221 15.1625 5.29053 7.02879 9.2596 8.13374 5.09795 3.47701 3.03579 6.68148
internal_count=260 105 63 48 155 95 32 40 60 55 34 20 21 44
is_linear=0
shrinkage=0.05


Tree=44
num_leaves=14
num_cat=0
split_feature=2 1 3 11 5 9 4 1 11 7 9 1 9
split_gain=3.31293 4.41783 3.32258 2.69053 2.15182 1.21421 1.08048 0.720078 0.679419 1.27314 0.495273 0.289028 0.170797
threshold=1.0000000180025095e-35 2.5000000000000004 1.0000000180025095e-35 1.5000000000000002 1.0000000180025095e-35 15.500000000000002 1.0000000180025095e-35 2.5000000000000004 5.5000000000000009 1.0000000180025095e-35 12.500000000000002 3.5000000000000004 11.500000000000002
decision_type=2 2 2 2 2 2 2 2 2 2 2 2 2
left_child=1 4 6 -4 10 11 7 -2 9 -6 -1 -3 -9
right_child=2 5 3 -5 8 -7 -8 12 -10 -11 -12 -13 -14
leaf_value=-0.00094462412566086998 -0.039657515783703509 -0.020957834683201504 -0.019974284378595927 0.042325760587635639 0.041874711634123568 0 0.010357072118954931 -0.011853399860597916 -0.00196775559502828 -0.0047560521157394807 -0.035391155378016174 -0.058245686870568275 0.0060531249431504874
leaf_weight=2.3379906564950965 1.9506250619888303 3.066604830324648 1.374141193926335 8.5423481017351133 3.8395425826311111 1.5422602072358129 3.5714932158589363 1.5265536159276965 1.896174184978008 1.5728580579161642 1.6470251753926275 4.1008995398879051 1.5609543099999426
leaf_count=17 13 20 9 67 24 11 22 11 11 9 14 23 9
internal_value=-0.00102748 -0.0149008 0.013692 0.0321958 0.00552194 -0.0397386 -0.00823275 -0.0217718 0.0210287 0.0289155 -0.0204281 -0.0474236 -0.00231106
internal_weight=38.5295 20.0034 18.5261 9.91649 11.2936 8.70976 8.60963 5.03813 7.30857 5.4124 3.98502 7.1675 3.08751
internal_count=260 129 131 76 75 54 55 33 44 33 31 43 20
is_linear=0
shrinkage=0.05


Tree=45
num_leaves=15
num_cat=0
split_feature=2 1 3 11 11 11 7 0 4 1 11 1 9 0
split_gain=3.06863 4.10276 3.09551 2.53876 1.92157 2.71126 1.58622 1.32029 1.01232 0.680938 0.363532 0.350878 0.161207 0.0283076
threshold=1.0000000180025095e-35 2.5000000000000004 1.0000000180025095e-35 1.5000000000000002 2.5000000000000004 5.5000000000000009 1.0000000180025095e-35 53.500000000000007 1.0000000180025095e-35 2.5000000000000004 6.5000000000000009 3.5000000000000004 11.500000000000002 53.500000000000007
decision_type=2 2 2 2 2 2 2 2 2 2 2 2 2 2
left_child=1 4 8 -4 -1 6 -6 11 9 -2 -7 -3 -11 -10
right_child=2 7 3 -5 5 10 -8 -9 13 12 -12 -13 -14 -15
leaf_value=-0.032515637212418722 -0.038652067108842593 -0.019697868986421545 -0.01944625735304582 0.041181543691411006 0.044563105539573308 0 -0.0057591186561088709 0.00064225712143308204 0.0015012801034487611 -0.011524913073037676 -0.031053538336084503 -0.057699897660967073 0.0058678569712622896 0.014402637706732703
leaf_weight=1.6767361164093042 1.9278926402330396 2.9895188957452756 1.3681866824626929 8.372859373688696 4.7883867397904378 1.6069630905985832 1.6343812495470045 1.5159251093864439 2.0805224552750592 1.5202257409691813 1.4631254971027374 4.0931977555155754 1.5612914487719534 1.4907320290803907
leaf_count=15 13 19 9 67 30 11 10 11 13 11 9 24 9 9
internal_value=-0.00112847 -0.0145588 0.013107 0.0311829 0.00521672 0.0148216 0.0320334 -0.0386353 -0.00800439 -0.0211643 -0.0189813 -0.0466999 -0.002209 0.00995303
internal_weight=38.0899 19.7682 18.3217 9.74105 11.1696 9.49286 6.42277 8.59864 8.58066 5.00941 3.07009 7.08272 3.08152 3.57125
internal_count=260 129 131 76 75 60 40 54 55 33 20 43 20 22
is_linear=0
shrinkage=0.05


Tree=46
num_leaves=14
num_cat=0
split_feature=5 8 9 9 4 0 9 7 11 10 6 0 6
split_gain=3.04001 2.01799 1.84182 2.66772 1.78813 2.58406 2.58271 1.23775 1.17033 0.803139 0.161268 0.0803794 0.0307416
threshold=1.0000000180025095e-35 1.0000000180025095e-35 12.500000000000002 6.5000000000000009 1.0000000180025095e-35 27.500000000000004 10.500000000000002 1.0000000180025095e-35 5.5000000000000009 1.0000000180025095e-35 4.5000000000000009 33.500000000000007 2.5000000000000004
decision_type=2 2 2 2 2 2 2 2 2 2 2 2 2
left_child=1 2 3 -1 6 -6 12 -5 -7 10 -8 -11 -2
right_child=4 -3 -4 7 5 8 9 -9 -10 11 -12 -13 -14
leaf_value=-0.026173346333192737 -0.0091357037147459814 -0.044834922659414439 -0.038668307643408346 0.040755825359107878 -0.017303099135009489 0.047691476131199298 0.037018707649347872 -0.0054247146008922827 0.0044414449650064065 -0.0060426310627950978 0.0060179819771307127 0.0043434103984149848 -0.036421790008550829
leaf_weight=2.8330709710717183 1.5921698510646827 4.0973779000341883 1.9903055876493452 3.4827677235007286 2.1862477958202371 5.5695996880531293 1.7883918285369858 1.5729801654815672 2.6989665627479553 2.3161712735891342 1.5683015137910841 3.2333870828151703 2.6993772387504578
leaf_count=16 10 42 15 23 12 40 14 9 16 11 11 18 23
internal_value=-0.00123054 -0.0190801 -0.00479939 0.00657196 0.00946022 0.0239734 -0.00256319 0.027039 0.0361159 0.0123182 0.0283882 0 -0.0308831
internal_weight=37.6291 13.9765 9.87912 7.88882 23.6526 10.4548 13.1978 5.05575 8.26857 8.90625 3.35669 5.54956 4.29155
internal_count=260 105 63 48 155 68 87 32 56 54 25 29 33
is_linear=0
shrinkage=0.05


Tree=47
num_leaves=14
num_cat=0
split_feature=5 8 9 9 4 9 0 7 9 10 6 3 0
split_gain=2.86224 1.9154 1.74324 2.48568 1.6612 2.43494 2.43377 1.16877 1.13512 0.767402 0.155646 0.0888729 0.0746714
threshold=1.0000000180025095e-35 1.0000000180025095e-35 12.500000000000002 6.5000000000000009 1.0000000180025095e-35 10.500000000000002 27.500000000000004 1.0000000180025095e-35 3.5000000000000004 1.0000000180025095e-35 4.5000000000000009 1.0000000180025095e-35 33.500000000000007
decision_type=2 2 2 2 2 2 2 2 2 2 2 2 2
left_child=1 2 3 -1 5 11 -6 -5 -8 10 -7 -2 -11
right_child=4 -3 -4 7 6 9 8 -9 -10 12 -12 -13 -14
leaf_value=-0.025359205070246124 -0.036693111958847439 -0.044259528637922027 -0.038037808263144381 0.039644951600287207 -0.016719967481818334 0.036413055316892283 0.0032851539119814611 -0.0052619538112820621 0.046339900749234081 -0.0058288924299727497 0.0058432181810026294 -0.0083075934272310911 0.0041817736237221379
leaf_weight=2.8105092570185644 2.5572314113378534 3.959615744650363 1.9399879425764082 3.430697999894619 2.1842977628111848 1.7449692413210853 2.5478756874799711 1.5715227276086805 5.5685087814927101 2.3176776617765427 1.5644556209444997 1.683805502951145 3.2292090505361557
leaf_count=16 20 42 15 23 12 14 13 9 43 11 11 13 18
internal_value=-0.00124869 -0.0187495 -0.00477448 0.00629681 0.00915077 -0.00244991 0.0232551 0.0261776 0.0352156 0.0120009 0.0278314 -0.0301127 0
internal_weight=37.1104 13.7123 9.75272 7.81273 23.398 13.0973 10.3007 5.00222 8.11638 8.85631 3.30942 4.24104 5.54689
internal_count=260 105 63 48 155 87 68 32 56 54 25 33 29
is_linear=0
shrinkage=0.05


Tree=48
num_leaves=13
num_cat=0
split_feature=2 7 3 11 11 6 0 11 4 0 0 0
split_gain=2.89151 3.5429 2.75109 2.4 2.28579 1.8427 1.62781 1.82774 0.940779 0.63997 0.590556 0.446859
threshold=1.0000000180025095e-35 1.0000000180025095e-35 1.0000000180025095e-35 2.5000000000000004 1.5000000000000002 4.5000000000000009 27.500000000000004 5.5000000000000009 1.0000000180025095e-35 35.500000000000007 46.500000000000007 51.500000000000007
decision_type=2 2 2 2 2 2 2 2 2 2 2 2
left_child=1 3 5 -1 -4 9 -5 11 -7 -2 -3 -8
right_child=2 10 4 6 -6 8 7 -9 -10 -11 -12 -13
leaf_value=-0.039603238046632766 0 -0.05332221859939143 -0.018179448420243428 -0.024384221789841176 0.040010244041784264 -0.0056579929887969954 0.041144962625584341 -0.0092757165747898111 0.03667732923740237 -0.037427522686133342 -0.012942432080401328 0.0040479199010808016
leaf_weight=1.8447232395410562 1.9856458082795141 3.9062057808041564 1.3330466449260709 1.5861479267477978 7.9761092737317085 1.8193355984985828 4.5526053383946401 2.9009195864200592 1.6434775739908218 2.8652221336960793 2.5908179506659508 1.5969506278634069
leaf_count=14 11 27 9 11 67 14 29 19 10 20 19 10
internal_value=-0.00126809 -0.0145665 0.0127979 0.0012661 0.0302375 -0.00734293 0.011578 0.0201772 0.0170305 -0.0255336 -0.0417611 0.0341244
internal_weight=36.6012 18.9784 17.6228 12.4813 9.30916 8.31368 10.6366 9.05048 3.46281 4.85087 6.49702 6.14956
internal_count=260 129 131 83 76 55 69 58 24 31 46 39
is_linear=0
shrinkage=0.05


Tree=49
num_leaves=12
num_cat=0
split_feature=2 1 9 3 5 4 6 11 11 7 9
split_gain=2.69824 3.5937 2.6183 2.17224 1.7215 1.59089 0.874992 0.657631 0.560691 1.01423 0.412472
threshold=1.0000000180025095e-35 2.5000000000000004 7.5000000000000009 1.0000000180025095e-35 1.0000000180025095e-35 1.0000000180025095e-35 4.5000000000000009 5.5000000000000009 5.5000000000000009 1.0000000180025095e-35 12.500000000000002
decision_type=2 2 2 2 2 2 2 2 2 2 2
left_child=1 4 5 6 10 -2 -4 -3 9 -6 -1
right_child=2 7 3 -5 8 -7 -8 -9 -10 -11 -12
leaf_value=-0.00059161953283169743 -0.039520763787495618 -0.044035297800153875 -0.013951904319266129 0.039850280050472642 0.038811130363026913 0.010104760038425245 0.021165370485597586 -0.0041695655286604714 -0.0015857690313925571 -0.0037186849943690518 -0.033283495694337077
leaf_weight=2.1759388633072398 2.3605247773230102 6.3934044539928419 3.6281567737460119 7.2882168553769588 3.4795012176036835 2.2557190358638763 1.8720131441950796 1.7996951490640638 1.8897158652544019 1.5121038258075712 1.4809421114623544
leaf_count=17 23 40 20 64 24 13 11 14 11 9 14
internal_value=-0.00135115 -0.0142802 0.0123116 0.0236796 0.00480811 -0.0168996 0 -0.0372284 0.0190235 0.0266227 -0.0192089
internal_weight=36.1359 18.7313 17.4046 12.7884 10.5382 4.61624 5.50017 8.1931 6.88132 4.99161 3.65688
internal_count=260 129 131 95 75 36 31 54 44 33 31
is_linear=0
shrinkage=0.05


Tree=50
num_leaves=13
num_cat=0
split_feature=2 1 9 3 11 11 4 7 0 1 0 1
split_gain=2.50781 3.30757 2.4463 2.0383 1.56993 2.22939 1.51742 1.31114 0.971751 0.8471 0.478127 0.367752
threshold=1.0000000180025095e-35 2.5000000000000004 7.5000000000000009 1.0000000180025095e-35 2.5000000000000004 5.5000000000000009 1.0000000180025095e-35 1.0000000180025095e-35 52.500000000000007 2.5000000000000004 52.500000000000007 3.5000000000000004
decision_type=2 2 2 2 2 2 2 2 2 2 2 2
left_child=1 4 6 9 -1 7 -2 -6 11 -4 -5 -3
right_child=2 8 3 10 5 -7 -8 -9 -10 -11 -12 -13
leaf_value=-0.03058967484441364 -0.038929001359859439 -0.017243504438204466 -0.019408250988723449 0.04464739953555491 0.041823332065247854 -0.017324707135747474 0.0097588438626460498 -0.0048662221170731098 0 0.014470694284997886 0.0042207215298609106 -0.054785611864724394
leaf_weight=1.5167082361876989 2.293494168668988 2.8474768251180631 2.2918830290436727 5.7380333542823792 4.3768648654222471 2.9624290391802788 2.2543734163045883 1.5717730522155759 1.600082956254482 3.1917851790785789 1.3905186206102369 3.6650737971067429
leaf_count=15 23 19 14 55 30 20 13 10 12 17 9 23
internal_value=-0.00135987 -0.0138763 0.0119074 0.0229715 0.00452672 0.0134916 -0.0164844 0.0298423 -0.0359807 0 0.0388661 -0.0435169
internal_weight=35.7005 18.5404 17.1601 12.6122 10.4278 8.91107 4.54787 5.94864 8.11263 5.48367 7.12855 6.51255
internal_count=260 129 131 95 75 60 36 40 54 31 64 42
is_linear=0
shrinkage=0.05


Tree=51
num_leaves=15
num_cat=0
split_feature=0 4 9 9 2 3 11 9 9 6 3 6 0 7
split_gain=2.36633 2.78507 2.44666 2.13844 1.2039 1.17751 1.10402 0.811617 0.728166 0.695713 0.690001 0.493612 0.325159 0.224474
threshold=25.500000000000004 1.0000000180025095e-35 3.5000000000000004 7.5000000000000009 1.0000000180025095e-35 1.0000000180025095e-35 2.5000000000000004 11.500000000000002 13.500000000000002 4.5000000000000009 1.0000000180025095e-35 3.5000000000000004 52.500000000000007 1.0000000180025095e-35
decision_type=2 2 2 2 2 2 2 2 2 2 2 2 2 2
left_child=11 3 9 -2 6 -6 -5 13 -8 -3 -9 -1 -7 -4
right_child=1 2 7 4 5 12 8 10 -10 -11 -12 -13 -14 -15
leaf_value=-0.0052059589554836801 -0.041872060185831339 -0.025464514103738053 0.049761182422015889 -0.042935883772337445 -0.0078447089394213017 0.034312097072713869 -0.020370360912735586 -0.010814865403520295 0.015454905841323769 0.008224290207492789 0.022407943421828287 -0.045584383194170561 0.00012883800953418712 0.016191843951736201
leaf_weight=1.7684178724884976 3.1330835707485702 2.4179520830512073 3.8834848776459676 1.4968440644443015 3.4901528656482697 2.9475082680583 1.5013625174760821 1.6965864822268484 2.275939978659153 1.8022661060094831 2.6561420075595379 2.253172229975462 1.2174817919731138 2.7023226842284203
leaf_count=13 33 14 30 11 18 28 8 15 15 12 24 15 7 17
internal_value=-0.00140876 0.00346508 0.0183634 -0.0105542 -0.000144981 0.0116126 -0.0171384 0.0302147 0 -0.0113003 0.00892319 -0.033397 0.0272475 0.0405963
internal_weight=35.2427 31.2211 15.1588 16.0624 12.9293 7.65514 5.27415 10.9385 3.7773 4.22022 4.35273 4.02159 4.16499 6.58581
internal_count=260 232 112 120 87 53 34 86 23 26 39 28 35 47
is_linear=0
shrinkage=0.05


Tree=52
num_leaves=14
num_cat=0
split_feature=5 8 9 9 4 9 1 7 2 1 1 11 0
split_gain=2.68281 1.62985 1.49198 2.07455 1.43909 2.04693 1.98818 1.01954 0.748157 1.3883 0.528687 0.231726 0.134465
threshold=1.0000000180025095e-35 1.0000000180025095e-35 12.500000000000002 6.5000000000000009 1.0000000180025095e-35 10.500000000000002 3.5000000000000004 1.0000000180025095e-35 1.0000000180025095e-35 2.5000000000000004 1.5000000000000002 3.5000000000000004 52.500000000000007
decision_type=2 2 2 2 2 2 2 2 2 2 2 2 2
left_child=1 2 3 -1 5 12 10 -5 11 -10 -6 -7 -2
right_child=4 -3 -4 7 6 8 -8 -9 9 -11 -12 -13 -14
leaf_value=-0.023808681341933299 -0.033251165756815068 -0.043250234936753673 -0.036721585001775685 0.037429016176358042 0.012753480827882148 -0.013576226531649188 -0.0082914788096780084 -0.0053864830373050567 -0.011293736007443983 0.038252075715489151 0.048663278517063494 0.0059320825530297999 -0.0026916448179526258
leaf_weight=2.6899911910295469 2.9031019583344473 3.6704843230545512 1.8111034482717512 3.142325647175312 3.1702994778752327 1.973040565848349 3.0258393064141273 1.476287357509136 1.373164154589176 3.2079156897962093 3.5166754610836506 1.8676919043064115 1.0197632685303686
leaf_count=16 24 42 15 23 22 10 18 9 9 25 28 10 9
internal_value=-0.00142787 -0.0189538 -0.00537341 0.00527777 0.00889911 -0.00220394 0.0223659 0.0243307 0.0112301 0.0231424 0.0361627 -0.00379101 -0.0284832
internal_weight=34.8477 12.7902 9.11971 7.3086 22.0575 12.3447 9.71281 4.61861 8.42181 4.58108 6.68697 3.84073 3.92287
internal_count=260 105 63 48 155 87 68 32 54 34 50 20 33
is_linear=0
shrinkage=0.05


Tree=53
num_leaves=14
num_cat=0
split_feature=5 8 4 0 7 0 6 2 1 1 0 6 0
split_gain=2.52817 1.5481 1.3541 1.897 1.30768 1.53364 1.06975 0.907063 1.83203 1.14722 0.922786 0.357205 0.248224
threshold=1.0000000180025095e-35 1.0000000180025095e-35 1.0000000180025095e-35 27.500000000000004 1.0000000180025095e-35 34.500000000000007 3.5000000000000004 1.0000000180025095e-35 2.5000000000000004 2.5000000000000004 35.500000000000007 1.5000000000000002 37.500000000000007
decision_type=2 2 2 2 2 2 2 2 2 2 2 2 2
left_child=1 4 7 -4 5 -1 -5 9 -9 -2 -10 -7 -6
right_child=2 -3 3 6 12 11 -8 8 10 -11 -12 -13 -14
leaf_value=-0.022886145038652717 0.0056471476511945557 -0.042694493753349098 -0.014301300542182463 0.0025467775537036212 -0.0038250379574706582 0.038802818949054241 0.044442340489225553 -0.022860263426638605 0.038776869371236068 -0.035319612995410476 0 0.0063120060499887694 -0.037426475512253109
leaf_weight=1.6990193650126437 2.4605595469474792 3.5484677813947192 2.0580441802740097 2.5727177299559116 1.4828221499919894 1.3920004591345785 4.9637725427746773 2.139532808214426 2.8768594041466713 2.6118507832288742 2.1591567993164062 2.7915028259158134 1.6404881998896597
leaf_count=12 15 42 12 18 10 9 38 17 23 14 18 20 12
internal_value=-0.00144398 -0.0186315 0.00859911 0.0217479 -0.00533118 0.00798809 0.0327 -0.00218779 0.00844507 -0.0169664 0.0241573 0.0234877 -0.027483
internal_weight=34.3968 12.5543 21.8425 9.59453 9.00583 5.88252 7.53649 12.248 7.17555 5.07241 5.03602 4.1835 3.12331
internal_count=260 105 155 68 63 41 56 87 58 29 41 29 22
is_linear=0
shrinkage=0.05


Tree=54
num_leaves=13
num_cat=0
split_feature=2 7 3 11 11 6 1 11 4 11 9 1
split_gain=2.24343 2.90805 2.15408 1.97111 1.9174 1.54078 1.49716 1.77167 0.756487 0.593638 0.319818 0.201455
threshold=1.0000000180025095e-35 1.0000000180025095e-35 1.0000000180025095e-35 1.5000000000000002 2.5000000000000004 4.5000000000000009 3.5000000000000004 5.5000000000000009 1.0000000180025095e-35 2.5000000000000004 7.5000000000000009 2.5000000000000004
decision_type=2 2 2 2 2 2 2 2 2 2 2 2
left_child=1 4 5 -4 -1 9 7 -6 -7 -2 -5 -3
right_child=2 11 3 10 6 8 -8 -9 -10 -11 -12 -13
leaf_value=-0.03643499858126048 0 -0.015588489795040622 -0.017477781399359613 0.0039254054797989791 0.036029245891722815 -0.0046744497532371591 -0.019632974263053569 -0.0084883982418949965 0.034129697323845055 -0.033755997810025744 0.041904483287958469 -0.048706847452957877
leaf_weight=1.6765441186726118 1.6126498244702823 2.6593385711312285 1.2676400020718572 1.1694300547242162 5.1307408139109594 1.6994637995958328 2.1154249161481857 2.7678259909152985 1.5364731922745705 3.0395889990031719 5.9752118065953255 3.3406648486852646
leaf_count=14 12 21 9 7 36 14 14 19 10 19 60 25
internal_value=-0.00145445 -0.0135494 0.0114074 0.0277483 0.00119918 -0.00661806 0.0106899 0.0206666 0.0162775 -0.0234903 0.0375472 -0.0390662
internal_weight=33.991 17.6905 16.3005 8.41228 11.6905 7.88818 10.014 7.89857 3.23594 4.65224 7.14464 6
internal_count=260 129 131 76 83 55 69 55 24 31 67 46
is_linear=0
shrinkage=0.05


Tree=55
num_leaves=13
num_cat=0
split_feature=2 7 9 11 1 11 4 1 11 6 0 4
split_gain=2.11322 2.71693 1.97151 1.80038 1.39578 1.66241 1.32396 1.02947 1.23137 2.37359 0.567983 0.433688
threshold=1.0000000180025095e-35 1.0000000180025095e-35 7.5000000000000009 2.5000000000000004 3.5000000000000004 5.5000000000000009 1.0000000180025095e-35 2.5000000000000004 3.5000000000000004 2.5000000000000004 46.500000000000007 1.0000000180025095e-35
decision_type=2 2 2 2 2 2 2 2 2 2 2 2
left_child=1 3 6 -1 5 -5 -2 11 9 -9 -3 -4
right_child=2 10 7 4 -6 -7 -8 8 -10 -11 -12 -13
leaf_value=-0.035647088556310713 -0.037042855339546335 -0.049780645739165533 -0.013737833799964178 0.035025638970656102 -0.018999812559667498 -0.0081768453499695484 0.009352262632826144 0.034905990087084331 0.048525665967410508 -0.025301008430270579 -0.010274232719400825 0.014325451788390479
leaf_weight=1.6506851352751279 2.0819465368986156 3.4863695465028277 2.0425477549433699 5.044733949005602 2.1100871935486794 2.7677256837487221 2.1827321350574493 2.6125153452157956 3.7111051082611084 1.9784176126122472 2.4103116653859615 1.4866702295839789
leaf_count=14 23 27 13 36 14 19 13 21 31 14 19 16
internal_value=-0.00151199 -0.0133211 0.0110422 0.000980836 0.0102377 0.0199618 -0.0150813 0.0212899 0.0300312 0.00818136 -0.0381883 -0.000259502
internal_weight=33.5658 17.4699 16.0959 11.5732 9.92255 7.81246 4.26468 11.8313 8.30204 4.59093 5.89668 3.52922
internal_count=260 129 131 83 69 55 36 95 66 35 46 29
is_linear=0
shrinkage=0.05


Tree=56
num_leaves=14
num_cat=0
split_feature=5 8 9 9 9 4 1 9 0 6 7 0 6
split_gain=2.37679 1.38739 1.35055 1.79192 1.34626 1.79653 1.16914 1.09089 1.08665 1.02632 0.854654 0.595488 0.0459041
threshold=1.0000000180025095e-35 1.0000000180025095e-35 12.500000000000002 6.5000000000000009 12.500000000000002 1.0000000180025095e-35 3.5000000000000004 18.500000000000004 30.500000000000004 2.5000000000000004 1.0000000180025095e-35 46.500000000000007 3.5000000000000004
decision_type=2 2 2 2 2 2 2 2 2 2 2 2 2
left_child=1 2 3 -1 5 8 11 12 -2 -10 -5 -7 -6
right_child=4 -3 -4 10 7 6 -8 -9 9 -11 -12 -13 -14
leaf_value=-0.02248430289189177 0.0071461521948299953 -0.041914814188503131 -0.035827694180824647 0.035394578351754878 0.013760791255277949 0.0040269271244438628 -0.010188957543101188 -0.0041003254703192134 0 -0.047120596980058466 -0.0045859466640968561 0.04140671113773553 0.040171078545074207
leaf_weight=2.5711397379636747 1.8644212186336533 3.3616988845169535 1.7207062914967535 2.9489306136965752 2.5429758876562101 2.4155039042234421 2.3913164585828781 2.1623468101024628 1.5331090763211248 2.6031981706619263 1.4035368561744688 2.3020999357104301 3.3256632350385189
leaf_count=16 14 42 15 23 18 19 14 16 10 22 9 16 26
internal_value=-0.00155107 -0.0185947 -0.00560154 0.00485305 0.00830505 -0.00146531 0.0142965 0.0232039 -0.0202271 -0.032528 0.0231198 0.0271937 0.0331246
internal_weight=33.1466 12.006 8.64431 6.92361 21.1406 13.1096 7.10892 8.03099 6.00073 4.13631 4.35247 4.7176 5.86864
internal_count=260 105 63 48 155 95 49 60 46 32 32 35 44
is_linear=0
shrinkage=0.05


Tree=57
num_leaves=13
num_cat=0
split_feature=5 8 9 9 11 0 4 9 11 4 0 6
split_gain=2.25288 1.31834 1.28184 1.67228 1.27582 1.99532 2.18312 2.77886 1.47817 0.795292 0.483935 0.208691
threshold=1.0000000180025095e-35 1.0000000180025095e-35 12.500000000000002 6.5000000000000009 6.5000000000000009 27.500000000000004 1.0000000180025095e-35 11.500000000000002 4.5000000000000009 1.0000000180025095e-35 48.500000000000007 2.5000000000000004
decision_type=2 2 2 2 2 2 2 2 2 2 2 2
left_child=1 2 3 -1 5 8 7 11 -2 -5 -9 -7
right_child=4 -3 -4 9 -6 6 -8 10 -10 -11 -12 -13
leaf_value=-0.021794227665099575 -0.041894740600392784 -0.041374915937414457 -0.035256515735480012 -0.0023286571919049074 -0.021831467067554056 -0.0030958445649772338 0.041323317010613841 0.032726593359134484 0.010477067379641717 0.035643674199875255 0.0012163235073752348 -0.035392276733072596
leaf_weight=2.5520773828029615 1.6906930804252689 3.251147396862506 1.6784306615591047 1.6588250845670698 2.094136916100978 1.2874567061662658 6.1111695431172839 3.6012937501072884 1.8437955826520918 2.6494804099202156 2.2333428412675858 2.0635512471199036
leaf_count=16 9 42 15 11 14 8 50 27 13 21 13 21
internal_value=-0.00152637 -0.0182837 -0.00555179 0.00464031 0.00809042 0.0126031 0.0204253 0.00333899 -0.0171863 0.0223969 0.0233396 -0.0276965
internal_weight=32.7154 11.79 8.53881 6.86038 20.9254 18.8313 15.2968 9.18564 3.53449 4.30831 5.83464 3.35101
internal_count=260 105 63 48 155 141 119 69 22 32 40 29
is_linear=0
shrinkage=0.05


Tree=58
num_leaves=14
num_cat=0
split_feature=5 8 9 4 9 7 1 9 2 9 1 1 11
split_gain=2.10875 1.25455 1.23899 1.54735 1.21846 1.63373 1.10199 1.03639 0.956719 1.10731 0.823742 0.588763 0.0362118
threshold=1.0000000180025095e-35 1.0000000180025095e-35 12.500000000000002 1.0000000180025095e-35 12.500000000000002 1.0000000180025095e-35 3.5000000000000004 18.500000000000004 1.0000000180025095e-35 7.5000000000000009 3.5000000000000004 1.5000000000000002 4.5000000000000009
decision_type=2 2 2 2 2 2 2 2 2 2 2 2 2
left_child=1 4 3 8 5 10 11 12 -2 -10 -1 -5 -4
right_child=2 -3 7 6 -6 -7 -8 -9 9 -11 -12 -13 -14
leaf_value=0.03726673138543752 -0.039198017569382015 -0.040841738959732025 0.016632400083820973 0.003960677643488386 -0.034697319903035748 -0.022185426396717861 -0.010504555722824264 -0.0043455735891599996 -0.028318281278329568 0.016863222136602348 -0.0006241344821462855 0.041154851274225607 0.042634343175768398
leaf_weight=2.3094084486365301 2.218924321234228 3.1446730718016616 3.5696718618273726 2.5185312181711197 1.6373686864972112 2.4564584046602249 2.376278355717659 2.1411790698766708 1.2464005798101427 2.401091031730175 2.0326002910733223 2.0429738536477089 2.1421811878681183
leaf_count=17 14 42 27 18 15 17 14 16 16 16 14 17 17
internal_value=-0.00160795 -0.0179667 0.00773809 -0.00171931 -0.00548489 0.00445666 0.0130644 0.0221754 -0.0192875 -0.000271297 0.0217967 0.0259226 0.0320283
internal_weight=32.2377 11.5805 20.6572 12.8042 8.43584 6.79847 6.93778 7.85303 5.86642 3.64749 4.34201 4.56151 5.71185
internal_count=260 105 155 95 63 48 49 60 46 32 31 35 44
is_linear=0
shrinkage=0.05


Tree=59
num_leaves=14
num_cat=0
split_feature=2 7 3 11 11 6 0 11 4 11 0 0 9
split_gain=2.04422 2.34279 1.94556 1.73533 1.57453 1.35335 1.04687 1.34815 0.649827 0.568249 0.493058 0.371555 0.192273
threshold=1.0000000180025095e-35 1.0000000180025095e-35 1.0000000180025095e-35 1.5000000000000002 2.5000000000000004 4.5000000000000009 27.500000000000004 5.5000000000000009 1.0000000180025095e-35 2.5000000000000004 46.500000000000007 51.500000000000007 7.5000000000000009
decision_type=2 2 2 2 2 2 2 2 2 2 2 2 2
left_child=1 4 5 -4 -1 9 -6 11 -7 -2 -3 -8 -5
right_child=2 10 3 12 6 8 7 -9 -10 -11 -12 -13 -14
leaf_value=-0.034634889129569378 0.00012888786786178 -0.048265213175604608 -0.016098003746051838 0.0051978741458091806 -0.020497609772954631 -0.0042891638663785786 0.03630810702846838 -0.0089528604156716898 0.032428047004944352 -0.03260785552089248 -0.0096658392418147651 0.0018596507071522714 0.040593790769123499
leaf_weight=1.5623016357421899 1.5424542725086228 3.2881656996905795 1.1930379047989843 1.1122365742921827 1.4103954583406437 1.5810668058693409 3.901454530656336 2.6996890679001808 1.4399004131555557 2.9151541218161583 2.2493799887597561 1.4437146261334417 5.4932220168411732
leaf_count=14 12 27 9 7 11 14 29 19 10 19 19 10 60
internal_value=-0.00158905 -0.0135086 0.0110569 0.0271933 0.000102501 -0.00640279 0.00908413 0.0165159 0.0156805 -0.0224159 -0.0372276 0.0295511 0.0367583
internal_weight=31.8322 16.5551 15.2771 7.7985 11.0176 7.47858 9.45525 8.04486 3.02097 4.45761 5.53755 5.34517 6.60546
internal_count=260 129 131 76 83 55 69 58 24 31 46 39 67
is_linear=0
shrinkage=0.05


Tree=60
num_leaves=13
num_cat=0
split_feature=5 11 0 4 9 11 8 9 9 7 0 0
split_gain=1.9928 1.18271 1.75944 1.97916 2.5053 1.34892 1.1667 1.13474 1.51987 0.735155 0.43596 0.16792
threshold=1.0000000180025095e-35 6.5000000000000009 27.500000000000004 1.0000000180025095e-35 11.500000000000002 4.5000000000000009 1.0000000180025095e-35 12.500000000000002 6.5000000000000009 1.0000000180025095e-35 48.500000000000007 52.500000000000007
decision_type=2 2 2 2 2 2 2 2 2 2 2 2
left_child=6 2 5 4 11 -2 7 8 -1 -10 -6 -4
right_child=1 -3 3 -5 10 -7 -8 -9 9 -11 -12 -13
leaf_value=-0.021155076600951846 -0.040083683441524132 -0.021326038110039313 -0.032405923203396365 0.039840555975562908 0.031372517217614249 0.010338995177810593 -0.040248256892791386 -0.03400418675188327 0.033238490088859922 -0.0042024021549603389 0.0010690923035790913 -0.00075999791018306324
leaf_weight=2.4800665378570574 1.6396024078130786 2.0665967687964431 2.3065248169004904 5.8384096622467032 3.4544953741133213 1.7928320616483686 3.0141242146491996 1.5799791440367696 2.7763588428497314 1.3686851561069486 2.2025406584143639 0.92035037279129017
leaf_count=16 9 14 20 50 27 13 42 15 23 9 13 9
internal_value=-0.00162348 0.00752449 0.0120115 0.0195269 0.00299093 -0.0162281 -0.0177873 -0.00551704 0.00418948 0.0214899 0.022258 -0.0268781
internal_weight=31.4406 20.2214 18.1548 14.7223 8.88391 3.43243 11.2192 8.20509 6.62511 4.14504 5.65704 3.22688
internal_count=260 155 141 119 69 22 105 63 48 32 40 29
is_linear=0
shrinkage=0.05


Tree=61
num_leaves=15
num_cat=0
split_feature=2 7 9 11 4 9 11 0 8 0 9 11 10 4
split_gain=1.95344 2.13033 1.54068 1.43811 1.11252 1.01897 0.924339 0.447482 0.333559 0.52418 0.305004 0.284184 0.248955 0.145066
threshold=1.0000000180025095e-35 1.0000000180025095e-35 7.5000000000000009 2.5000000000000004 1.0000000180025095e-35 18.500000000000004 6.5000000000000009 46.500000000000007 1.0000000180025095e-35 39.500000000000007 4.5000000000000009 3.5000000000000004 1.0000000180025095e-35 1.0000000180025095e-35
decision_type=2 2 2 2 2 2 2 2 2 2 2 2 2 2
left_child=1 3 4 -1 -2 8 10 -3 11 -10 -5 -4 -12 -14
right_child=2 7 5 6 -6 -7 -8 -9 9 -11 12 -13 13 -15
leaf_value=-0.033780445768801425 -0.034587211205398503 -0.047212890719943723 0.012019895080185139 -0.001084945259156835 0.009086201125949378 -0.013664789173018846 -0.0197877904714472 -0.0094908959547453983 0.020915135616613144 -0.010086889554704161 0.029394903901872989 0.04205313703050461 -0.0023546489648747565 0.013424875780221482
leaf_weight=1.5188325121998811 1.8219372555613547 3.1617093905806533 3.0425563901662809 1.5826670974493007 2.0860607028007507 1.1433167308568943 1.3388448245823381 2.2054793387651443 2.0140773952007298 1.4225581064820287 2.8686684295535088 3.360074121505022 1.6476217210292816 1.79158104211092
leaf_count=14 23 27 24 12 13 10 11 19 15 13 22 33 11 13
internal_value=-0.00170025 -0.0135035 0.0108051 0 -0.0131545 0.0201344 0.00839532 -0.0364225 0.0254214 0.00757415 0.0154276 0.0320083 0.0198364 0.00591151
internal_weight=31.006 16.1154 14.8906 10.7482 3.908 10.9826 9.22938 5.36719 9.83927 3.43664 7.89054 6.40263 6.30787 3.4392
internal_count=260 129 131 83 36 95 69 46 85 28 58 57 46 24
is_linear=0
shrinkage=0.05


Tree=62
num_leaves=14
num_cat=0
split_feature=5 9 2 1 9 9 9 11 0 1 9 2 6
split_gain=1.87882 1.11709 1.00333 1.86209 0.965971 0.815639 1.54764 0.865988 0.78577 0.535096 0.569086 0.503569 0.0359906
threshold=1.0000000180025095e-35 12.500000000000002 1.0000000180025095e-35 2.5000000000000004 18.500000000000004 12.500000000000002 6.5000000000000009 2.5000000000000004 46.500000000000007 2.5000000000000004 7.5000000000000009 1.0000000180025095e-35 3.5000000000000004
decision_type=2 2 2 2 2 2 2 2 2 2 2 2 2
left_child=5 2 3 8 12 6 -1 -8 -2 -4 -11 -9 -3
right_child=1 4 9 -5 -6 -7 7 11 -10 10 -12 -13 -14
leaf_value=-0.028942530604732924 -0.011414409553992571 0.012412029531940946 -0.0088177845788483689 -0.041131049347945592 -0.0045466756515565917 -0.039070332235826871 -0.015056608548373525 0 0.025598392871711603 -0.0019479647147378377 0.029750694462168194 0.035627787802611131 0.037700755774016576
leaf_weight=3.6133442707359809 1.897514171898367 2.4136498235166064 1.4780284501612184 2.5932817570865154 2.0763825550675392 2.4059610851109019 1.4202688634395597 1.7562825679779053 1.7780427038669584 1.6037568151950834 2.906691949814558 1.6968040466308594 3.0431406646966934
leaf_count=35 13 18 16 15 16 28 12 15 14 13 24 15 26
internal_value=-0.00172025 0.00723221 -0.0019198 -0.0150994 0.0211894 -0.0176465 -0.00756764 0.00965886 0.00706654 0.0113478 0.0192643 0.0220456 0.0309441
internal_weight=30.6831 19.7905 12.2573 6.26884 7.53317 10.8927 8.4867 4.87336 3.67556 5.98848 4.51045 3.45309 5.45679
internal_count=260 155 95 42 60 105 77 42 27 53 37 30 44
is_linear=0
shrinkage=0.05


Tree=63
num_leaves=14
num_cat=0
split_feature=5 11 0 11 11 8 9 7 9 0 0 6 6
split_gain=1.75948 1.07356 1.55746 1.26423 1.25392 1.05663 1.02881 1.36778 0.633391 0.585763 1.94055 0.26786 0.337363
threshold=1.0000000180025095e-35 6.5000000000000009 27.500000000000004 4.5000000000000009 1.5000000000000002 1.0000000180025095e-35 12.500000000000002 1.0000000180025095e-35 6.5000000000000009 35.500000000000007 41.500000000000007 5.5000000000000009 2.5000000000000004
decision_type=2 2 2 2 2 2 2 2 2 2 2 2 2
left_child=5 2 3 -2 -4 6 7 8 -1 -6 -11 12 -12
right_child=1 -3 4 -5 9 -7 -8 -9 -10 10 11 -13 -14
