{"learner":{"attributes":{"scikit_learn":"{\"_estimator_type\": \"classifier\"}"},"feature_names":["Age","Education","Initial_Capital","Financial_Record_Keeping","Internet_Usage","Business_Plan","Marketing_Effort","Partnership","Parent_Business_Experience","Industry_Experience","Owner_Gender","Professional_Advice"],"feature_types":["int","int","int","int","int","int","int","int","int","int","int","int"],"gradient_booster":{"model":{"cats":{"enc":[],"feature_segments":[],"sorted_idx":[]},"gbtree_model_param":{"num_parallel_tree":"1","num_trees":"400"},"iteration_indptr":[0,1,2,3,4,5,6,7,8,9,10,11,12,13,14,15,16,17,18,19,20,21,22,23,24,25,26,27,28,29,30,31,32,33,34,35,36,37,38,39,40,41,42,43,44,45,46,47,48,49,50,51,52,53,54,55,56,57,58,59,60,61,62,63,64,65,66,67,68,69,70,71,72,73,74,75,76,77,78,79,80,81,82,83,84,85,86,87,88,89,90,91,92,93,94,95,96,97,98,99,100,101,102,103,104,105,106,107,108,109,110,111,112,113,114,115,116,117,118,119,120,121,122,123,124,125,126,127,128,129,130,131,132,133,134,135,136,137,138,139,140,141,142,143,144,145,146,147,148,149,150,151,152,153,154,155,156,157,158,159,160,161,162,163,164,165,166,167,168,169,170,171,172,173,174,175,176,177,178,179,180,181,182,183,184,185,186,187,188,189,190,191,192,193,194,195,196,197,198,199,200,201,202,203,204,205,206,207,208,209,210,211,212,213,214,215,216,217,218,219,220,221,222,223,224,225,226,227,228,229,230,231,232,233,234,235,236,237,238,239,240,241,242,243,244,245,246,247,248,249,250,251,252,253,254,255,256,257,258,259,260,261,262,263,264,265,266,267,268,269,270,271,272,273,274,275,276,277,278,279,280,281,282,283,284,285,286,287,288,289,290,291,292,293,294,295,296,297,298,299,300,301,302,303,304,305,306,307,308,309,310,311,312,313,314,315,316,317,318,319,320,321,322,323,324,325,326,327,328,329,330,331,332,333,334,335,336,337,338,339,340,341,342,343,344,345,346,347,348,349,350,351,352,353,354,355,356,357,358,359,360,361,362,363,364,365,366,367,368,369,370,371,372,373,374,375,376,377,378,379,380,381,382,383,384,385,386,387,388,389,390,391,392,393,394,395,396,397,398,399,400],"tree_info":[0,0,0,0,0,0,0,0,0,0,0,0,0,0,0,0,0,0,0,0,0,0,0,0,0,0,0,0,0,0,0,0,0,0,0,0,0,0,0,0,0,0,0,0,0,0,0,0,0,0,0,0,0,0,0,0,0,0,0,0,0,0,0,0,0,0,0,0,0,0,0,0,0,0,0,0,0,0,0,0,0,0,0,0,0,0,0,0,0,0,0,0,0,0,0,0,0,0,0,0,0,0,0,0,0,0,0,0,0,0,0,0,0,0,0,0,0,0,0,0,0,0,0,0,0,0,0,0,0,0,0,0,0,0,0,0,0,0,0,0,0,0,0,0,0,0,0,0,0,0,0,0,0,0,0,0,0,0,0,0,0,0,0,0,0,0,0,0,0,0,0,0,0,0,0,0,0,0,0,0,0,0,0,0,0,0,0,0,0,0,0,0,0,0,0,0,0,0,0,0,0,0,0,0,0,0,0,0,0,0,0,0,0,0,0,0,0,0,0,0,0,0,0,0,0,0,0,0,0,0,0,0,0,0,0,0,0,0,0,0,0,0,0,0,0,0,0,0,0,0,0,0,0,0,0,0,0,0,0,0,0,0,0,0,0,0,0,0,0,0,0,0,0,0,0,0,0,0,0,0,0,0,0,0,0,0,0,0,0,0,0,0,0,0,0,0,0,0,0,0,0,0,0,0,0,0,0,0,0,0,0,0,0,0,0,0,0,0,0,0,0,0,0,0,0,0,0,0,0,0,0,0,0,0,0,0,0,0,0,0,0,0,0,0,0,0,0,0,0,0,0,0,0,0,0,0,0,0,0,0,0,0,0,0,0,0,0,0,0,0,0,0,0,0,0,0,0,0,0,0,0,0,0,0,0,0,0,0,0,0,0,0,0,0,0,0,0,0,0,0],"trees":[{"base_weights":[7.4418606E-3,-9.3191487E-1,7.168E-1,-8.217391E-2,-2.2307692E-1,-8.195122E-1,1.4045454E0,3.0526316E-1,-6.555556E-2,-6.9E-2,-1.12000005E-2,8.6153847E-1,8.4528305E-2,-3.6250003E-2,4.5384616E-2,4.7058826E-3,6.076923E-2],"categories":[],"categories_nodes":[],"categories_segments":[],"categories_sizes":[],"default_left":[0,0,0,0,0,0,0,0,0,0,0,0,0,0,0,0,0],"id":0,"left_children":[1,3,5,-1,7,9,11,13,-1,-1,-1,15,-1,-1,-1,-1,-1],"loss_changes":[3.646228E1,1.12997265E1,3.422804E1,0E0,7.973896E0,2.9516978E0,1.7051468E0,6.572622E0,0E0,0E0,0E0,2.4022632E0,0E0,0E0,0E0,0E0,0E0],"parents":[2147483647,0,0,1,1,2,2,4,4,5,5,6,6,7,7,11,11],"right_children":[2,4,6,-1,8,10,12,14,-1,-1,-1,16,-1,-1,-1,-1,-1],"split_conditions":[1E0,1E0,8E0,-8.217391E-2,1.2E1,5E0,1E0,7E0,-6.555556E-2,-6.9E-2,-1.12000005E-2,1.3E1,8.4528305E-2,-3.6250003E-2,4.5384616E-2,4.7058826E-3,6.076923E-2],"split_indices":[5,3,9,0,9,6,2,9,0,0,0,9,0,0,0,0,0],"split_type":[0,0,0,0,0,0,0,0,0,0,0,0,0,0,0,0,0],"sum_hessian":[5.275E1,2.25E1,3.025E1,1.05E1,1.2E1,9.25E0,2.1E1,8.5E0,3.5E0,4E0,5.25E0,8.75E0,1.225E1,3E0,5.5E0,3.25E0,5.5E0],"tree_param":{"num_deleted":"0","num_feature":"12","num_nodes":"17","size_leaf_vector":"1"}},{"base_weights":[-3.848543E-2,-8.8799685E-1,5.860947E-1,-2.5059384E-1,-8.617269E-2,-9.0744174E-1,1.2093878E0,-1.0267019E0,4.2983584E-2,-7.93088E-2,2.5729807E-5,6.238313E-1,7.984508E-2,-2.4330685E-2,-7.301484E-2,1.4338469E-3,5.971552E-2],"categories":[],"categories_nodes":[],"categories_segments":[],"categories_sizes":[],"default_left":[0,0,0,0,0,0,0,0,0,0,0,0,0,0,0,0,0],"id":1,"left_children":[1,3,5,7,-1,9,11,13,-1,-1,-1,15,-1,-1,-1,-1,-1],"loss_changes":[2.8112173E1,1.13391075E1,2.9492832E1,1.295137E1,0E0,6.0113783E0,3.7679634E0,1.1416321E0,0E0,0E0,0E0,3.4067144E0,0E0,0E0,0E0,0E0,0E0],"parents":[2147483647,0,0,1,1,2,2,3,3,5,5,6,6,7,7,11,11],"right_children":[2,4,6,8,-1,10,12,14,-1,-1,-1,16,-1,-1,-1,-1,-1],"split_conditions":[1E0,1E0,8E0,1E0,-8.617269E-2,4.7E1,1E0,1E0,4.2983584E-2,-7.93088E-2,2.5729807E-5,1E0,7.984508E-2,-2.4330685E-2,-7.301484E-2,1.4338469E-3,5.971552E-2],"split_indices":[5,8,9,2,0,0,2,7,0,0,0,4,0,0,0,0,0],"split_type":[0,0,0,0,0,0,0,0,0,0,0,0,0,0,0,0,0],"sum_hessian":[5.0945267E1,2.1474909E1,2.9470356E1,1.298658E1,8.48833E0,8.495971E0,2.0974386E1,7.7408395E0,5.24574E0,4.497254E0,3.9987168E0,9.494904E0,1.1479483E1,4.4948883E0,3.245951E0,5.246761E0,4.2481422E0],"tree_param":{"num_deleted":"0","num_feature":"12","num_nodes":"17","size_leaf_vector":"1"}},{"base_weights":[-1.8917289E-2,-8.621052E-1,5.9485537E-1,-2.2624195E-1,-8.251331E-2,4.1726153E-2,9.611797E-1,-9.092374E-1,3.3350553E-2,-5.006382E-2,6.2650573E-1,2.2421297E-1,7.0643075E-2,-5.941981E-2,-2.2337524E-2,5.153801E-2,-0E0,2.058735E-2,-0E0],"categories":[],"categories_nodes":[],"categories_segments":[],"categories_sizes":[],"default_left":[0,0,0,0,0,0,0,0,0,0,0,0,0,0,0,0,0,0,0],"id":2,"left_children":[1,3,5,7,-1,9,11,13,-1,-1,15,17,-1,-1,-1,-1,-1,-1,-1],"loss_changes":[2.657617E1,1.0299631E1,5.865178E0,8.69812E0,0E0,8.496147E0,5.4034595E0,3.35876E-1,0E0,0E0,2.3043106E0,3.602008E-1,0E0,0E0,0E0,0E0,0E0,0E0,0E0],"parents":[2147483647,0,0,1,1,2,2,3,3,5,5,6,6,7,7,10,10,11,11],"right_children":[2,4,6,8,-1,10,12,14,-1,-1,16,18,-1,-1,-1,-1,-1,-1,-1],"split_conditions":[1E0,1E0,1E0,1E0,-8.251331E-2,4E0,1E0,3.5E1,3.3350553E-2,-5.006382E-2,1E0,4E0,7.0643075E-2,-5.941981E-2,-2.2337524E-2,5.153801E-2,-0E0,2.058735E-2,-0E0],"split_indices":[5,8,3,2,0,6,2,0,0,0,8,6,0,0,0,0,0,0,0],"split_type":[0,0,0,0,0,0,0,0,0,0,0,0,0,0,0,0,0,0,0],"sum_hessian":[4.9309814E1,2.0670898E1,2.8638916E1,1.2223386E1,8.447512E0,1.1962738E1,1.6676178E1,6.98024E0,5.2431464E0,3.9803045E0,7.982434E0,6.9896364E0,9.686542E0,3.2392292E0,3.7410107E0,4.4872327E0,3.495201E0,3.4937553E0,3.4958808E0],"tree_param":{"num_deleted":"0","num_feature":"12","num_nodes":"19","size_leaf_vector":"1"}},{"base_weights":[-4.2335734E-2,-9.013708E-1,4.2362794E-1,-3.1915623E-1,-6.919845E-2,-3.2543957E-1,9.306998E-1,-4.2632934E-2,1.5268914E-2,1.883347E-1,-6.56087E-2,-5.140997E-3,1.3760418E0,-2.383989E-2,3.212821E-2,3.3723485E-2,7.799553E-2],"categories":[],"categories_nodes":[],"categories_segments":[],"categories_sizes":[],"default_left":[0,0,0,0,0,0,0,0,0,0,0,0,0,0,0,0,0],"id":3,"left_children":[1,3,5,7,-1,9,11,-1,-1,13,-1,-1,15,-1,-1,-1,-1],"loss_changes":[2.1497503E1,4.6997423E0,1.3554298E1,3.634253E0,0E0,7.8017955E0,9.956583E0,0E0,0E0,3.4836295E0,0E0,0E0,6.3964653E-1,0E0,0E0,0E0,0E0],"parents":[2147483647,0,0,1,1,2,2,3,3,5,5,6,6,9,9,12,12],"right_children":[2,4,6,8,-1,10,12,-1,-1,14,-1,-1,16,-1,-1,-1,-1],"split_conditions":[8E0,1E0,1E0,5E0,-6.919845E-2,1E0,1E0,-4.2632934E-2,1.5268914E-2,4E0,-6.56087E-2,-5.140997E-3,3E0,-2.383989E-2,3.212821E-2,3.3723485E-2,7.799553E-2],"split_indices":[9,7,2,6,0,7,3,0,0,11,0,0,11,0,0,0,0],"split_type":[0,0,0,0,0,0,0,0,0,0,0,0,0,0,0,0,0],"sum_hessian":[5.1632977E1,1.7904684E1,3.3728294E1,8.961689E0,8.942995E0,1.368025E1,2.0048042E1,4.7224402E0,4.239249E0,9.461575E0,4.218676E0,6.2012258E0,1.3846816E1,3.7299442E0,5.73163E0,3.95773E0,9.889087E0],"tree_param":{"num_deleted":"0","num_feature":"12","num_nodes":"17","size_leaf_vector":"1"}},{"base_weights":[2.1634474E-2,-8.457303E-1,6.34459E-1,-7.671635E-2,-2.063098E-1,-5.462402E-1,1.1797885E0,-5.9982378E-2,4.7740853E-1,-7.6722704E-2,1.792605E-2,5.1715577E-1,7.39405E-2,4.9408983E-2,-1.2164894E-2,-8.458327E-3,4.8604723E-2],"categories":[],"categories_nodes":[],"categories_segments":[],"categories_sizes":[],"default_left":[0,0,0,0,0,0,0,0,0,0,0,0,0,0,0,0,0],"id":4,"left_children":[1,3,5,-1,7,9,11,-1,13,-1,-1,15,-1,-1,-1,-1,-1],"loss_changes":[2.959572E1,9.641487E0,2.1760777E1,0E0,9.584456E0,1.0463643E1,3.5416336E0,0E0,3.42623E0,0E0,0E0,2.9652598E0,0E0,0E0,0E0,0E0,0E0],"parents":[2147483647,0,0,1,1,2,2,4,4,5,5,6,6,8,8,11,11],"right_children":[2,4,6,-1,8,10,12,-1,14,-1,-1,16,-1,-1,-1,-1,-1],"split_conditions":[1E0,1E0,8E0,-7.671635E-2,1E0,1E0,1E0,-5.9982378E-2,4E0,-7.6722704E-2,1.792605E-2,5E0,7.39405E-2,4.9408983E-2,-1.2164894E-2,-8.458327E-3,4.8604723E-2],"split_indices":[5,3,9,0,4,4,3,0,6,0,0,6,0,0,0,0,0],"split_type":[0,0,0,0,0,0,0,0,0,0,0,0,0,0,0,0,0],"sum_hessian":[5.3709206E1,2.2011654E1,3.1697552E1,9.849117E0,1.2162537E1,9.956206E0,2.1741346E1,4.7105284E0,7.4520082E0,4.4788213E0,5.4773855E0,7.713069E0,1.4028276E1,4.2251983E0,3.2268102E0,3.2374237E0,4.475645E0],"tree_param":{"num_deleted":"0","num_feature":"12","num_nodes":"17","size_leaf_vector":"1"}},{"base_weights":[-5.7927854E-3,-7.8284633E-1,5.276981E-1,-7.01387E-2,-1.7311466E-1,-4.784832E-1,9.6063775E-1,-4.713408E-2,2.5080223E-2,-7.3371604E-2,2.2313664E-2,3.6934233E-1,1.2841803E0,4.1134067E-2,-2.068161E-2,2.6946127E-2,7.599348E-2],"categories":[],"categories_nodes":[],"categories_segments":[],"categories_sizes":[],"default_left":[0,0,0,0,0,0,0,0,0,0,0,0,0,0,0,0,0],"id":5,"left_children":[1,3,5,-1,7,9,11,-1,-1,-1,-1,13,15,-1,-1,-1,-1],"loss_changes":[2.3493313E1,8.337905E0,1.5099127E1,0E0,7.203188E0,1.0519447E1,3.917513E0,0E0,0E0,0E0,0E0,3.908565E0,1.5892849E0,0E0,0E0,0E0,0E0],"parents":[2147483647,0,0,1,1,2,2,4,4,5,5,6,6,11,11,12,12],"right_children":[2,4,6,-1,8,10,12,-1,-1,-1,-1,14,16,-1,-1,-1,-1],"split_conditions":[1E0,1E0,8E0,-7.01387E-2,1E0,1E0,1E0,-4.713408E-2,2.5080223E-2,-7.3371604E-2,2.2313664E-2,1E0,1E0,4.1134067E-2,-2.068161E-2,2.6946127E-2,7.599348E-2],"split_indices":[5,3,9,0,4,4,3,0,0,0,0,7,2,0,0,0,0],"split_type":[0,0,0,0,0,0,0,0,0,0,0,0,0,0,0,0,0],"sum_hessian":[5.4613644E1,2.2117928E1,3.2495716E1,1.02410145E1,1.1876913E1,9.674753E0,2.2820963E1,5.432177E0,6.4447355E0,4.443795E0,5.2309575E0,8.93758E0,1.3883384E1,5.709062E0,3.2285178E0,4.22732E0,9.656063E0],"tree_param":{"num_deleted":"0","num_feature":"12","num_nodes":"17","size_leaf_vector":"1"}},{"base_weights":[8.953768E-3,-8.9119786E-1,5.7763094E-1,-4.2673847E-1,-7.3931076E-2,-4.1364428E-2,7.777147E-1,-5.756408E-2,1.5572476E-1,1.1119505E0,1.5062979E-1,3.869339E-2,-2.0478392E-2,6.67766E-2,6.6471416E-1,-3.1765576E-2,3.873598E-2,5.3035426E-3,5.5780113E-2],"categories":[],"categories_nodes":[],"categories_segments":[],"categories_sizes":[],"default_left":[0,0,0,0,0,0,0,0,0,0,0,0,0,0,0,0,0,0,0],"id":6,"left_children":[1,3,5,7,-1,-1,9,-1,11,13,15,-1,-1,-1,17,-1,-1,-1,-1],"loss_changes":[2.6889614E1,4.716217E0,9.714654E0,5.695732E0,0E0,0E0,5.751091E0,0E0,3.1208177E0,7.673645E-1,6.042946E0,0E0,0E0,0E0,1.8560636E0,0E0,0E0,0E0,0E0],"parents":[2147483647,0,0,1,1,2,2,3,3,6,6,8,8,9,9,10,10,14,14],"right_children":[2,4,6,8,-1,-1,10,-1,12,14,16,-1,-1,-1,18,-1,-1,-1,-1],"split_conditions":[1E0,1E0,2E0,1E0,-7.3931076E-2,-4.1364428E-2,1E0,-5.756408E-2,5E0,1E0,1E0,3.869339E-2,-2.0478392E-2,6.67766E-2,4.5E1,-3.1765576E-2,3.873598E-2,5.3035426E-3,5.5780113E-2],"split_indices":[5,8,11,4,0,0,7,0,11,10,2,0,0,0,0,0,0,0,0],"split_type":[0,0,0,0,0,0,0,0,0,0,0,0,0,0,0,0,0,0,0],"sum_hessian":[5.0585094E1,1.9297054E1,3.128804E1,1.183564E1,7.461415E0,3.4473598E0,2.7840681E1,4.9158187E0,6.919821E0,1.7552525E1,1.0288156E1,3.2136505E0,3.7061706E0,1.0229051E1,7.3234744E0,4.474732E0,5.813424E0,3.9216475E0,3.4018269E0],"tree_param":{"num_deleted":"0","num_feature":"12","num_nodes":"19","size_leaf_vector":"1"}},{"base_weights":[-3.1815216E-2,-7.0859736E-1,5.214601E-1,-1.0925485E0,1.3700922E-2,-5.877199E-1,9.3089235E-1,-6.7982566E-1,-7.2361E-2,-4.685315E-2,-6.4992704E-3,4.4805768E-1,6.775603E-2,-6.231438E-2,-3.618215E-5,5.0874956E-2,-2.5289908E-2],"categories":[],"categories_nodes":[],"categories_segments":[],"categories_sizes":[],"default_left":[0,0,0,0,0,0,0,0,0,0,0,0,0,0,0,0,0],"id":7,"left_children":[1,3,5,7,-1,9,11,13,-1,-1,-1,15,-1,-1,-1,-1,-1],"loss_changes":[1.9605043E1,9.280815E0,1.362939E1,1.3263359E0,0E0,1.0976634E0,3.6037197E0,3.7142792E0,0E0,0E0,0E0,6.8832045E0,0E0,0E0,0E0,0E0,0E0],"parents":[2147483647,0,0,1,1,2,2,3,3,5,5,6,6,7,7,11,11],"right_children":[2,4,6,8,-1,10,12,14,-1,-1,-1,16,-1,-1,-1,-1,-1],"split_conditions":[1E0,5.2E1,3E0,3.6E1,1.3700922E-2,1E0,1E0,3E1,-7.2361E-2,-4.685315E-2,-6.4992704E-3,3E0,6.775603E-2,-6.231438E-2,-3.618215E-5,5.0874956E-2,-2.5289908E-2],"split_indices":[3,0,11,0,0,5,2,0,0,0,0,1,0,0,0,0,0],"split_type":[0,0,0,0,0,0,0,0,0,0,0,0,0,0,0,0,0],"sum_hessian":[5.0320564E1,2.258903E1,2.7731535E1,1.623514E1,6.35389E0,7.293433E0,2.0438103E1,8.981874E0,7.253266E0,3.418665E0,3.8747683E0,1.063069E1,9.807412E0,4.3614163E0,4.6204576E0,6.680575E0,3.9501145E0],"tree_param":{"num_deleted":"0","num_feature":"12","num_nodes":"17","size_leaf_vector":"1"}},{"base_weights":[1.0103565E-1,-6.434504E-1,5.987007E-1,-3.0857736E-2,-7.1382284E-2,-4.0915757E-1,1.0274144E0,4.2320153E-1,-5.568708E-2,-5.798756E-2,9.031877E-3,4.735126E-1,6.3602306E-2,-5.794751E-3,6.0153343E-2,-3.0269772E-3,4.8012685E-2],"categories":[],"categories_nodes":[],"categories_segments":[],"categories_sizes":[],"default_left":[0,0,0,0,0,0,0,0,0,0,0,0,0,0,0,0,0],"id":8,"left_children":[1,3,5,7,-1,9,11,13,-1,-1,-1,15,-1,-1,-1,-1,-1],"loss_changes":[1.9626938E1,1.0000883E1,1.4193209E1,6.9341335E0,0E0,4.7854624E0,2.287756E0,4.377314E0,0E0,0E0,0E0,2.3958354E0,0E0,0E0,0E0,0E0,0E0],"parents":[2147483647,0,0,1,1,2,2,3,3,5,5,6,6,7,7,11,11],"right_children":[2,4,6,8,-1,10,12,14,-1,-1,-1,16,-1,-1,-1,-1,-1],"split_conditions":[1E0,1E0,8E0,1.2E1,-7.1382284E-2,5E0,1E0,9E0,-5.568708E-2,-5.798756E-2,9.031877E-3,5E0,6.3602306E-2,-5.794751E-3,6.0153343E-2,-3.0269772E-3,4.8012685E-2],"split_indices":[5,8,9,9,0,6,3,9,0,0,0,6,0,0,0,0,0],"split_type":[0,0,0,0,0,0,0,0,0,0,0,0,0,0,0,0,0],"sum_hessian":[5.0945847E1,2.0213469E1,3.0732376E1,1.2003512E1,8.209957E0,9.115413E0,2.1616964E1,8.821466E0,3.182046E0,3.6603339E0,5.455079E0,7.6469407E0,1.3970023E1,5.643473E0,3.1779933E0,3.96582E0,3.6811209E0],"tree_param":{"num_deleted":"0","num_feature":"12","num_nodes":"17","size_leaf_vector":"1"}},{"base_weights":[-3.426644E-2,-5.3999937E-1,4.5970926E-1,-5.8312643E-2,-2.6275745E-2,-3.846952E-2,7.312337E-1,-4.525776E-2,4.1053083E-2,9.4181466E-1,2.5964675E-3,1.1286545E0,3.0742176E-3,2.0555327E-2,6.863025E-2],"categories":[],"categories_nodes":[],"categories_segments":[],"categories_sizes":[],"default_left":[0,0,0,0,0,0,0,0,0,0,0,0,0,0,0],"id":9,"left_children":[1,3,5,-1,7,-1,9,-1,-1,11,-1,13,-1,-1,-1],"loss_changes":[1.3362163E1,8.369946E0,9.56261E0,0E0,1.2412868E1,0E0,3.0956297E0,0E0,0E0,2.6307964E0,0E0,1.7058601E0,0E0,0E0,0E0],"parents":[2147483647,0,0,1,1,2,2,4,4,6,6,9,9,11,11],"right_children":[2,4,6,-1,8,-1,10,-1,-1,12,-1,14,-1,-1,-1],"split_conditions":[1E0,1E0,2.8E1,-5.8312643E-2,1E0,-3.846952E-2,6E0,-4.525776E-2,4.1053083E-2,5.5E1,2.5964675E-3,1E0,3.0742176E-3,2.0555327E-2,6.863025E-2],"split_indices":[4,2,0,0,3,0,11,0,0,0,0,3,0,0,0],"split_type":[0,0,0,0,0,0,0,0,0,0,0,0,0,0,0],"sum_hessian":[5.146138E1,2.5482073E1,2.597931E1,1.0823213E1,1.4658861E1,4.302311E0,2.1676998E1,7.2199407E0,7.4389205E0,1.6140022E1,5.5369744E0,1.2987833E1,3.1521893E0,4.080554E0,8.907279E0],"tree_param":{"num_deleted":"0","num_feature":"12","num_nodes":"15","size_leaf_vector":"1"}},{"base_weights":[-3.4960195E-2,-7.142436E-1,4.12167E-1,-1.9488317E-1,-6.946279E-2,-3.2924894E-2,5.7046497E-1,-4.0254068E-2,2.4743654E-1,9.1747916E-1,1.0274745E-1,3.6075618E-2,-9.334414E-3,5.046983E-1,6.2603846E-2,-2.4151742E-2,3.4922358E-1,4.772309E-2,4.6170778E-3,-3.120139E-5,3.859114E-2],"categories":[],"categories_nodes":[],"categories_segments":[],"categories_sizes":[],"default_left":[0,0,0,0,0,0,0,0,0,0,0,0,0,0,0,0,0,0,0,0,0],"id":10,"left_children":[1,3,5,7,-1,-1,9,-1,11,13,15,-1,-1,17,-1,-1,19,-1,-1,-1,-1],"loss_changes":[1.6720951E1,7.242668E0,5.9768443E0,3.929595E0,0E0,0E0,4.584244E0,0E0,1.9505128E0,1.4934092E0,2.1469126E0,0E0,0E0,1.5259991E0,0E0,0E0,1.616591E0,0E0,0E0,0E0,0E0],"parents":[2147483647,0,0,1,1,2,2,3,3,6,6,8,8,9,9,10,10,13,13,16,16],"right_children":[2,4,6,8,-1,-1,10,-1,12,14,16,-1,-1,18,-1,-1,20,-1,-1,-1,-1],"split_conditions":[1E0,1E0,2E0,1E0,-6.946279E-2,-3.2924894E-2,1E0,-4.0254068E-2,5E0,1E0,3.1E1,3.6075618E-2,-9.334414E-3,3.3E1,6.2603846E-2,-2.4151742E-2,1E0,4.772309E-2,4.6170778E-3,-3.120139E-5,3.859114E-2],"split_indices":[5,8,11,4,0,0,10,0,11,4,0,0,0,0,0,0,4,0,0,0,0],"split_type":[0,0,0,0,0,0,0,0,0,0,0,0,0,0,0,0,0,0,0,0,0],"sum_hessian":[5.2984024E1,2.0883575E1,3.210045E1,1.2614625E1,8.268951E0,3.646355E0,2.8454092E1,5.0516343E0,7.562991E0,1.5660021E1,1.2794072E1,3.4088225E0,4.1541686E0,8.267702E0,7.3923187E0,3.3846154E0,9.409457E0,3.209689E0,5.058013E0,5.56466E0,3.8447967E0],"tree_param":{"num_deleted":"0","num_feature":"12","num_nodes":"21","size_leaf_vector":"1"}},{"base_weights":[-2.9913867E-3,3.645984E-1,-6.024173E-1,-1.4838207E-1,8.7349135E-1,-1.091342E0,-0E0,-5.4450687E-2,3.329737E-1,5.66775E-2,8.737463E-3,-6.862202E-2,-3.1270236E-2,-3.1844553E-2,2.1343736E-2,-1.9749893E-2,3.5825323E-2],"categories":[],"categories_nodes":[],"categories_segments":[],"categories_sizes":[],"default_left":[0,0,0,0,0,0,0,0,0,0,0,0,0,0,0,0,0],"id":11,"left_children":[1,3,5,7,9,11,13,-1,15,-1,-1,-1,-1,-1,-1,-1,-1],"loss_changes":[1.1082671E1,8.298054E0,5.714687E0,7.7737994E0,2.5442429E0,3.3574772E-1,2.8523092E0,0E0,3.5015502E0,0E0,0E0,0E0,0E0,0E0,0E0,0E0,0E0],"parents":[2147483647,0,0,1,1,2,2,3,3,4,4,5,5,6,6,8,8],"right_children":[2,4,6,8,10,12,14,-1,16,-1,-1,-1,-1,-1,-1,-1,-1],"split_conditions":[1E0,1E0,1E0,1.1E1,6E0,3E0,9E0,-5.4450687E-2,3E0,5.66775E-2,8.737463E-3,-6.862202E-2,-3.1270236E-2,-3.1844553E-2,2.1343736E-2,-1.9749893E-2,3.5825323E-2],"split_indices":[7,4,3,9,11,1,9,0,11,0,0,0,0,0,0,0,0],"split_type":[0,0,0,0,0,0,0,0,0,0,0,0,0,0,0,0,0],"sum_hessian":[4.8192657E1,3.0012705E1,1.8179955E1,1.52012615E1,1.4811443E1,9.642259E0,8.537696E0,4.7887607E0,1.0412501E1,1.0236298E1,4.5751457E0,4.666689E0,4.9755692E0,3.1722248E0,5.365471E0,3.4926271E0,6.9198737E0],"tree_param":{"num_deleted":"0","num_feature":"12","num_nodes":"17","size_leaf_vector":"1"}},{"base_weights":[-9.215761E-2,-9.981499E-1,2.6672453E-1,-6.887755E-2,-5.482021E-1,-3.1225932E-1,6.718632E-1,-5.7734467E-2,8.450556E-3,3.8897762E-1,-6.7971215E-2,1.6817032E-1,5.4268222E-2,-1.8519452E-2,3.972954E-2,-1.2046253E-1,3.6906164E-2,-2.1364078E-2,7.908138E-3],"categories":[],"categories_nodes":[],"categories_segments":[],"categories_sizes":[],"default_left":[0,0,0,0,0,0,0,0,0,0,0,0,0,0,0,0,0,0,0],"id":12,"left_children":[1,3,5,-1,7,9,11,-1,-1,13,-1,15,-1,-1,-1,17,-1,-1,-1],"loss_changes":[1.6596004E1,1.5234356E0,8.812746E0,0E0,3.9492328E0,1.2093125E1,4.2546263E0,0E0,0E0,3.439431E0,0E0,1.9879433E0,0E0,0E0,0E0,7.918169E-1,0E0,0E0,0E0],"parents":[2147483647,0,0,1,1,2,2,4,4,5,5,6,6,9,9,11,11,15,15],"right_children":[2,4,6,-1,8,10,12,-1,-1,14,-1,16,-1,-1,-1,18,-1,-1,-1],"split_conditions":[6E0,1E0,1E0,-6.887755E-2,5E0,1.3E1,4E0,-5.7734467E-2,8.450556E-3,1E0,-6.7971215E-2,1E0,5.4268222E-2,-1.8519452E-2,3.972954E-2,1.1E1,3.6906164E-2,-2.1364078E-2,7.908138E-3],"split_indices":[9,4,5,0,6,9,11,0,0,4,0,4,0,0,0,9,0,0,0],"split_type":[0,0,0,0,0,0,0,0,0,0,0,0,0,0,0,0,0,0,0],"sum_hessian":[4.899818E1,1.3475886E1,3.5522293E1,6.0720425E0,7.403844E0,1.4616406E1,2.0905888E1,3.7566342E0,3.6472096E0,9.073415E0,5.5429916E0,1.0168274E1,1.0737613E1,3.103505E0,5.96991E0,7.1570344E0,3.0112395E0,3.3230736E0,3.8339608E0],"tree_param":{"num_deleted":"0","num_feature":"12","num_nodes":"19","size_leaf_vector":"1"}},{"base_weights":[2.8860215E-2,-5.5470395E-1,4.9710852E-1,-9.618808E-1,2.4753705E-1,-5.0695587E-2,7.918106E-1,-6.434134E-2,-5.338239E-1,-5.832956E-3,3.285693E-2,-0E0,1.0560486E0,6.328677E-4,-4.8028562E-2,1.7558109E-2,6.3155346E-2],"categories":[],"categories_nodes":[],"categories_segments":[],"categories_sizes":[],"default_left":[0,0,0,0,0,0,0,0,0,0,0,0,0,0,0,0,0],"id":13,"left_children":[1,3,5,7,9,-1,11,-1,13,-1,-1,-1,15,-1,-1,-1,-1],"loss_changes":[1.3568074E1,7.509879E0,1.3081215E1,1.2047577E0,1.3440716E0,0E0,5.04782E0,0E0,2.036857E0,0E0,0E0,0E0,2.002861E0,0E0,0E0,0E0,0E0],"parents":[2147483647,0,0,1,1,2,2,3,3,4,4,6,6,8,8,12,12],"right_children":[2,4,6,8,10,-1,12,-1,14,-1,-1,-1,16,-1,-1,-1,-1],"split_conditions":[1E0,5.2E1,4E0,5E0,7E0,-5.0695587E-2,3E0,-6.434134E-2,3.5E1,-5.832956E-3,3.285693E-2,-0E0,3E1,6.328677E-4,-4.8028562E-2,1.7558109E-2,6.3155346E-2],"split_indices":[3,0,9,6,9,0,11,0,0,0,0,0,0,0,0,0,0],"split_type":[0,0,0,0,0,0,0,0,0,0,0,0,0,0,0,0,0],"sum_hessian":[4.766585E1,2.1042723E1,2.6623127E1,1.3908918E1,7.1338043E0,3.8913407E0,2.2731787E1,6.6334934E0,7.275425E0,4.0255475E0,3.1082566E0,5.864047E0,1.686774E1,3.5129037E0,3.7625213E0,4.55162E0,1.231612E1],"tree_param":{"num_deleted":"0","num_feature":"12","num_nodes":"17","size_leaf_vector":"1"}},{"base_weights":[-1.8904557E-2,-8.916795E-1,3.3224136E-1,-6.168452E-2,-4.6705332E-1,-4.0171173E-1,6.067036E-1,-4.9337983E-2,1.0625278E-3,-5.7050433E-2,9.298881E-3,-4.547276E-2,9.601831E-1,2.3583164E-2,-3.9232306E-2,4.7956374E-1,6.2449407E-2,-7.1913386E-3,4.814439E-2],"categories":[],"categories_nodes":[],"categories_segments":[],"categories_sizes":[],"default_left":[0,0,0,0,0,0,0,0,0,0,0,0,0,0,0,0,0,0,0],"id":14,"left_children":[1,3,5,-1,7,9,11,-1,-1,-1,-1,13,15,-1,-1,17,-1,-1,-1],"loss_changes":[1.5173507E1,1.3200264E0,7.341506E0,0E0,2.169815E0,4.680586E0,6.144696E0,0E0,0E0,0E0,0E0,4.2308574E0,1.5948353E0,0E0,0E0,2.6769128E0,0E0,0E0,0E0],"parents":[2147483647,0,0,1,1,2,2,4,4,5,5,6,6,11,11,12,12,15,15],"right_children":[2,4,6,-1,8,10,12,-1,-1,-1,-1,14,16,-1,-1,18,-1,-1,-1],"split_conditions":[7E0,5E0,3E0,-6.168452E-2,4.7E1,1E0,1E0,-4.9337983E-2,1.0625278E-3,-5.7050433E-2,9.298881E-3,1E0,1E0,2.3583164E-2,-3.9232306E-2,3.4E1,6.2449407E-2,-7.1913386E-3,4.814439E-2],"split_indices":[9,6,11,0,0,2,3,0,0,0,0,10,2,0,0,0,0,0,0],"split_type":[0,0,0,0,0,0,0,0,0,0,0,0,0,0,0,0,0,0,0],"sum_hessian":[4.7361153E1,1.3228095E1,3.4133057E1,6.141018E0,7.0870776E0,9.064703E0,2.5068356E1,3.0378578E0,4.0492196E0,3.672917E0,5.391786E0,9.018151E0,1.6050205E1,5.4393344E0,3.5788167E0,7.1530743E0,8.89713E0,3.3402922E0,3.812782E0],"tree_param":{"num_deleted":"0","num_feature":"12","num_nodes":"19","size_leaf_vector":"1"}},{"base_weights":[-2.17535E-2,-6.5459347E-1,2.6713485E-1,-4.976312E-2,-5.822843E-3,-1.8334793E-1,6.821356E-1,2.0949027E-1,-5.2687008E-2,-2.059207E-1,6.0479272E-2,3.1550046E-2,-1.2628257E-2,4.173881E-3,-2.3341341E-2],"categories":[],"categories_nodes":[],"categories_segments":[],"categories_sizes":[],"default_left":[0,0,0,0,0,0,0,0,0,0,0,0,0,0,0],"id":15,"left_children":[1,3,5,-1,-1,7,9,11,-1,13,-1,-1,-1,-1,-1],"loss_changes":[8.970032E0,2.5979853E0,6.4352484E0,0E0,0E0,6.02534E0,8.666912E0,2.5892503E0,0E0,6.36088E-1,0E0,0E0,0E0,0E0,0E0],"parents":[2147483647,0,0,1,1,2,2,5,5,6,6,7,7,9,9],"right_children":[2,4,6,-1,-1,8,10,12,-1,14,-1,-1,-1,-1,-1],"split_conditions":[7E0,4.7E1,1E0,-4.976312E-2,-5.822843E-3,1E0,1E0,1E0,-5.2687008E-2,4E1,6.0479272E-2,3.1550046E-2,-1.2628257E-2,4.173881E-3,-2.3341341E-2],"split_indices":[9,0,2,0,0,7,3,10,0,0,0,0,0,0,0],"split_type":[0,0,0,0,0,0,0,0,0,0,0,0,0,0,0],"sum_hessian":[4.6896385E1,1.4410009E1,3.2486378E1,8.190012E0,6.219997E0,1.5729384E1,1.675699E1,1.1281898E1,4.447487E0,6.400539E0,1.0356452E1,5.821768E0,5.4601297E0,3.1752756E0,3.2252634E0],"tree_param":{"num_deleted":"0","num_feature":"12","num_nodes":"15","size_leaf_vector":"1"}},{"base_weights":[-4.8730527E-3,3.8562122E-1,-6.2134546E-1,7.5459194E-1,-4.4647524E-1,-5.441297E-2,-0E0,2.7387103E-1,1.0200334E0,-4.4525374E-2,6.7596207E-3,-2.711266E-2,3.205083E-2,-7.2863423E-3,2.7158324E-2,6.1041366E-2,2.0581337E-2],"categories":[],"categories_nodes":[],"categories_segments":[],"categories_sizes":[],"default_left":[0,0,0,0,0,0,0,0,0,0,0,0,0,0,0,0,0],"id":16,"left_children":[1,3,5,7,9,-1,11,13,15,-1,-1,-1,-1,-1,-1,-1,-1],"loss_changes":[1.1281578E1,9.1297655E0,5.2981677E0,2.1722565E0,2.6010895E0,0E0,3.4123917E0,1.1015751E0,8.64975E-1,0E0,0E0,0E0,0E0,0E0,0E0,0E0,0E0],"parents":[2147483647,0,0,1,1,2,2,3,3,4,4,6,6,7,7,8,8],"right_children":[2,4,6,8,10,-1,12,14,16,-1,-1,-1,-1,-1,-1,-1,-1],"split_conditions":[1E0,1E0,1E0,1E0,5E0,-5.441297E-2,1E0,1.2E1,6E0,-4.4525374E-2,6.7596207E-3,-2.711266E-2,3.205083E-2,-7.2863423E-3,2.7158324E-2,6.1041366E-2,2.0581337E-2],"split_indices":[7,8,3,4,11,0,2,9,11,0,0,0,0,0,0,0,0],"split_type":[0,0,0,0,0,0,0,0,0,0,0,0,0,0,0,0,0],"sum_hessian":[4.4770996E1,2.7539078E1,1.7231916E1,1.9226795E1,8.312283E0,9.417022E0,7.814894E0,7.6965833E0,1.1530212E1,4.510234E0,3.802049E0,4.310207E0,3.5046873E0,3.042885E0,4.6536984E0,7.788721E0,3.7414913E0],"tree_param":{"num_deleted":"0","num_feature":"12","num_nodes":"17","size_leaf_vector":"1"}},{"base_weights":[-9.44744E-2,-8.685712E-1,4.346709E-1,-5.2093786E-1,-6.330382E-2,-2.6926745E-2,5.9963024E-1,-4.083437E-2,2.89937E-3,8.320384E-1,2.7377236E-1,5.7352144E-2,5.8264476E-1,-3.6261932E-3,2.9759178E-2,1.9587537E-3,5.1155698E-2],"categories":[],"categories_nodes":[],"categories_segments":[],"categories_sizes":[],"default_left":[0,0,0,0,0,0,0,0,0,0,0,0,0,0,0,0,0],"id":17,"left_children":[1,3,5,7,-1,-1,9,-1,-1,11,13,-1,15,-1,-1,-1,-1],"loss_changes":[1.9404905E1,1.8187895E0,4.8431606E0,2.1933703E0,0E0,0E0,1.5249567E0,0E0,0E0,2.3434639E-1,1.4213161E0,0E0,2.2119057E0,0E0,0E0,0E0,0E0],"parents":[2147483647,0,0,1,1,2,2,3,3,6,6,9,9,10,10,12,12],"right_children":[2,4,6,8,-1,-1,10,-1,-1,12,14,-1,16,-1,-1,-1,-1],"split_conditions":[1E0,1E0,2E0,1E0,-6.330382E-2,-2.6926745E-2,1E0,-4.083437E-2,2.89937E-3,3.3E1,1E0,5.7352144E-2,4.8E1,-3.6261932E-3,2.9759178E-2,1.9587537E-3,5.1155698E-2],"split_indices":[5,8,11,2,0,0,10,0,0,0,2,0,0,0,0,0,0],"split_type":[0,0,0,0,0,0,0,0,0,0,0,0,0,0,0,0,0],"sum_hessian":[4.5346497E1,1.8227972E1,2.7118525E1,1.1090764E1,7.137207E0,3.5143209E0,2.3604204E1,7.1831975E0,3.907567E0,1.2691861E1,1.0912343E1,3.8405862E0,8.851275E0,5.475806E0,5.4365373E0,4.55146E0,4.299815E0],"tree_param":{"num_deleted":"0","num_feature":"12","num_nodes":"17","size_leaf_vector":"1"}},{"base_weights":[-1.949941E-2,-6.1977154E-1,3.5844088E-1,-1.9539088E-1,-6.102271E-2,-5.362549E-1,8.036831E-1,2.3488355E-1,-5.4166116E-2,-5.505846E-2,-0E0,4.712256E-1,5.2877337E-2,-2.6339436E-2,3.598733E-2,-1.5317525E-3,3.813101E-2],"categories":[],"categories_nodes":[],"categories_segments":[],"categories_sizes":[],"default_left":[0,0,0,0,0,0,0,0,0,0,0,0,0,0,0,0,0],"id":18,"left_children":[1,3,5,7,-1,9,11,13,-1,-1,-1,15,-1,-1,-1,-1,-1],"loss_changes":[1.1031363E1,4.4206705E0,1.2288101E1,5.0476866E0,0E0,3.220208E0,1.0624657E0,3.739643E0,0E0,0E0,0E0,1.6709297E0,0E0,0E0,0E0,0E0,0E0],"parents":[2147483647,0,0,1,1,2,2,3,3,5,5,6,6,7,7,11,11],"right_children":[2,4,6,8,-1,10,12,14,-1,-1,-1,16,-1,-1,-1,-1,-1],"split_conditions":[1E0,1E0,8E0,1.2E1,-6.102271E-2,5E0,1.3E1,7E0,-5.4166116E-2,-5.505846E-2,-0E0,1E0,5.2877337E-2,-2.6339436E-2,3.598733E-2,-1.5317525E-3,3.813101E-2],"split_indices":[5,8,9,9,0,6,9,9,0,0,0,2,0,0,0,0,0],"split_type":[0,0,0,0,0,0,0,0,0,0,0,0,0,0,0,0,0],"sum_hessian":[4.6530388E1,1.7832403E1,2.8697985E1,1.1323875E1,6.5085273E0,9.393376E0,1.930461E1,8.047205E0,3.2766702E0,4.120534E0,5.272842E0,9.765684E0,9.538925E0,3.0162535E0,5.0309515E0,3.7899873E0,5.975697E0],"tree_param":{"num_deleted":"0","num_feature":"12","num_nodes":"17","size_leaf_vector":"1"}},{"base_weights":[-1.4239966E-2,-6.923059E-1,4.1473597E-1,-2.4726366E-1,-6.0091686E-2,-3.645804E-1,7.651035E-1,1.6506787E-1,-5.2376833E-2,-6.035578E-2,1.8672226E-2,3.8902897E-1,1.0566002E0,2.5298098E-2,-1.4384626E-2,-6.5014698E-3,4.433479E-2,6.1222948E-2,2.398304E-2],"categories":[],"categories_nodes":[],"categories_segments":[],"categories_sizes":[],"default_left":[0,0,0,0,0,0,0,0,0,0,0,0,0,0,0,0,0,0,0],"id":19,"left_children":[1,3,5,7,-1,9,11,13,-1,-1,-1,15,17,-1,-1,-1,-1,-1,-1],"loss_changes":[1.3992647E1,3.7952423E0,8.329307E0,4.0024796E0,0E0,6.5579233E0,1.7080584E0,1.4428997E0,0E0,0E0,0E0,2.9676552E0,2.9788303E-1,0E0,0E0,0E0,0E0,0E0,0E0],"parents":[2147483647,0,0,1,1,2,2,3,3,5,5,6,6,7,7,11,11,12,12],"right_children":[2,4,6,8,-1,10,12,14,-1,-1,-1,16,18,-1,-1,-1,-1,-1,-1],"split_conditions":[1E0,1E0,8E0,1E0,-6.0091686E-2,1E0,1.3E1,1.1E1,-5.2376833E-2,-6.035578E-2,1.8672226E-2,1E0,1.9E1,2.5298098E-2,-1.4384626E-2,-6.5014698E-3,4.433479E-2,6.1222948E-2,2.398304E-2],"split_indices":[5,7,9,8,0,4,9,9,0,0,0,4,9,0,0,0,0,0,0],"split_type":[0,0,0,0,0,0,0,0,0,0,0,0,0,0,0,0,0,0,0],"sum_hessian":[4.6022995E1,1.7686258E1,2.8336737E1,1.033809E1,7.3481674E0,8.687439E0,1.9649298E1,7.264116E0,3.0739744E0,3.8229837E0,4.864455E0,9.749118E0,9.900181E0,4.2029653E0,3.0611503E0,5.035235E0,4.7138834E0,6.665275E0,3.2349052E0],"tree_param":{"num_deleted":"0","num_feature":"12","num_nodes":"19","size_leaf_vector":"1"}},{"base_weights":[-5.432837E-2,-4.869846E-1,3.9132717E-1,-6.359842E-2,-1.3104431E-1,-3.6987223E-2,6.498182E-1,-8.534785E-1,4.801886E-1,3.9637472E-2,5.8023166E-2,-5.870969E-2,-1.6583873E-2,-1.3200316E-2,4.5710456E-2,2.5037542E-2,-3.677609E-2],"categories":[],"categories_nodes":[],"categories_segments":[],"categories_sizes":[],"default_left":[0,0,0,0,0,0,0,0,0,0,0,0,0,0,0,0,0],"id":20,"left_children":[1,3,5,-1,7,-1,9,11,13,15,-1,-1,-1,-1,-1,-1,-1],"loss_changes":[9.262304E0,6.512444E0,7.36945E0,0E0,8.393295E0,0E0,6.00587E0,9.129381E-1,3.637324E0,3.9724689E0,0E0,0E0,0E0,0E0,0E0,0E0,0E0],"parents":[2147483647,0,0,1,1,2,2,4,4,6,6,7,7,8,8,9,9],"right_children":[2,4,6,-1,8,-1,10,12,14,16,-1,-1,-1,-1,-1,-1,-1],"split_conditions":[1E0,8E0,2.8E1,-6.359842E-2,1E0,-3.6987223E-2,1E0,4.2E1,1E0,1E0,5.8023166E-2,-5.870969E-2,-1.6583873E-2,-1.3200316E-2,4.5710456E-2,2.5037542E-2,-3.677609E-2],"split_indices":[4,9,0,0,2,0,5,0,3,7,0,0,0,0,0,0,0],"split_type":[0,0,0,0,0,0,0,0,0,0,0,0,0,0,0,0,0],"sum_hessian":[4.599913E1,2.3406767E1,2.2592365E1,6.4118056E0,1.699496E1,3.7844067E0,1.8807959E1,7.6823025E0,9.312658E0,9.1490345E0,9.658924E0,3.8648996E0,3.8174028E0,3.4899383E0,5.82272E0,6.0394177E0,3.1096165E0],"tree_param":{"num_deleted":"0","num_feature":"12","num_nodes":"17","size_leaf_vector":"1"}},{"base_weights":[-1.6238376E-2,-6.636588E-1,3.9959896E-1,-2.8383577E-1,-5.8405586E-2,-1.7950621E-1,6.6096777E-1,5.7500068E-2,-3.8752824E-2,-5.1067527E-2,2.4980266E-2,8.6742795E-1,4.568351E-3,1.209468E-2,-6.2017026E-3,2.4902446E-2,5.0777484E-2],"categories":[],"categories_nodes":[],"categories_segments":[],"categories_sizes":[],"default_left":[0,0,0,0,0,0,0,0,0,0,0,0,0,0,0,0,0],"id":21,"left_children":[1,3,5,7,-1,9,11,13,-1,-1,-1,15,-1,-1,-1,-1,-1],"loss_changes":[1.2381468E1,2.9783854E0,4.385795E0,2.0816345E0,0E0,5.899681E0,2.122572E0,3.004245E-1,0E0,0E0,0E0,1.1396408E-1,0E0,0E0,0E0,0E0,0E0],"parents":[2147483647,0,0,1,1,2,2,3,3,5,5,6,6,7,7,11,11],"right_children":[2,4,6,8,-1,10,12,14,-1,-1,-1,16,-1,-1,-1,-1,-1],"split_conditions":[1E0,1E0,8E0,1E0,-5.8405586E-2,5E0,1E0,5E0,-3.8752824E-2,-5.1067527E-2,2.4980266E-2,1.3E1,4.568351E-3,1.209468E-2,-6.2017026E-3,2.4902446E-2,5.0777484E-2],"split_indices":[5,8,9,7,0,6,7,11,0,0,0,9,0,0,0,0,0],"split_type":[0,0,0,0,0,0,0,0,0,0,0,0,0,0,0,0,0],"sum_hessian":[4.3906742E1,1.7032785E1,2.6873957E1,1.07212305E1,6.311555E0,8.335626E0,1.8538332E1,6.7265234E0,3.9947069E0,3.5626152E0,4.7730103E0,1.30938425E1,5.4444885E0,3.4453094E0,3.2812138E0,5.18966E0,7.9041824E0],"tree_param":{"num_deleted":"0","num_feature":"12","num_nodes":"17","size_leaf_vector":"1"}},{"base_weights":[-2.9743433E-2,-6.08281E-1,3.6143628E-1,-5.6961298E-2,-7.713064E-2,-4.071239E-1,7.567943E-1,-4.063918E-2,1.9382339E-2,-5.996526E-2,2.1788172E-2,4.440283E-3,9.1605824E-1,5.291903E-2,2.251251E-2],"categories":[],"categories_nodes":[],"categories_segments":[],"categories_sizes":[],"default_left":[0,0,0,0,0,0,0,0,0,0,0,0,0,0,0],"id":22,"left_children":[1,3,5,-1,7,9,11,-1,-1,-1,-1,-1,13,-1,-1],"loss_changes":[1.0652738E1,5.1566668E0,8.839588E0,0E0,4.0089064E0,7.317879E0,1.828845E0,0E0,0E0,0E0,0E0,0E0,3.6920834E-1,0E0,0E0],"parents":[2147483647,0,0,1,1,2,2,4,4,5,5,6,6,12,12],"right_children":[2,4,6,-1,8,10,12,-1,-1,-1,-1,-1,14,-1,-1],"split_conditions":[1E0,1E0,8E0,-5.6961298E-2,1E0,1E0,2.8E1,-4.063918E-2,1.9382339E-2,-5.996526E-2,2.1788172E-2,4.440283E-3,1E0,5.291903E-2,2.251251E-2],"split_indices":[5,3,9,0,4,4,0,0,0,0,0,0,7,0,0],"split_type":[0,0,0,0,0,0,0,0,0,0,0,0,0,0,0],"sum_hessian":[4.4990456E1,1.8028194E1,2.696226E1,8.349163E0,9.679031E0,9.062475E0,1.7899784E1,3.5408876E0,6.138144E0,4.5149345E0,4.5475407E0,3.866848E0,1.4032936E1,9.609916E0,4.4230204E0],"tree_param":{"num_deleted":"0","num_feature":"12","num_nodes":"15","size_leaf_vector":"1"}},{"base_weights":[-5.1632527E-2,-6.225195E-1,3.3807752E-1,-5.378815E-2,-2.3339467E-1,-5.6177847E-2,7.8906626E-1,-3.1297483E-2,1.2919322E-2,2.6347455E-1,-4.767252E-1,-8.028552E-4,1.0438002E0,-2.5710594E-4,2.6192356E-2,1.2521953E-3,-4.477255E-2,1.8546125E-2,6.55246E-2],"categories":[],"categories_nodes":[],"categories_segments":[],"categories_sizes":[],"default_left":[0,0,0,0,0,0,0,0,0,0,0,0,0,0,0,0,0,0,0],"id":23,"left_children":[1,3,5,-1,7,9,11,-1,-1,13,15,-1,17,-1,-1,-1,-1,-1,-1],"loss_changes":[1.0296732E1,2.9331326E0,4.9914374E0,0E0,2.4204078E0,2.2226071E0,2.7796612E0,0E0,0E0,7.03726E-1,1.6136096E0,0E0,1.1335459E0,0E0,0E0,0E0,0E0,0E0,0E0],"parents":[2147483647,0,0,1,1,2,2,4,4,5,5,6,6,9,9,10,10,12,12],"right_children":[2,4,6,-1,8,10,12,-1,-1,14,16,-1,18,-1,-1,-1,-1,-1,-1],"split_conditions":[1E0,1E0,1E0,-5.378815E-2,1E0,1E0,3.1E1,-3.1297483E-2,1.2919322E-2,4.2E1,3.6E1,-8.028552E-4,4E0,-2.5710594E-4,2.6192356E-2,1.2521953E-3,-4.477255E-2,1.8546125E-2,6.55246E-2],"split_indices":[5,3,4,0,2,7,0,0,0,0,0,0,6,0,0,0,0,0,0],"split_type":[0,0,0,0,0,0,0,0,0,0,0,0,0,0,0,0,0,0,0],"sum_hessian":[4.42077E1,1.7796614E1,2.6411085E1,7.2871532E0,1.0509461E1,1.4440697E1,1.1970389E1,5.8056955E0,4.703766E0,8.281642E0,6.1590543E0,3.007897E0,8.962493E0,4.3697352E0,3.911907E0,3.1207526E0,3.0383017E0,3.3290107E0,5.633482E0],"tree_param":{"num_deleted":"0","num_feature":"12","num_nodes":"19","size_leaf_vector":"1"}},{"base_weights":[1.2448355E-2,-5.290225E-1,3.7977135E-1,-5.4335006E-2,-5.3695194E-2,-5.3434055E-3,8.231118E-1,-3.2932412E-2,1.6240899E-2,-4.504922E-2,5.129774E-1,1.0441886E-2,4.9025368E-2,-0E0,4.0361583E-2],"categories":[],"categories_nodes":[],"categories_segments":[],"categories_sizes":[],"default_left":[0,0,0,0,0,0,0,0,0,0,0,0,0,0,0],"id":24,"left_children":[1,3,5,-1,7,9,11,-1,-1,-1,13,-1,-1,-1,-1],"loss_changes":[9.405254E0,4.8755045E0,4.919665E0,0E0,2.864437E0,7.939082E0,9.6095085E-1,0E0,0E0,0E0,1.5673175E0,0E0,0E0,0E0,0E0],"parents":[2147483647,0,0,1,1,2,2,4,4,5,5,6,6,10,10],"right_children":[2,4,6,-1,8,10,12,-1,-1,-1,14,-1,-1,-1,-1],"split_conditions":[1E0,1E0,1E0,-5.4335006E-2,1E0,1.1E1,4E0,-3.2932412E-2,1.6240899E-2,-4.504922E-2,1E0,1.0441886E-2,4.9025368E-2,-0E0,4.0361583E-2],"split_indices":[5,3,4,0,4,9,9,0,0,0,2,0,0,0,0],"split_type":[0,0,0,0,0,0,0,0,0,0,0,0,0,0,0],"sum_hessian":[4.5352528E1,1.8042955E1,2.7309572E1,7.613649E0,1.0429307E1,1.5022459E1,1.2287113E1,3.8308334E0,6.598474E0,5.306926E0,9.715533E0,3.1103604E0,9.176752E0,3.9830124E0,5.732521E0],"tree_param":{"num_deleted":"0","num_feature":"12","num_nodes":"15","size_leaf_vector":"1"}},{"base_weights":[2.2705229E-2,-4.6687433E-1,3.5123515E-1,-1.0070952E-2,-5.6016695E-2,-2.153303E-1,6.4624125E-1,4.018661E-1,-3.5418417E-2,-3.813945E-2,1.8556092E-2,1.9411841E-1,8.767624E-1,3.426827E-2,3.5027526E-3,-1.3919154E-2,3.4681536E-2,1.8045178E-2,5.0244074E-2],"categories":[],"categories_nodes":[],"categories_segments":[],"categories_sizes":[],"default_left":[0,0,0,0,0,0,0,0,0,0,0,0,0,0,0,0,0,0,0],"id":25,"left_children":[1,3,5,7,-1,9,11,13,-1,-1,-1,15,17,-1,-1,-1,-1,-1,-1],"loss_changes":[7.308684E0,5.30069E0,4.7482758E0,3.7084174E0,0E0,3.5289862E0,1.6331968E0,6.2589145E-1,0E0,0E0,0E0,2.0332997E0,2.7466488E-1,0E0,0E0,0E0,0E0,0E0,0E0],"parents":[2147483647,0,0,1,1,2,2,3,3,5,5,6,6,7,7,11,11,12,12],"right_children":[2,4,6,8,-1,10,12,14,-1,-1,-1,16,18,-1,-1,-1,-1,-1,-1],"split_conditions":[1E0,1E0,8E0,1E0,-5.6016695E-2,4.7E1,1E0,1E0,-3.5418417E-2,-3.813945E-2,1.8556092E-2,5E0,3E1,3.426827E-2,3.5027526E-3,-1.3919154E-2,3.4681536E-2,1.8045178E-2,5.0244074E-2],"split_indices":[5,8,9,7,0,0,3,10,0,0,0,6,0,0,0,0,0,0,0],"split_type":[0,0,0,0,0,0,0,0,0,0,0,0,0,0,0,0,0,0,0],"sum_hessian":[4.349265E1,1.7174097E1,2.631855E1,1.0795738E1,6.3783584E0,8.988004E0,1.7330545E1,6.967057E0,3.8286812E0,4.581222E0,4.406782E0,6.6208696E0,1.0709677E1,3.0199265E0,3.9471307E0,3.5270436E0,3.093826E0,3.0453477E0,7.664329E0],"tree_param":{"num_deleted":"0","num_feature":"12","num_nodes":"19","size_leaf_vector":"1"}},{"base_weights":[3.9773557E-2,-5.408106E-1,4.0761995E-1,-1.4993893E-1,-5.6471076E-2,-3.6306077E-1,7.876066E-1,3.392044E-1,-5.5856448E-2,-5.537793E-2,1.6720137E-2,-0E0,4.8904553E-2,-1.4909501E-3,3.806351E-2],"categories":[],"categories_nodes":[],"categories_segments":[],"categories_sizes":[],"default_left":[0,0,0,0,0,0,0,0,0,0,0,0,0,0,0],"id":26,"left_children":[1,3,5,7,-1,9,11,13,-1,-1,-1,-1,-1,-1,-1],"loss_changes":[9.272308E0,3.564979E0,8.135614E0,5.823182E0,0E0,5.329458E0,2.7094793E0,1.3779676E0,0E0,0E0,0E0,0E0,0E0,0E0,0E0],"parents":[2147483647,0,0,1,1,2,2,3,3,5,5,6,6,7,7],"right_children":[2,4,6,8,-1,10,12,14,-1,-1,-1,-1,-1,-1,-1],"split_conditions":[1E0,1E0,8E0,1.3E1,-5.6471076E-2,1E0,2.8E1,9E0,-5.5856448E-2,-5.537793E-2,1.6720137E-2,-0E0,4.8904553E-2,-1.4909501E-3,3.806351E-2],"split_indices":[5,7,9,9,0,4,0,9,0,0,0,0,0,0,0],"split_type":[0,0,0,0,0,0,0,0,0,0,0,0,0,0,0],"sum_hessian":[4.1446793E1,1.5787228E1,2.5659565E1,1.0343302E1,5.443926E0,8.401401E0,1.7258163E1,7.2318087E0,3.111493E0,3.8486297E0,4.5527716E0,3.5868824E0,1.3671282E1,4.227773E0,3.0040352E0],"tree_param":{"num_deleted":"0","num_feature":"12","num_nodes":"15","size_leaf_vector":"1"}},{"base_weights":[2.9964473E-3,-4.2265472E-1,3.9294696E-1,-9.5046645E-1,-7.086187E-2,-2.5615662E-2,6.8420935E-1,-5.974071E-2,-2.339308E-2,3.159798E-1,-3.1681973E-2,4.4454325E-2,2.386284E-3,3.377503E-2,-1.2237363E-2],"categories":[],"categories_nodes":[],"categories_segments":[],"categories_sizes":[],"default_left":[0,0,0,0,0,0,0,0,0,0,0,0,0,0,0],"id":27,"left_children":[1,3,5,7,9,-1,11,-1,-1,13,-1,-1,-1,-1,-1],"loss_changes":[7.6014414E0,3.8756192E0,6.7032843E0,2.79274E-1,3.3379145E0,0E0,2.3012314E0,0E0,0E0,2.0261393E0,0E0,0E0,0E0,0E0,0E0],"parents":[2147483647,0,0,1,1,2,2,3,3,4,4,6,6,9,9],"right_children":[2,4,6,8,10,-1,12,-1,-1,14,-1,-1,-1,-1,-1],"split_conditions":[1E0,4E0,3E0,3E0,1E0,-2.5615662E-2,4E0,-5.974071E-2,-2.339308E-2,3E0,-3.1681973E-2,4.4454325E-2,2.386284E-3,3.377503E-2,-1.2237363E-2],"split_indices":[3,6,11,1,7,0,1,0,0,1,0,0,0,0,0],"split_type":[0,0,0,0,0,0,0,0,0,0,0,0,0,0,0],"sum_hessian":[4.3813847E1,2.0785303E1,2.3028543E1,7.518659E0,1.3266644E1,5.3373823E0,1.7691162E1,3.8741612E0,3.6444979E0,8.016863E0,5.2497807E0,1.2964156E1,4.727006E0,4.868795E0,3.1480677E0],"tree_param":{"num_deleted":"0","num_feature":"12","num_nodes":"15","size_leaf_vector":"1"}},{"base_weights":[-1.2762408E-1,-6.6070354E-1,2.3840918E-1,-5.2647073E-2,-1.2174376E-1,-1.0411883E-1,7.114638E-1,-3.7608873E-2,2.0658731E-2,-4.434036E-1,1.902656E-2,1.5102664E-2,4.3630447E-2,-3.923197E-2,-4.134768E-3],"categories":[],"categories_nodes":[],"categories_segments":[],"categories_sizes":[],"default_left":[0,0,0,0,0,0,0,0,0,0,0,0,0,0,0],"id":28,"left_children":[1,3,5,-1,7,9,11,-1,-1,13,-1,-1,-1,-1,-1],"loss_changes":[8.410919E0,3.4555488E0,4.278618E0,0E0,3.249193E0,2.7373886E0,3.4406328E-1,0E0,0E0,1.048391E0,0E0,0E0,0E0,0E0,0E0],"parents":[2147483647,0,0,1,1,2,2,4,4,5,5,6,6,9,9],"right_children":[2,4,6,-1,8,10,12,-1,-1,14,-1,-1,-1,-1,-1],"split_conditions":[1E0,1E0,1.3E1,-5.2647073E-2,4E0,4.8E1,1E0,-3.7608873E-2,2.0658731E-2,1E0,1.902656E-2,1.5102664E-2,4.3630447E-2,-3.923197E-2,-4.134768E-3],"split_indices":[5,2,9,0,11,0,3,0,0,3,0,0,0,0,0],"split_type":[0,0,0,0,0,0,0,0,0,0,0,0,0,0,0],"sum_hessian":[4.1081642E1,1.6508028E1,2.4573614E1,8.89519E0,7.612837E0,1.4582946E1,9.990669E0,3.3938134E0,4.2190237E0,8.749323E0,5.833623E0,3.8088238E0,6.181845E0,3.7496178E0,4.9997053E0],"tree_param":{"num_deleted":"0","num_feature":"12","num_nodes":"15","size_leaf_vector":"1"}},{"base_weights":[-3.2184675E-2,-5.790859E-1,3.4318215E-1,-1.8195513E-1,-6.0201384E-2,-2.6825264E-1,6.6994506E-1,-4.848742E-2,2.2721741E-2,-5.561148E-2,2.6288582E-2,4.317818E-2,3.2117426E-1,2.4854062E-2,1.3661155E-3],"categories":[],"categories_nodes":[],"categories_segments":[],"categories_sizes":[],"default_left":[0,0,0,0,0,0,0,0,0,0,0,0,0,0,0],"id":29,"left_children":[1,3,5,7,-1,9,11,-1,-1,-1,-1,-1,13,-1,-1],"loss_changes":[9.213846E0,4.18584E0,5.512903E0,6.743801E0,0E0,7.2338696E0,7.965832E-1,0E0,0E0,0E0,0E0,0E0,3.5163385E-1,0E0,0E0],"parents":[2147483647,0,0,1,1,2,2,3,3,5,5,6,6,12,12],"right_children":[2,4,6,8,-1,10,12,-1,-1,-1,-1,-1,14,-1,-1],"split_conditions":[1E0,1.2E1,8E0,7E0,-6.0201384E-2,1E0,5E0,-4.848742E-2,2.2721741E-2,-5.561148E-2,2.6288582E-2,4.317818E-2,1E0,2.4854062E-2,1.3661155E-3],"split_indices":[5,9,9,9,0,4,6,0,0,0,0,0,10,0,0],"split_type":[0,0,0,0,0,0,0,0,0,0,0,0,0,0,0],"sum_hessian":[4.2799442E1,1.7307085E1,2.5492355E1,1.1469654E1,5.837432E0,8.834456E0,1.66579E1,4.96131E0,6.508344E0,4.1493053E0,4.685151E0,9.577984E0,7.0799155E0,3.783255E0,3.2966604E0],"tree_param":{"num_deleted":"0","num_feature":"12","num_nodes":"15","size_leaf_vector":"1"}},{"base_weights":[5.816784E-2,-5.2472692E-2,1.8705554E-1,-1.8227828E-1,5.626901E-1,-5.4104686E-2,1.3957766E-1,-8.427739E-3,7.976106E-1,-2.7559299E-2,4.691127E-1,4.9373284E-2,4.671828E-3,4.0980604E-2,-2.9997814E-3],"categories":[],"categories_nodes":[],"categories_segments":[],"categories_sizes":[],"default_left":[0,0,0,0,0,0,0,0,0,0,0,0,0,0,0],"id":30,"left_children":[1,-1,3,5,7,-1,9,-1,11,-1,13,-1,-1,-1,-1],"loss_changes":[6.176795E0,0E0,5.550745E0,6.119803E0,3.58359E0,0E0,3.8342E0,0E0,1.8313694E0,0E0,2.220245E0,0E0,0E0,0E0,0E0],"parents":[2147483647,0,0,2,2,3,3,4,4,6,6,8,8,10,10],"right_children":[2,-1,4,6,8,-1,10,-1,12,-1,14,-1,-1,-1,-1],"split_conditions":[2.6E1,-5.2472692E-2,1E0,8E0,4E0,-5.4104686E-2,1E0,-8.427739E-3,1.3E1,-2.7559299E-2,1E0,4.9373284E-2,4.671828E-3,4.0980604E-2,-2.9997814E-3],"split_indices":[0,0,4,9,9,0,5,0,9,0,7,0,0,0,0],"split_type":[0,0,0,0,0,0,0,0,0,0,0,0,0,0,0],"sum_hessian":[4.149635E1,3.5000167E0,3.7996334E1,1.9284163E1,1.8712172E1,4.540079E0,1.4744084E1,4.515002E0,1.4197169E1,4.446778E0,1.0297307E1,1.0753549E1,3.4436202E0,5.977536E0,4.3197703E0],"tree_param":{"num_deleted":"0","num_feature":"12","num_nodes":"15","size_leaf_vector":"1"}},{"base_weights":[-9.7433746E-2,-4.9566934E-1,3.2426786E-1,-6.0400303E-2,-2.7408126E-1,-2.9633764E-2,5.431658E-1,-3.9623372E-2,2.7816026E-2,6.223068E-2,8.658722E-1,-1.4875069E-2,1.7810643E-2,-8.131908E-3,1.8022854E-2,5.7080843E-2,2.224433E-2],"categories":[],"categories_nodes":[],"categories_segments":[],"categories_sizes":[],"default_left":[0,0,0,0,0,0,0,0,0,0,0,0,0,0,0,0,0],"id":31,"left_children":[1,3,5,-1,7,-1,9,-1,11,13,15,-1,-1,-1,-1,-1,-1],"loss_changes":[7.357669E0,3.0731254E0,4.581663E0,0E0,3.004147E0,0E0,2.6100426E0,0E0,1.4555326E0,6.3732904E-1,5.439806E-1,0E0,0E0,0E0,0E0,0E0,0E0],"parents":[2147483647,0,0,1,1,2,2,4,4,6,6,8,8,9,9,10,10],"right_children":[2,4,6,-1,8,-1,10,-1,12,14,16,-1,-1,-1,-1,-1,-1],"split_conditions":[1E0,2E0,2.8E1,-6.0400303E-2,1E0,-2.9633764E-2,1E0,-3.9623372E-2,1E0,1E0,5E0,-1.4875069E-2,1.7810643E-2,-8.131908E-3,1.8022854E-2,5.7080843E-2,2.224433E-2],"split_indices":[4,11,0,0,5,0,5,0,3,2,11,0,0,0,0,0,0],"split_type":[0,0,0,0,0,0,0,0,0,0,0,0,0,0,0,0,0],"sum_hessian":[4.175304E1,2.1505741E1,2.02473E1,3.9392865E0,1.7566454E1,3.484919E0,1.6762379E1,5.9890213E0,1.1577433E1,7.3344445E0,9.427935E0,5.710274E0,5.8671584E0,4.2495384E0,3.0849063E0,4.5188127E0,4.9091225E0],"tree_param":{"num_deleted":"0","num_feature":"12","num_nodes":"17","size_leaf_vector":"1"}},{"base_weights":[-2.6083034E-2,-4.2788827E-1,2.9296252E-1,-7.0028013E-1,1.1481403E-2,-2.621283E-2,6.503701E-1,-4.003874E-1,-5.0139543E-2,2.0895751E-1,5.4817792E-2,-3.658251E-2,-2.735974E-3,3.655942E-2,-3.5101052E-2],"categories":[],"categories_nodes":[],"categories_segments":[],"categories_sizes":[],"default_left":[0,0,0,0,0,0,0,0,0,0,0,0,0,0,0],"id":32,"left_children":[1,3,5,7,-1,-1,9,11,-1,13,-1,-1,-1,-1,-1],"loss_changes":[5.4494443E0,3.589353E0,7.230894E0,7.014346E-1,0E0,0E0,2.9699388E0,8.7897384E-1,0E0,5.2014465E0,0E0,0E0,0E0,0E0,0E0],"parents":[2147483647,0,0,1,1,2,2,3,3,6,6,7,7,9,9],"right_children":[2,4,6,8,-1,-1,10,12,-1,14,-1,-1,-1,-1,-1],"split_conditions":[1E0,5.2E1,3E0,3.6E1,1.1481403E-2,-2.621283E-2,1E0,2.8E1,-5.0139543E-2,3E0,5.4817792E-2,-3.658251E-2,-2.735974E-3,3.655942E-2,-3.5101052E-2],"split_indices":[3,0,11,0,0,0,2,0,0,1,0,0,0,0,0],"split_type":[0,0,0,0,0,0,0,0,0,0,0,0,0,0,0],"sum_hessian":[4.0426197E1,1.78802E1,2.2545998E1,1.2704221E1,5.175978E0,6.6329684E0,1.591303E1,7.7125397E0,4.991681E0,8.848255E0,7.064774E0,3.220411E0,4.492129E0,5.81936E0,3.0288959E0],"tree_param":{"num_deleted":"0","num_feature":"12","num_nodes":"15","size_leaf_vector":"1"}},{"base_weights":[-1.2543472E-2,-5.101339E-1,3.0274236E-1,-1.9996503E-1,-5.5306535E-2,-3.0792098E-2,7.257486E-1,2.2790216E-1,-4.8716083E-2,-5.0127972E-2,2.9589492E-1,1.3707583E-2,5.0280698E-2,-1.0272297E-2,3.1327493E-2,-1.1710599E-2,6.273043E-1,4.0921528E-2,1.5556204E-2],"categories":[],"categories_nodes":[],"categories_segments":[],"categories_sizes":[],"default_left":[0,0,0,0,0,0,0,0,0,0,0,0,0,0,0,0,0,0,0],"id":33,"left_children":[1,3,5,7,-1,9,11,13,-1,-1,15,-1,-1,-1,-1,-1,17,-1,-1],"loss_changes":[6.6363482E0,2.6927476E0,3.7199123E0,4.3266325E0,0E0,5.194436E0,1.0510187E0,1.6498814E0,0E0,0E0,2.307555E0,0E0,0E0,0E0,0E0,0E0,1.04840994E-1,0E0,0E0],"parents":[2147483647,0,0,1,1,2,2,3,3,5,5,6,6,7,7,10,10,16,16],"right_children":[2,4,6,8,-1,10,12,14,-1,-1,16,-1,-1,-1,-1,-1,18,-1,-1],"split_conditions":[1E0,1.3E1,1E0,1E0,-5.5306535E-2,8E0,5E0,8E0,-4.8716083E-2,-5.0127972E-2,1E0,1.3707583E-2,5.0280698E-2,-1.0272297E-2,3.1327493E-2,-1.1710599E-2,3E0,4.0921528E-2,1.5556204E-2],"split_indices":[5,9,4,8,0,9,6,9,0,0,2,0,0,0,0,0,6,0,0],"split_type":[0,0,0,0,0,0,0,0,0,0,0,0,0,0,0,0,0,0,0],"sum_hessian":[4.018458E1,1.5469489E1,2.4715094E1,1.116322E1,4.3062687E0,1.4205255E1,1.0509839E1,7.5616274E0,3.6015933E0,3.130491E0,1.1074764E1,4.915299E0,5.5945396E0,3.7351475E0,3.8264797E0,4.257004E0,6.81776E0,3.0620358E0,3.7557244E0],"tree_param":{"num_deleted":"0","num_feature":"12","num_nodes":"19","size_leaf_vector":"1"}},{"base_weights":[-1.6174922E-2,-7.3711544E-1,2.649447E-1,-5.0765913E-2,-4.467982E-1,-3.4483533E-2,4.1117743E-1,-3.3516467E-2,-5.818996E-3,2.8724758E-2,8.4807366E-1,-2.9161999E-2,2.954045E-1,5.2241504E-2,1.2320175E-2,-1.24019E-2,3.4232806E-2],"categories":[],"categories_nodes":[],"categories_segments":[],"categories_sizes":[],"default_left":[0,0,0,0,0,0,0,0,0,0,0,0,0,0,0,0,0],"id":34,"left_children":[1,3,5,-1,7,-1,9,-1,-1,11,13,-1,15,-1,-1,-1,-1],"loss_changes":[8.508192E0,3.53662E-1,4.440546E0,0E0,4.149009E-1,0E0,4.351528E0,0E0,0E0,2.656967E0,1.0709496E0,0E0,2.6470685E0,0E0,0E0,0E0,0E0],"parents":[2147483647,0,0,1,1,2,2,4,4,6,6,9,9,10,10,12,12],"right_children":[2,4,6,-1,8,-1,10,-1,-1,12,14,-1,16,-1,-1,-1,-1],"split_conditions":[6E0,1E0,2.6E1,-5.0765913E-2,4.4E1,-3.4483533E-2,1E0,-3.3516467E-2,-5.818996E-3,1E0,1.3E1,-2.9161999E-2,1.3E1,5.2241504E-2,1.2320175E-2,-1.24019E-2,3.4232806E-2],"split_indices":[9,4,0,0,0,0,4,0,0,5,9,0,9,0,0,0,0],"split_type":[0,0,0,0,0,0,0,0,0,0,0,0,0,0,0,0,0],"sum_hessian":[3.978383E1,1.0805757E1,2.8978071E1,4.066869E0,6.7388883E0,3.2648506E0,2.571322E1,3.2254586E0,3.5134296E0,1.4401228E1,1.1311993E1,3.8968613E0,1.0504367E1,7.844088E0,3.467904E0,4.428092E0,6.076275E0],"tree_param":{"num_deleted":"0","num_feature":"12","num_nodes":"17","size_leaf_vector":"1"}},{"base_weights":[-2.6942901E-2,-4.504977E-2,1.0951269E-1,-3.1975588E-1,4.722959E-1,-4.7095165E-2,8.5499406E-2,-1.5546201E-2,4.505516E-2,3.9592993E-2,-3.2402165E-2,-2.6733145E-2,1.5900034E-2],"categories":[],"categories_nodes":[],"categories_segments":[],"categories_sizes":[],"default_left":[0,0,0,0,0,0,0,0,0,0,0,0,0],"id":35,"left_children":[1,-1,3,5,7,-1,9,11,-1,-1,-1,-1,-1],"loss_changes":[4.907919E0,0E0,5.63186E0,4.3376775E0,4.192458E0,0E0,6.143423E0,1.9266348E0,0E0,0E0,0E0,0E0,0E0],"parents":[2147483647,0,0,2,2,3,3,4,4,6,6,7,7],"right_children":[2,-1,4,6,8,-1,10,12,-1,-1,-1,-1,-1],"split_conditions":[2E0,-4.504977E-2,1E0,1E0,1E0,-4.7095165E-2,1E0,3.4E1,4.505516E-2,3.9592993E-2,-3.2402165E-2,-2.6733145E-2,1.5900034E-2],"split_indices":[11,0,3,5,2,0,10,0,0,0,0,0,0],"split_type":[0,0,0,0,0,0,0,0,0,0,0,0,0],"sum_hessian":[3.8658978E1,4.5627475E0,3.409623E1,1.5545154E1,1.8551075E1,5.706728E0,9.838426E0,9.019912E0,9.531163E0,5.041025E0,4.7974005E0,3.4098413E0,5.6100707E0],"tree_param":{"num_deleted":"0","num_feature":"12","num_nodes":"13","size_leaf_vector":"1"}},{"base_weights":[9.098325E-2,3.5913163E-1,-3.9076802E-1,-1.8122709E-1,6.058326E-1,-4.8595652E-2,2.10209E-1,8.978178E-3,-2.7760893E-2,7.6822835E-1,-6.2458157E-3,3.569572E-2,-1.8195402E-2,2.7836307E-3,5.523486E-2],"categories":[],"categories_nodes":[],"categories_segments":[],"categories_sizes":[],"default_left":[0,0,0,0,0,0,0,0,0,0,0,0,0,0,0],"id":36,"left_children":[1,3,5,7,9,-1,11,-1,-1,13,-1,-1,-1,-1,-1],"loss_changes":[5.2899017E0,3.6554496E0,5.3825884E0,1.3354332E0,2.3437572E0,0E0,2.584957E0,0E0,0E0,3.492054E0,0E0,0E0,0E0,0E0,0E0],"parents":[2147483647,0,0,1,1,2,2,3,3,4,4,6,6,9,9],"right_children":[2,4,6,8,10,-1,12,-1,-1,14,-1,-1,-1,-1,-1],"split_conditions":[1E0,3.5E1,1E0,1E0,5.6E1,-4.8595652E-2,4E1,8.978178E-3,-2.7760893E-2,1E0,-6.2458157E-3,3.569572E-2,-1.8195402E-2,2.7836307E-3,5.523486E-2],"split_indices":[7,0,2,10,0,0,0,0,0,3,0,0,0,0,0],"split_type":[0,0,0,0,0,0,0,0,0,0,0,0,0,0,0],"sum_hessian":[3.8887722E1,2.5279156E1,1.3608568E1,7.8797913E0,1.7399364E1,6.689242E0,6.919326E0,4.139185E0,3.740606E0,1.4305731E1,3.0936337E0,3.6487508E0,3.2705753E0,5.0576267E0,9.248104E0],"tree_param":{"num_deleted":"0","num_feature":"12","num_nodes":"15","size_leaf_vector":"1"}},{"base_weights":[-9.657688E-3,-4.655854E-2,1.19601265E-1,-3.856514E-2,2.686719E-1,-2.0952493E-1,6.0351133E-1,-6.199077E-1,2.7506335E-2,7.595304E-1,-2.7467662E-3,-7.2414386E-3,-5.021959E-2,1.1773248E-2,4.7291752E-2],"categories":[],"categories_nodes":[],"categories_segments":[],"categories_sizes":[],"default_left":[0,0,0,0,0,0,0,0,0,0,0,0,0,0,0],"id":37,"left_children":[1,-1,3,-1,5,7,9,11,-1,13,-1,-1,-1,-1,-1],"loss_changes":[4.770783E0,0E0,4.738675E0,0E0,5.0321236E0,4.443037E0,1.9876142E0,1.3989148E0,0E0,1.1187162E0,0E0,0E0,0E0,0E0,0E0],"parents":[2147483647,0,0,2,2,4,4,5,5,6,6,7,7,9,9],"right_children":[2,-1,4,-1,6,8,10,12,-1,14,-1,-1,-1,-1,-1],"split_conditions":[2E0,-4.655854E-2,2.6E1,-3.856514E-2,1E0,5.2E1,6E0,3.6E1,2.7506335E-2,3.5E1,-2.7467662E-3,-7.2414386E-3,-5.021959E-2,1.1773248E-2,4.7291752E-2],"split_indices":[11,0,0,0,3,0,11,0,0,0,0,0,0,0,0],"split_type":[0,0,0,0,0,0,0,0,0,0,0,0,0,0,0],"sum_hessian":[3.743598E1,3.9371276E0,3.349885E1,4.1072764E0,2.9391577E1,1.2135712E1,1.7255865E1,8.0840845E0,4.051627E0,1.3949E1,3.3068647E0,4.348157E0,3.735928E0,4.392825E0,9.556175E0],"tree_param":{"num_deleted":"0","num_feature":"12","num_nodes":"15","size_leaf_vector":"1"}},{"base_weights":[-0E0,-5.2274907E-1,3.201319E-1,-5.0931323E-2,-6.974489E-2,-3.0916953E-1,6.4339316E-1,-1.593459E-2,1.28818555E-2,-4.893075E-2,1.092249E-2,9.0000886E-1,3.945516E-3,5.579522E-2,2.249255E-2],"categories":[],"categories_nodes":[],"categories_segments":[],"categories_sizes":[],"default_left":[0,0,0,0,0,0,0,0,0,0,0,0,0,0,0],"id":38,"left_children":[1,3,5,-1,7,9,11,-1,-1,-1,-1,13,-1,-1,-1],"loss_changes":[6.7175426E0,3.257512E0,5.266177E0,0E0,8.360361E-1,3.4573655E0,2.261334E0,0E0,0E0,0E0,0E0,4.4119072E-1,0E0,0E0,0E0],"parents":[2147483647,0,0,1,1,2,2,4,4,5,5,6,6,11,11],"right_children":[2,4,6,-1,8,10,12,-1,-1,-1,-1,14,-1,-1,-1],"split_conditions":[1E0,1E0,8E0,-5.0931323E-2,1E0,1E0,1E0,-1.593459E-2,1.28818555E-2,-4.893075E-2,1.092249E-2,1E0,3.945516E-3,5.579522E-2,2.249255E-2],"split_indices":[5,4,9,0,2,4,7,0,0,0,0,10,0,0,0],"split_type":[0,0,0,0,0,0,0,0,0,0,0,0,0,0,0],"sum_hessian":[3.8047123E1,1.4302162E1,2.3744963E1,6.126494E0,8.175669E0,7.967894E0,1.5777068E1,4.832756E0,3.3429124E0,3.2187223E0,4.7491717E0,1.0315886E1,5.4611826E0,5.8224025E0,4.493483E0],"tree_param":{"num_deleted":"0","num_feature":"12","num_nodes":"15","size_leaf_vector":"1"}},{"base_weights":[-3.3423282E-2,-5.3270686E-1,2.695165E-1,-1.848921E-1,-5.496682E-2,-9.081425E-2,6.804362E-1,1.2255142E-2,-4.5259308E-2,-6.1514306E-1,2.4500402E-2,6.543159E-3,4.373939E-2,-1.1459987E-2,-4.2285528E-2],"categories":[],"categories_nodes":[],"categories_segments":[],"categories_sizes":[],"default_left":[0,0,0,0,0,0,0,0,0,0,0,0,0,0,0],"id":39,"left_children":[1,3,5,7,-1,9,11,-1,-1,13,-1,-1,-1,-1,-1],"loss_changes":[5.5510063E0,2.4068465E0,3.4791484E0,3.3608553E0,0E0,4.2234216E0,9.4324255E-1,0E0,0E0,3.4654498E-1,0E0,0E0,0E0,0E0,0E0],"parents":[2147483647,0,0,1,1,2,2,3,3,5,5,6,6,9,9],"right_children":[2,4,6,8,-1,10,12,-1,-1,14,-1,-1,-1,-1,-1],"split_conditions":[1E0,1.2E1,1E0,1E0,-5.496682E-2,1.3E1,5E0,1.2255142E-2,-4.5259308E-2,4E0,2.4500402E-2,6.543159E-3,4.373939E-2,-1.1459987E-2,-4.2285528E-2],"split_indices":[5,9,4,8,0,9,9,0,0,6,0,0,0,0,0],"split_type":[0,0,0,0,0,0,0,0,0,0,0,0,0,0,0],"sum_hessian":[3.4576942E1,1.2895367E1,2.1681576E1,8.921722E0,3.973645E0,1.183726E1,9.844316E0,5.9128227E0,3.0088995E0,6.2806106E0,5.55665E0,3.1434274E0,6.700888E0,3.256831E0,3.0237796E0],"tree_param":{"num_deleted":"0","num_feature":"12","num_nodes":"15","size_leaf_vector":"1"}},{"base_weights":[-6.816133E-2,-3.981058E-1,2.8727233E-1,-8.9330965E-1,2.5689635E-2,-2.6664553E-2,4.906445E-1,-5.4736104E-2,-2.0324847E-2,-1.9515302E-2,1.957878E-2,-0E0,8.3618087E-1,5.9039607E-3,-5.7691582E-3,5.3566705E-2,1.3829254E-2],"categories":[],"categories_nodes":[],"categories_segments":[],"categories_sizes":[],"default_left":[0,0,0,0,0,0,0,0,0,0,0,0,0,0,0,0,0],"id":40,"left_children":[1,3,5,7,9,-1,11,-1,-1,-1,-1,13,15,-1,-1,-1,-1],"loss_changes":[4.5165195E0,4.3034086E0,3.338029E0,3.2182503E-1,1.9232804E0,0E0,2.6256955E0,0E0,0E0,0E0,0E0,1.13729075E-1,7.613239E-1,0E0,0E0,0E0,0E0],"parents":[2147483647,0,0,1,1,2,2,3,3,4,4,6,6,11,11,12,12],"right_children":[2,4,6,8,10,-1,12,-1,-1,-1,-1,14,16,-1,-1,-1,-1],"split_conditions":[1E0,1.1E1,3E0,1E0,1E0,-2.6664553E-2,1E0,-5.4736104E-2,-2.0324847E-2,-1.9515302E-2,1.957878E-2,1E1,1.2E1,5.9039607E-3,-5.7691582E-3,5.3566705E-2,1.3829254E-2],"split_indices":[4,9,9,3,2,0,3,0,0,0,0,9,9,0,0,0,0],"split_type":[0,0,0,0,0,0,0,0,0,0,0,0,0,0,0,0,0],"sum_hessian":[3.6443043E1,1.8982824E1,1.746022E1,8.351824E0,1.0631E1,3.0480475E0,1.4412172E1,4.87902E0,3.472803E0,4.8157077E0,5.8152924E0,6.350511E0,8.061661E0,3.0615482E0,3.2889628E0,4.9066224E0,3.1550388E0],"tree_param":{"num_deleted":"0","num_feature":"12","num_nodes":"17","size_leaf_vector":"1"}},{"base_weights":[-7.232494E-2,-5.206267E-1,2.3734114E-1,-1.548534E-1,-4.9461026E-2,-1.1612642E-1,6.3137364E-1,1.4545401E-2,-4.429389E-2,2.6209E-2,-4.459027E-1,3.5883505E-3,4.7696877E-2,-4.596178E-2,1.1438708E-2],"categories":[],"categories_nodes":[],"categories_segments":[],"categories_sizes":[],"default_left":[0,0,0,0,0,0,0,0,0,0,0,0,0,0,0],"id":41,"left_children":[1,3,5,7,-1,9,11,-1,-1,-1,13,-1,-1,-1,-1],"loss_changes":[5.4149637E0,2.4634576E0,3.3251657E0,3.6586502E0,0E0,2.9336548E0,1.8424811E0,0E0,0E0,0E0,3.1877995E0,0E0,0E0,0E0,0E0],"parents":[2147483647,0,0,1,1,2,2,3,3,5,5,6,6,10,10],"right_children":[2,4,6,8,-1,10,12,-1,-1,-1,14,-1,-1,-1,-1],"split_conditions":[1E0,1E0,1E0,1.2E1,-4.9461026E-2,3E0,6E0,1.4545401E-2,-4.429389E-2,2.6209E-2,1.3E1,3.5883505E-3,4.7696877E-2,-4.596178E-2,1.1438708E-2],"split_indices":[5,7,4,9,0,6,9,0,0,0,9,0,0,0,0],"split_type":[0,0,0,0,0,0,0,0,0,0,0,0,0,0,0],"sum_hessian":[3.691185E1,1.4933862E1,2.1977987E1,9.254154E0,5.6797075E0,1.182334E1,1.0154647E1,6.037742E0,3.2164123E0,3.7158213E0,8.107519E0,4.2733836E0,5.8812633E0,4.6388087E0,3.468711E0],"tree_param":{"num_deleted":"0","num_feature":"12","num_nodes":"15","size_leaf_vector":"1"}},{"base_weights":[-4.9469452E-3,-3.504927E-1,2.4208093E-1,-5.314516E-2,1.8009214E-2,-2.0310225E-1,6.862863E-1,1.5849646E-2,-1.8747112E-2,2.754368E-1,-4.3344688E-2,4.185451E-3,4.430644E-2,-1.4320047E-3,2.489119E-2],"categories":[],"categories_nodes":[],"categories_segments":[],"categories_sizes":[],"default_left":[0,0,0,0,0,0,0,0,0,0,0,0,0,0,0],"id":42,"left_children":[1,3,5,-1,7,9,11,-1,-1,13,-1,-1,-1,-1,-1],"loss_changes":[3.3764307E0,4.481423E0,4.703366E0,0E0,1.5030725E0,4.1300807E0,1.2462845E0,0E0,0E0,5.806275E-1,0E0,0E0,0E0,0E0,0E0],"parents":[2147483647,0,0,1,1,2,2,4,4,5,5,6,6,9,9],"right_children":[2,4,6,-1,8,10,12,-1,-1,14,-1,-1,-1,-1,-1],"split_conditions":[1E0,4E0,1E0,-5.314516E-2,1E0,3E0,1E1,1.5849646E-2,-1.8747112E-2,2E0,-4.3344688E-2,4.185451E-3,4.430644E-2,-1.4320047E-3,2.489119E-2],"split_indices":[3,6,2,0,7,1,9,0,0,1,0,0,0,0,0],"split_type":[0,0,0,0,0,0,0,0,0,0,0,0,0,0,0],"sum_hessian":[3.743444E1,1.5599557E1,2.1834885E1,4.7682543E0,1.0831303E1,1.1064091E1,1.0770794E1,6.405419E0,4.4258833E0,6.6816077E0,4.3824835E0,3.1604576E0,7.610336E0,3.00049E0,3.6811175E0],"tree_param":{"num_deleted":"0","num_feature":"12","num_nodes":"15","size_leaf_vector":"1"}},{"base_weights":[-2.456627E-2,-4.3703192E-1,2.69312E-1,-6.443434E-2,-5.016876E-2,-3.143884E-1,6.013727E-1,-3.4454525E-2,2.0436477E-2,-3.7110854E-2,3.5131779E-3,4.3009333E-2,9.215511E-3],"categories":[],"categories_nodes":[],"categories_segments":[],"categories_sizes":[],"default_left":[0,0,0,0,0,0,0,0,0,0,0,0,0],"id":43,"left_children":[1,3,5,7,-1,9,11,-1,-1,-1,-1,-1,-1],"loss_changes":[4.411393E0,3.0366542E0,4.3037605E0,3.367333E0,0E0,1.4673955E0,1.2362509E0,0E0,0E0,0E0,0E0,0E0,0E0],"parents":[2147483647,0,0,1,1,2,2,3,3,5,5,6,6],"right_children":[2,4,6,8,-1,10,12,-1,-1,-1,-1,-1,-1],"split_conditions":[1E0,1.2E1,8E0,7E0,-5.016876E-2,5E0,1E0,-3.4454525E-2,2.0436477E-2,-3.7110854E-2,3.5131779E-3,4.3009333E-2,9.215511E-3],"split_indices":[5,9,9,9,0,6,10,0,0,0,0,0,0],"split_type":[0,0,0,0,0,0,0,0,0,0,0,0,0],"sum_hessian":[3.4283867E1,1.4202897E1,2.008097E1,9.345097E0,4.857801E0,7.191585E0,1.2889386E1,3.9221687E0,5.422928E0,3.0876946E0,4.1038904E0,7.150058E0,5.739329E0],"tree_param":{"num_deleted":"0","num_feature":"12","num_nodes":"13","size_leaf_vector":"1"}},{"base_weights":[-1.1360631E-2,-3.580251E-1,3.8687137E-1,8.569113E-2,-4.3640047E-2,3.1823423E-2,-0E0,-3.0768042E-2,4.8898318E-1,2.9233908E-2,-2.7336417E-2,5.0382065E-3,3.549668E-2],"categories":[],"categories_nodes":[],"categories_segments":[],"categories_sizes":[],"default_left":[0,0,0,0,0,0,0,0,0,0,0,0,0],"id":44,"left_children":[1,3,5,7,-1,-1,9,-1,11,-1,-1,-1,-1],"loss_changes":[4.9515257E0,4.5626607E0,1.6209722E0,3.4473257E0,0E0,0E0,2.7010338E0,0E0,5.1138103E-1,0E0,0E0,0E0,0E0],"parents":[2147483647,0,0,1,1,2,2,3,3,6,6,8,8],"right_children":[2,4,6,8,-1,-1,10,-1,12,-1,-1,-1,-1],"split_conditions":[1E0,3E0,1E0,1E0,-4.3640047E-2,3.1823423E-2,4E1,-3.0768042E-2,5E0,2.9233908E-2,-2.7336417E-2,5.0382065E-3,3.549668E-2],"split_indices":[2,1,8,5,0,0,0,0,6,0,0,0,0],"split_type":[0,0,0,0,0,0,0,0,0,0,0,0,0],"sum_hessian":[3.3884464E1,1.830333E1,1.5581136E1,1.0173476E1,8.129852E0,9.127725E0,6.4534106E0,3.4326382E0,6.740838E0,3.0573463E0,3.3960643E0,3.1372306E0,3.6036077E0],"tree_param":{"num_deleted":"0","num_feature":"12","num_nodes":"13","size_leaf_vector":"1"}},{"base_weights":[-2.5460526E-2,-5.3814626E-1,1.6794382E-1,-4.469959E-2,-5.789993E-3,-2.2378343E-1,4.6305215E-1,9.4886675E-2,-3.460206E-2,7.34974E-1,-0E0,1.5606033E-2,-7.0658373E-3,1.29484935E-2,4.989318E-2],"categories":[],"categories_nodes":[],"categories_segments":[],"categories_sizes":[],"default_left":[0,0,0,0,0,0,0,0,0,0,0,0,0,0,0],"id":45,"left_children":[1,3,5,-1,-1,7,9,11,-1,13,-1,-1,-1,-1,-1],"loss_changes":[3.6272237E0,1.3055274E0,3.1619678E0,0E0,0E0,1.887183E0,2.0040555E0,4.602834E-1,0E0,8.471656E-1,0E0,0E0,0E0,0E0,0E0],"parents":[2147483647,0,0,1,1,2,2,5,5,6,6,7,7,9,9],"right_children":[2,4,6,-1,-1,8,10,12,-1,14,-1,-1,-1,-1,-1],"split_conditions":[6E0,4.4E1,1E0,-4.469959E-2,-5.789993E-3,1E0,1.4E1,3.6E1,-3.460206E-2,1E0,-0E0,1.5606033E-2,-7.0658373E-3,1.29484935E-2,4.989318E-2],"split_indices":[9,0,3,0,0,7,9,0,0,4,0,0,0,0,0],"split_type":[0,0,0,0,0,0,0,0,0,0,0,0,0,0,0],"sum_hessian":[3.4296276E1,9.04744E0,2.5248837E1,4.1757154E0,4.871724E0,1.080676E1,1.4442077E1,6.7779026E0,4.028857E0,8.83938E0,5.6026964E0,3.5838387E0,3.1940637E0,3.986555E0,4.8528256E0],"tree_param":{"num_deleted":"0","num_feature":"12","num_nodes":"15","size_leaf_vector":"1"}},{"base_weights":[-2.2399534E-2,9.0565905E-2,-4.3313015E-2,-4.0180504E-1,2.6772225E-1,-4.75867E-2,2.769524E-3,5.013191E-1,-1.3745452E-1,6.546513E-1,-2.9743742E-3,-3.6992144E-2,1.8454429E-2,5.031518E-2,1.4533442E-2],"categories":[],"categories_nodes":[],"categories_segments":[],"categories_sizes":[],"default_left":[0,0,0,0,0,0,0,0,0,0,0,0,0,0,0],"id":46,"left_children":[1,3,-1,5,7,-1,-1,9,11,13,-1,-1,-1,-1,-1],"loss_changes":[3.7193656E0,3.039615E0,0E0,2.4518008E0,2.5266147E0,0E0,0E0,1.5257797E0,3.356503E0,1.2747836E0,0E0,0E0,0E0,0E0,0E0],"parents":[2147483647,0,0,1,1,3,3,4,4,7,7,8,8,9,9],"right_children":[2,4,-1,6,8,-1,-1,10,12,14,-1,-1,-1,-1,-1],"split_conditions":[5E0,6E0,-4.3313015E-2,5E0,1E0,-4.75867E-2,2.769524E-3,1E0,1E0,1.2E1,-2.9743742E-3,-3.6992144E-2,1.8454429E-2,5.031518E-2,1.4533442E-2],"split_indices":[1,9,0,6,7,0,0,8,3,9,0,0,0,0,0],"split_type":[0,0,0,0,0,0,0,0,0,0,0,0,0,0,0],"sum_hessian":[3.638016E1,3.2767796E1,3.6123655E0,8.185438E0,2.4582357E1,3.3241243E0,4.861314E0,1.5598731E1,8.983626E0,1.2258159E1,3.3405724E0,3.9833786E0,5.0002475E0,5.1973906E0,7.0607677E0],"tree_param":{"num_deleted":"0","num_feature":"12","num_nodes":"15","size_leaf_vector":"1"}},{"base_weights":[-6.298251E-2,-4.1297898E-1,2.8064385E-1,-4.9287423E-2,-1.5517709E-1,-1.4978531E-1,7.1273726E-1,-3.2251637E-2,2.4421695E-1,7.873561E-3,-3.298794E-2,1.0422331E-2,4.782435E-2,3.110849E-2,-5.7708374E-3],"categories":[],"categories_nodes":[],"categories_segments":[],"categories_sizes":[],"default_left":[0,0,0,0,0,0,0,0,0,0,0,0,0,0,0],"id":47,"left_children":[1,3,5,-1,7,9,11,-1,13,-1,-1,-1,-1,-1,-1],"loss_changes":[4.3715105E0,2.394382E0,3.5573611E0,0E0,2.8851378E0,1.6980462E0,8.3923817E-1,0E0,1.2343448E0,0E0,0E0,0E0,0E0,0E0,0E0],"parents":[2147483647,0,0,1,1,2,2,4,4,5,5,6,6,8,8],"right_children":[2,4,6,-1,8,10,12,-1,14,-1,-1,-1,-1,-1,-1],"split_conditions":[1E0,8E0,1E0,-4.9287423E-2,1E0,1E0,3.6E1,-3.2251637E-2,3.6E1,7.873561E-3,-3.298794E-2,1.0422331E-2,4.782435E-2,3.110849E-2,-5.7708374E-3],"split_indices":[4,9,5,0,2,7,0,0,0,0,0,0,0,0,0],"split_type":[0,0,0,0,0,0,0,0,0,0,0,0,0,0,0],"sum_hessian":[3.427436E1,1.702398E1,1.725038E1,4.28725E0,1.2736729E1,8.853199E0,8.397181E0,5.556746E0,7.1799827E0,5.8336077E0,3.0195916E0,3.4744203E0,4.9227605E0,3.2804663E0,3.8995166E0],"tree_param":{"num_deleted":"0","num_feature":"12","num_nodes":"15","size_leaf_vector":"1"}},{"base_weights":[3.5298672E-3,-3.860053E-2,1.5398954E-1,2.759969E-1,-3.001284E-2,4.6768877E-1,-1.0670637E-1,-5.9936057E-5,5.7014865E-1,-1.9458383E-2,1.6135743E-2,7.271686E-3,3.610366E-2],"categories":[],"categories_nodes":[],"categories_segments":[],"categories_sizes":[],"default_left":[0,0,0,0,0,0,0,0,0,0,0,0,0],"id":48,"left_children":[1,-1,3,5,-1,7,9,-1,11,-1,-1,-1,-1],"loss_changes":[4.1962247E0,0E0,2.9537764E0,2.080078E0,0E0,9.4492674E-1,1.3101791E0,0E0,7.9772425E-1,0E0,0E0,0E0,0E0],"parents":[2147483647,0,0,2,2,3,3,5,5,6,6,8,8],"right_children":[2,-1,4,6,-1,8,10,-1,12,-1,-1,-1,-1],"split_conditions":[2.7E1,-3.860053E-2,7E0,1E0,-3.001284E-2,3E0,4E0,-5.9936057E-5,1E0,-1.9458383E-2,1.6135743E-2,7.271686E-3,3.610366E-2],"split_indices":[0,0,11,8,0,11,1,0,3,0,0,0,0],"split_type":[0,0,0,0,0,0,0,0,0,0,0,0,0],"sum_hessian":[3.4472034E1,4.8219223E0,2.9650114E1,2.6181618E1,3.468496E0,1.7470211E1,8.711406E0,3.1351457E0,1.4335067E1,5.4519053E0,3.2595005E0,4.4658856E0,9.869181E0],"tree_param":{"num_deleted":"0","num_feature":"12","num_nodes":"13","size_leaf_vector":"1"}},{"base_weights":[-5.6474295E-2,-3.5481527E-1,2.4952742E-1,-4.950693E-2,-6.964111E-2,-1.9460281E-2,4.8733792E-1,2.2649547E-1,-2.0778166E-2,7.22617E-1,-5.8414517E-3,2.7923433E-2,-4.0741335E-3,1.8758943E-2,4.5561675E-2],"categories":[],"categories_nodes":[],"categories_segments":[],"categories_sizes":[],"default_left":[0,0,0,0,0,0,0,0,0,0,0,0,0,0,0],"id":49,"left_children":[1,3,5,-1,7,-1,9,11,-1,13,-1,-1,-1,-1,-1],"loss_changes":[3.3942592E0,3.2410867E0,2.9701352E0,0E0,1.5674348E0,0E0,2.113705E0,9.255161E-1,0E0,1.996336E-1,0E0,0E0,0E0,0E0,0E0],"parents":[2147483647,0,0,1,1,2,2,4,4,6,6,7,7,9,9],"right_children":[2,4,6,-1,8,-1,10,12,-1,14,-1,-1,-1,-1,-1],"split_conditions":[1E0,8E0,4E0,-4.950693E-2,1E0,-1.9460281E-2,1.3E1,3.6E1,-2.0778166E-2,5E0,-5.8414517E-3,2.7923433E-2,-4.0741335E-3,1.8758943E-2,4.5561675E-2],"split_indices":[4,9,9,0,10,0,9,0,0,6,0,0,0,0,0],"split_type":[0,0,0,0,0,0,0,0,0,0,0,0,0,0,0],"sum_hessian":[3.5094765E1,1.7854513E1,1.7240252E1,4.6569185E0,1.3197595E1,4.3905606E0,1.2849691E1,7.140729E0,6.0568657E0,9.226214E0,3.6234772E0,3.201334E0,3.9393952E0,4.4846387E0,4.7415752E0],"tree_param":{"num_deleted":"0","num_feature":"12","num_nodes":"15","size_leaf_vector":"1"}},{"base_weights":[-5.4242693E-2,-5.4645824E-1,2.5188997E-1,-2.5284204E-1,-4.8167072E-2,-1.2142588E-1,6.5907305E-1,-3.1591073E-2,5.40357E-4,-3.7348174E-2,2.563487E-1,3.3842522E-1,5.1449366E-2,2.6868641E-2,-3.2493015E-4,6.5605534E-4,2.7417976E-2],"categories":[],"categories_nodes":[],"categories_segments":[],"categories_sizes":[],"default_left":[0,0,0,0,0,0,0,0,0,0,0,0,0,0,0,0,0],"id":50,"left_children":[1,3,5,7,-1,9,11,-1,-1,-1,13,15,-1,-1,-1,-1,-1],"loss_changes":[5.332052E0,1.2975998E0,3.4312038E0,1.0148762E0,0E0,3.084117E0,7.793393E-1,0E0,0E0,0E0,6.5838027E-1,4.382469E-1,0E0,0E0,0E0,0E0,0E0],"parents":[2147483647,0,0,1,1,2,2,3,3,5,5,6,6,10,10,11,11],"right_children":[2,4,6,8,-1,10,12,-1,-1,-1,14,16,-1,-1,-1,-1,-1],"split_conditions":[1E0,1E0,1E0,1E0,-4.8167072E-2,1.1E1,1E0,-3.1591073E-2,5.40357E-4,-3.7348174E-2,1E0,6E0,5.1449366E-2,2.6868641E-2,-3.2493015E-4,6.5605534E-4,2.7417976E-2],"split_indices":[5,8,4,4,0,9,2,0,0,0,10,9,0,0,0,0,0],"split_type":[0,0,0,0,0,0,0,0,0,0,0,0,0,0,0,0,0],"sum_hessian":[3.327685E1,1.2584491E1,2.0692362E1,8.467266E0,4.1172247E0,1.1033118E1,9.659244E0,3.0565329E0,5.410733E0,3.8859718E0,7.147146E0,6.3447313E0,3.3145123E0,3.1332455E0,4.0139008E0,3.09214E0,3.2525914E0],"tree_param":{"num_deleted":"0","num_feature":"12","num_nodes":"17","size_leaf_vector":"1"}},{"base_weights":[-1.287285E-1,-7.034496E-1,4.166673E-2,-4.9415927E-2,-1.5904432E-2,-3.06939E-1,2.8825614E-1,1.909342E-1,-5.1760044E-2,5.823279E-2,3.190517E-2,2.5092844E-2,-5.375705E-3,-1.566148E-2,1.8994292E-2],"categories":[],"categories_nodes":[],"categories_segments":[],"categories_sizes":[],"default_left":[0,0,0,0,0,0,0,0,0,0,0,0,0,0,0],"id":51,"left_children":[1,3,5,-1,-1,7,9,11,-1,13,-1,-1,-1,-1,-1],"loss_changes":[3.5059366E0,4.501233E-1,2.465307E0,0E0,0E0,4.5534935E0,1.252463E0,8.134532E-1,0E0,1.495331E0,0E0,0E0,0E0,0E0,0E0],"parents":[2147483647,0,0,1,1,2,2,5,5,6,6,7,7,9,9],"right_children":[2,4,6,-1,-1,8,10,12,-1,14,-1,-1,-1,-1,-1],"split_conditions":[6E0,5E0,1E0,-4.9415927E-2,-1.5904432E-2,1.2E1,1E0,3.7E1,-5.1760044E-2,1.3E1,3.190517E-2,2.5092844E-2,-5.375705E-3,-1.566148E-2,1.8994292E-2],"split_indices":[9,6,5,0,0,9,4,0,0,9,0,0,0,0,0],"split_type":[0,0,0,0,0,0,0,0,0,0,0,0,0,0,0],"sum_hessian":[3.382546E1,7.1541076E0,2.6671352E1,3.0645552E0,4.0895524E0,1.0780538E1,1.5890815E1,6.759763E0,4.020775E0,1.0463434E1,5.427381E0,3.1409948E0,3.6187677E0,4.723627E0,5.739807E0],"tree_param":{"num_deleted":"0","num_feature":"12","num_nodes":"15","size_leaf_vector":"1"}},{"base_weights":[9.494042E-3,-3.9524335E-2,1.2991942E-1,-1.8524466E-1,3.7751645E-1,-3.487054E-2,1.3219874E-1,-6.1939176E-2,7.836524E-1,2.275897E-2,-1.9200874E-2,-1.7887237E-2,1.7397745E-2,4.8705302E-2,1.5031059E-2],"categories":[],"categories_nodes":[],"categories_segments":[],"categories_sizes":[],"default_left":[0,0,0,0,0,0,0,0,0,0,0,0,0,0,0],"id":52,"left_children":[1,-1,3,5,7,-1,9,11,13,-1,-1,-1,-1,-1,-1],"loss_changes":[3.36324E0,0E0,2.5066462E0,2.4449475E0,3.3077457E0,0E0,1.7557044E0,1.263381E0,4.5103598E-1,0E0,0E0,0E0,0E0,0E0,0E0],"parents":[2147483647,0,0,2,2,3,3,4,4,6,6,7,7,8,8],"right_children":[2,-1,4,6,8,-1,10,12,14,-1,-1,-1,-1,-1,-1],"split_conditions":[2.6E1,-3.9524335E-2,1E0,4E0,1E0,-3.487054E-2,1E0,5E0,4E0,2.275897E-2,-1.9200874E-2,-1.7887237E-2,1.7397745E-2,4.8705302E-2,1.5031059E-2],"split_indices":[0,0,3,6,2,0,7,6,6,0,0,0,0,0,0],"split_type":[0,0,0,0,0,0,0,0,0,0,0,0,0,0,0],"sum_hessian":[3.3530487E1,3.5504549E0,2.9980032E1,1.31233635E1,1.6856668E1,4.6840806E0,8.439283E0,8.385013E0,8.471655E0,5.3831606E0,3.0561223E0,5.085898E0,3.2991147E0,5.198334E0,3.2733207E0],"tree_param":{"num_deleted":"0","num_feature":"12","num_nodes":"15","size_leaf_vector":"1"}},{"base_weights":[-1.6966267E-2,-3.24255E-2,8.1357196E-2,2.0677324E-1,-3.3994745E-2,4.0466714E-1,-1.8442422E-1,3.1880528E-2,6.717544E-2,-3.8559705E-2,1.4462366E-2,-1.9084526E-2,2.207153E-2],"categories":[],"categories_nodes":[],"categories_segments":[],"categories_sizes":[],"default_left":[0,0,0,0,0,0,0,0,0,0,0,0,0],"id":53,"left_children":[1,-1,3,5,-1,7,9,-1,11,-1,-1,-1,-1],"loss_changes":[2.236281E0,0E0,2.9945116E0,2.1844993E0,0E0,1.332627E0,2.9330556E0,0E0,1.6534117E0,0E0,0E0,0E0,0E0],"parents":[2147483647,0,0,2,2,3,3,5,5,6,6,8,8],"right_children":[2,-1,4,6,-1,8,10,-1,12,-1,-1,-1,-1],"split_conditions":[2E0,-3.24255E-2,7E0,1E0,-3.3994745E-2,1E0,1E0,3.1880528E-2,4.3E1,-3.8559705E-2,1.4462366E-2,-1.9084526E-2,2.207153E-2],"split_indices":[11,0,11,7,0,10,2,0,0,0,0,0,0],"split_type":[0,0,0,0,0,0,0,0,0,0,0,0,0],"sum_hessian":[3.3250507E1,3.862509E0,2.9387997E1,2.5969303E1,3.4186945E0,1.7392303E1,8.577E0,9.588539E0,7.8037643E0,3.6448576E0,4.9321423E0,3.4176786E0,4.3860855E0],"tree_param":{"num_deleted":"0","num_feature":"12","num_nodes":"13","size_leaf_vector":"1"}},{"base_weights":[-5.5700596E-3,-3.711104E-2,1.01660915E-1,-1.8117091E-1,4.21611E-1,1.900313E-1,-4.18908E-2,-6.9023035E-2,3.9987408E-2,2.2382779E-2,-1.7161664E-2,-2.2705985E-2,1.4295441E-2],"categories":[],"categories_nodes":[],"categories_segments":[],"categories_sizes":[],"default_left":[0,0,0,0,0,0,0,0,0,0,0,0,0],"id":54,"left_children":[1,-1,3,5,7,9,-1,11,-1,-1,-1,-1,-1],"loss_changes":[2.8564782E0,0E0,2.8863168E0,4.3370976E0,2.8947735E0,1.7437272E0,0E0,1.1438686E0,0E0,0E0,0E0,0E0,0E0],"parents":[2147483647,0,0,2,2,3,3,4,4,5,5,7,7],"right_children":[2,-1,4,6,8,10,-1,12,-1,-1,-1,-1,-1],"split_conditions":[2E0,-3.711104E-2,1E0,1E0,1E0,6E0,-4.18908E-2,3E0,3.9987408E-2,2.2382779E-2,-1.7161664E-2,-2.2705985E-2,1.4295441E-2],"split_indices":[11,0,2,7,3,11,0,1,0,0,0,0,0],"split_type":[0,0,0,0,0,0,0,0,0,0,0,0,0],"sum_hessian":[3.339557E1,3.6095693E0,2.9786001E1,1.5874419E1,1.3911581E1,1.0498129E1,5.376291E0,6.295788E0,7.615793E0,7.3131504E0,3.1849782E0,3.0206778E0,3.27511E0],"tree_param":{"num_deleted":"0","num_feature":"12","num_nodes":"13","size_leaf_vector":"1"}},{"base_weights":[3.5963546E-2,-4.1220937E-2,1.715041E-1,-1.794424E-1,5.117161E-1,-4.7501302E-1,1.8318977E-2,7.459224E-1,-4.6372046E-3,-4.8364387E-3,-4.629955E-2,1.0283977E-2,5.5394687E-2],"categories":[],"categories_nodes":[],"categories_segments":[],"categories_sizes":[],"default_left":[0,0,0,0,0,0,0,0,0,0,0,0,0],"id":55,"left_children":[1,-1,3,5,7,9,-1,11,-1,-1,-1,-1,-1],"loss_changes":[3.8964324E0,0E0,3.6149426E0,2.602163E0,2.2928538E0,1.5609238E0,0E0,1.834528E0,0E0,0E0,0E0,0E0,0E0],"parents":[2147483647,0,0,2,2,3,3,4,4,5,5,7,7],"right_children":[2,-1,4,6,8,10,-1,12,-1,-1,-1,-1,-1],"split_conditions":[2.6E1,-4.1220937E-2,1E0,4E0,4E0,1E0,1.8318977E-2,5E0,-4.6372046E-3,-4.8364387E-3,-4.629955E-2,1.0283977E-2,5.5394687E-2],"split_indices":[0,0,4,1,1,8,0,6,0,0,0,0,0],"split_type":[0,0,0,0,0,0,0,0,0,0,0,0,0],"sum_hessian":[3.1759745E1,3.5302484E0,2.8229496E1,1.3983456E1,1.4246041E1,9.274251E0,4.7092047E0,1.021825E1,4.0277915E0,5.8246827E0,3.449568E0,4.8396096E0,5.37864E0],"tree_param":{"num_deleted":"0","num_feature":"12","num_nodes":"13","size_leaf_vector":"1"}},{"base_weights":[-3.4703117E-2,-4.5600165E-2,1.0855214E-1,2.4144688E-1,-3.3532377E-2,-3.2240868E-2,4.0985906E-1,5.3501E-1,-1.0225442E-2,-0E0,3.7282143E-2],"categories":[],"categories_nodes":[],"categories_segments":[],"categories_sizes":[],"default_left":[0,0,0,0,0,0,0,0,0,0,0],"id":56,"left_children":[1,-1,3,5,-1,-1,7,9,-1,-1,-1],"loss_changes":[4.0014887E0,0E0,2.9085715E0,3.8018918E0,0E0,0E0,1.738303E0,2.007503E0,0E0,0E0,0E0],"parents":[2147483647,0,0,2,2,3,3,6,6,7,7],"right_children":[2,-1,4,6,-1,-1,8,10,-1,-1,-1],"split_conditions":[2.6E1,-4.5600165E-2,7E0,2E0,-3.3532377E-2,-3.2240868E-2,5.5E1,1E0,-1.0225442E-2,-0E0,3.7282143E-2],"split_indices":[0,0,11,11,0,0,0,3,0,0,0],"split_type":[0,0,0,0,0,0,0,0,0,0,0],"sum_hessian":[2.9412228E1,3.4733129E0,2.5938915E1,2.2858759E1,3.0801554E0,3.103595E0,1.9755165E1,1.6654472E1,3.100691E0,4.9547315E0,1.1699741E1],"tree_param":{"num_deleted":"0","num_feature":"12","num_nodes":"11","size_leaf_vector":"1"}},{"base_weights":[-6.0128972E-2,5.0036788E-2,-4.0974714E-2,1.5020178E-1,-2.9818371E-2,-3.3806822E-1,3.858606E-1,-3.0251864E-2,-2.5567107E-3,6.425198E-2,6.118044E-1,-2.4636982E-2,2.282467E-2,9.694721E-3,4.453585E-2],"categories":[],"categories_nodes":[],"categories_segments":[],"categories_sizes":[],"default_left":[0,0,0,0,0,0,0,0,0,0,0,0,0,0,0],"id":57,"left_children":[1,3,-1,5,-1,7,9,-1,-1,11,13,-1,-1,-1,-1],"loss_changes":[2.9887452E0,2.0389311E0,0E0,3.3107052E0,0E0,6.2186396E-1,1.2896206E0,0E0,0E0,2.2379296E0,9.9962807E-1,0E0,0E0,0E0,0E0],"parents":[2147483647,0,0,1,1,3,3,5,5,6,6,9,9,10,10],"right_children":[2,4,-1,6,-1,8,10,-1,-1,12,14,-1,-1,-1,-1],"split_conditions":[5E0,1.9E1,-4.0974714E-2,7E0,-2.9818371E-2,5E0,4E0,-3.0251864E-2,-2.5567107E-3,1E0,1E0,-2.4636982E-2,2.282467E-2,9.694721E-3,4.453585E-2],"split_indices":[1,9,0,9,0,6,11,0,0,2,3,0,0,0,0],"split_type":[0,0,0,0,0,0,0,0,0,0,0,0,0,0,0],"sum_hessian":[3.3316643E1,2.9796326E1,3.520317E0,2.6597229E1,3.1990957E0,8.378534E0,1.8218695E1,3.585434E0,4.7931E0,8.230441E0,9.988255E0,3.1897557E0,5.040685E0,4.819959E0,5.1682954E0],"tree_param":{"num_deleted":"0","num_feature":"12","num_nodes":"15","size_leaf_vector":"1"}},{"base_weights":[-1.8314067E-2,2.3436868E-1,-4.442655E-1,-1.252031E-1,5.368371E-1,-3.7086822E-2,-1.407246E-3,-2.6065841E-2,8.475175E-3,7.093792E-3,3.250745E-2],"categories":[],"categories_nodes":[],"categories_segments":[],"categories_sizes":[],"default_left":[0,0,0,0,0,0,0,0,0,0,0],"id":58,"left_children":[1,3,5,7,9,-1,-1,-1,-1,-1,-1],"loss_changes":[3.5342152E0,2.3257427E0,1.4229741E0,1.2879431E0,3.3934855E-1,0E0,0E0,0E0,0E0,0E0,0E0],"parents":[2147483647,0,0,1,1,2,2,3,3,4,4],"right_children":[2,4,6,8,10,-1,-1,-1,-1,-1,-1],"split_conditions":[1E0,1E0,1E0,1.3E1,3.3E1,-3.7086822E-2,-1.407246E-3,-2.6065841E-2,8.475175E-3,7.093792E-3,3.250745E-2],"split_indices":[7,4,2,9,0,0,0,0,0,0,0],"split_type":[0,0,0,0,0,0,0,0,0,0,0],"sum_hessian":[3.0674114E1,1.9387863E1,1.1286252E1,8.974502E0,1.0413361E1,5.984974E0,5.3012786E0,3.6452816E0,5.3292203E0,3.0203156E0,7.393045E0],"tree_param":{"num_deleted":"0","num_feature":"12","num_nodes":"11","size_leaf_vector":"1"}},{"base_weights":[-7.149944E-2,-4.9129876E-1,1.5687831E-1,-1.580785E-1,-4.7119018E-2,-7.8509144E-2,5.0835156E-1,2.3800686E-3,-1.8898312E-2,2.7290645E-1,-4.9376175E-1,8.765106E-3,3.254647E-2,-6.059725E-3,2.9768536E-2,-8.056298E-3,-3.3728693E-2],"categories":[],"categories_nodes":[],"categories_segments":[],"categories_sizes":[],"default_left":[0,0,0,0,0,0,0,0,0,0,0,0,0,0,0,0,0],"id":59,"left_children":[1,3,5,7,-1,9,11,-1,-1,13,15,-1,-1,-1,-1,-1,-1],"loss_changes":[3.407088E0,1.6215689E0,1.9752681E0,4.3657666E-1,0E0,2.2574174E0,2.5336385E-1,0E0,0E0,1.1756754E0,2.3383331E-1,0E0,0E0,0E0,0E0,0E0,0E0],"parents":[2147483647,0,0,1,1,2,2,3,3,5,5,6,6,9,9,10,10],"right_children":[2,4,6,8,-1,10,12,-1,-1,14,16,-1,-1,-1,-1,-1,-1],"split_conditions":[1E0,1E0,1.3E1,4E0,-4.7119018E-2,1E0,4E0,2.3800686E-3,-1.8898312E-2,5E0,6E0,8.765106E-3,3.254647E-2,-6.059725E-3,2.9768536E-2,-8.056298E-3,-3.3728693E-2],"split_indices":[5,8,9,6,0,10,6,0,0,6,9,0,0,0,0,0,0],"split_type":[0,0,0,0,0,0,0,0,0,0,0,0,0,0,0,0,0],"sum_hessian":[3.3384842E1,1.1511413E1,2.1873428E1,7.5248413E0,3.986572E0,1.3394813E1,8.478616E0,4.05789E0,3.4669511E0,7.310303E0,6.08451E0,3.4202046E0,5.0584116E0,3.4310641E0,3.8792393E0,3.0034032E0,3.0811067E0],"tree_param":{"num_deleted":"0","num_feature":"12","num_nodes":"17","size_leaf_vector":"1"}},{"base_weights":[-5.0902296E-2,-3.6036666E-2,5.7345822E-2,-3.022302E-1,3.685326E-1,-5.3960127E-1,1.4306602E-2,-8.7728975E-3,5.442563E-1,-1.3934917E-4,-5.879457E-2,7.0766985E-1,7.530135E-3,4.397602E-2,1.3838659E-2],"categories":[],"categories_nodes":[],"categories_segments":[],"categories_sizes":[],"default_left":[0,0,0,0,0,0,0,0,0,0,0,0,0,0,0],"id":60,"left_children":[1,-1,3,5,7,9,-1,-1,11,-1,-1,13,-1,-1,-1],"loss_changes":[2.4763687E0,0E0,3.3541412E0,2.109522E0,1.6717281E0,3.4015212E0,0E0,0E0,6.151955E-1,0E0,0E0,2.6456976E-1,0E0,0E0,0E0],"parents":[2147483647,0,0,2,2,3,3,4,4,5,5,8,8,11,11],"right_children":[2,-1,4,6,8,10,-1,-1,12,-1,-1,14,-1,-1,-1],"split_conditions":[2E0,-3.6036666E-2,1E0,5.2E1,2.8E1,3.6E1,1.4306602E-2,-8.7728975E-3,5E0,-1.3934917E-4,-5.879457E-2,4E0,7.530135E-3,4.397602E-2,1.3838659E-2],"split_indices":[11,0,3,0,0,0,0,0,11,0,0,6,0,0,0],"split_type":[0,0,0,0,0,0,0,0,0,0,0,0,0,0,0],"sum_hessian":[3.1668133E1,3.7470877E0,2.7921043E1,1.281767E1,1.51033745E1,9.3131695E0,3.5045004E0,3.5490289E0,1.1554345E1,5.6814675E0,3.6317015E0,7.4217143E0,4.1326313E0,4.3954887E0,3.0262258E0],"tree_param":{"num_deleted":"0","num_feature":"12","num_nodes":"15","size_leaf_vector":"1"}},{"base_weights":[-0E0,-3.598686E-1,2.277183E-1,-5.6415647E-2,-4.8750762E-2,-1.7361762E-2,3.1450894E-2,1.39308665E-2,-2.9388731E-2,-2.499986E-2,3.9768225E-1,7.2102286E-3,2.9076725E-2],"categories":[],"categories_nodes":[],"categories_segments":[],"categories_sizes":[],"default_left":[0,0,0,0,0,0,0,0,0,0,0,0,0],"id":61,"left_children":[1,3,5,7,-1,9,-1,-1,-1,-1,11,-1,-1],"loss_changes":[2.8155956E0,2.3220875E0,2.1486459E0,1.987001E0,0E0,2.9988184E0,0E0,0E0,0E0,0E0,2.1327758E-1,0E0,0E0],"parents":[2147483647,0,0,1,1,2,2,3,3,5,5,10,10],"right_children":[2,4,6,8,-1,10,-1,-1,-1,-1,12,-1,-1],"split_conditions":[1E0,1.3E1,1.3E1,1E0,-4.8750762E-2,1E0,3.1450894E-2,1.39308665E-2,-2.9388731E-2,-2.499986E-2,1E0,7.2102286E-3,2.9076725E-2],"split_indices":[5,9,9,7,0,4,0,0,0,0,3,0,0],"split_type":[0,0,0,0,0,0,0,0,0,0,0,0,0],"sum_hessian":[3.2400745E1,1.2286884E1,2.0113863E1,9.067931E0,3.2189531E0,1.2926803E1,7.1870594E0,5.737667E0,3.3302643E0,5.993497E0,6.933306E0,3.893538E0,3.0397682E0],"tree_param":{"num_deleted":"0","num_feature":"12","num_nodes":"13","size_leaf_vector":"1"}},{"base_weights":[5.4192025E-2,1.7422636E-1,-3.2390352E-2,-1.794632E-1,3.4373713E-1,-2.6269305E-2,6.044783E-3,2.3156382E-2,5.438398E-1,-1.0945198E-2,1.7588591E-2,4.1261725E-2,7.2113164E-3],"categories":[],"categories_nodes":[],"categories_segments":[],"categories_sizes":[],"default_left":[0,0,0,0,0,0,0,0,0,0,0,0,0],"id":62,"left_children":[1,3,-1,5,7,-1,-1,9,11,-1,-1,-1,-1],"loss_changes":[2.5835385E0,1.6626359E0,0E0,1.0420359E0,1.1110728E0,0E0,0E0,7.5114334E-1,1.0313668E0,0E0,0E0,0E0,0E0],"parents":[2147483647,0,0,1,1,3,3,4,4,7,7,8,8],"right_children":[2,4,-1,6,8,-1,-1,10,12,-1,-1,-1,-1],"split_conditions":[5E0,8E0,-3.2390352E-2,4.7E1,1E0,-2.6269305E-2,6.044783E-3,3E0,1E0,-1.0945198E-2,1.7588591E-2,4.1261725E-2,7.2113164E-3],"split_indices":[1,9,0,0,3,0,0,1,10,0,0,0,0],"split_type":[0,0,0,0,0,0,0,0,0,0,0,0,0],"sum_hessian":[2.888265E1,2.5428854E1,3.4537976E0,8.028497E0,1.7400356E1,3.53778E0,4.4907165E0,7.307929E0,1.0092428E1,4.225183E0,3.0827458E0,5.1503778E0,4.9420505E0],"tree_param":{"num_deleted":"0","num_feature":"12","num_nodes":"13","size_leaf_vector":"1"}},{"base_weights":[-3.8525008E-2,2.3520318E-1,-3.193559E-1,-1.4702774E-2,5.162602E-1,-3.9545994E-2,8.163784E-3,3.51444E-2,1.8980142E-3,-2.4717713E-2,2.92298E-2],"categories":[],"categories_nodes":[],"categories_segments":[],"categories_sizes":[],"default_left":[0,0,0,0,0,0,0,0,0,0,0],"id":63,"left_children":[1,3,5,-1,7,-1,9,-1,-1,-1,-1],"loss_changes":[2.4485931E0,2.550466E0,2.5235493E0,0E0,8.740809E-1,0E0,3.2477686E0,0E0,0E0,0E0,0E0],"parents":[2147483647,0,0,1,1,2,2,4,4,6,6],"right_children":[2,4,6,-1,8,-1,10,-1,-1,-1,-1],"split_conditions":[1E0,8E0,1E0,-1.4702774E-2,1E0,-3.9545994E-2,1E0,3.51444E-2,1.8980142E-3,-2.4717713E-2,2.92298E-2],"split_indices":[10,9,3,0,7,0,4,0,0,0,0],"split_type":[0,0,0,0,0,0,0,0,0,0,0],"sum_hessian":[2.9766533E1,1.4975843E1,1.479069E1,5.0549035E0,9.920939E0,5.6074753E0,9.183215E0,6.648236E0,3.272704E0,4.889548E0,4.2936673E0],"tree_param":{"num_deleted":"0","num_feature":"12","num_nodes":"11","size_leaf_vector":"1"}},{"base_weights":[1.0011407E-2,-4.446439E-1,2.9234108E-1,-1.3903582E-1,-4.5065E-2,2.000016E-3,6.440963E-1,1.0259135E-2,-2.4065116E-2,-2.8894505E-2,3.5020617E-1,1.1118248E-2,4.3996062E-2,2.347437E-2,4.5036036E-3],"categories":[],"categories_nodes":[],"categories_segments":[],"categories_sizes":[],"default_left":[0,0,0,0,0,0,0,0,0,0,0,0,0,0,0],"id":64,"left_children":[1,3,5,7,-1,9,11,-1,-1,-1,13,-1,-1,-1,-1],"loss_changes":[4.1088157E0,1.4705942E0,1.9699931E0,1.140856E0,0E0,2.6187084E0,5.7478666E-1,0E0,0E0,0E0,1.5861046E-1,0E0,0E0,0E0,0E0],"parents":[2147483647,0,0,1,1,2,2,3,3,5,5,6,6,10,10],"right_children":[2,4,6,8,-1,10,12,-1,-1,-1,14,-1,-1,-1,-1],"split_conditions":[1E0,1E0,1E0,4E0,-4.5065E-2,1.1E1,6E0,1.0259135E-2,-2.4065116E-2,-2.8894505E-2,5E0,1.1118248E-2,4.3996062E-2,2.347437E-2,4.5036036E-3],"split_indices":[5,8,4,6,0,9,9,0,0,0,6,0,0,0,0],"split_type":[0,0,0,0,0,0,0,0,0,0,0,0,0,0,0],"sum_hessian":[3.0115414E1,1.1180907E1,1.8934507E1,7.610906E0,3.570001E0,1.107944E1,7.855067E0,3.8486521E0,3.762254E0,3.8015943E0,7.2778463E0,3.6660132E0,4.1890535E0,4.174483E0,3.1033635E0],"tree_param":{"num_deleted":"0","num_feature":"12","num_nodes":"15","size_leaf_vector":"1"}},{"base_weights":[-4.042069E-2,-4.077797E-1,1.7872159E-1,-1.1484652E-1,-4.3940514E-2,-5.0022647E-2,2.7745096E-2,3.924295E-3,-1.7038934E-2,-2.270933E-2,3.10759E-1,2.661995E-2,-0E0],"categories":[],"categories_nodes":[],"categories_segments":[],"categories_sizes":[],"default_left":[0,0,0,0,0,0,0,0,0,0,0,0,0],"id":65,"left_children":[1,3,5,7,-1,9,-1,-1,-1,-1,11,-1,-1],"loss_changes":[2.5599654E0,1.4433633E0,1.7731726E0,4.2975307E-1,0E0,2.0512207E0,0E0,0E0,0E0,0E0,4.9964315E-1,0E0,0E0],"parents":[2147483647,0,0,1,1,2,2,3,3,5,5,10,10],"right_children":[2,4,6,8,-1,10,-1,-1,-1,-1,12,-1,-1],"split_conditions":[1E0,1E0,1.3E1,4E1,-4.3940514E-2,1E0,2.7745096E-2,3.924295E-3,-1.7038934E-2,-2.270933E-2,3E0,2.661995E-2,-0E0],"split_indices":[5,8,9,0,0,4,0,0,0,0,1,0,0],"split_type":[0,0,0,0,0,0,0,0,0,0,0,0,0],"sum_hessian":[2.9609457E1,1.0912247E1,1.869721E1,7.625858E0,3.2863889E0,1.2000967E1,6.696243E0,4.222567E0,3.4032905E0,5.6688004E0,6.332167E0,3.2608032E0,3.0713637E0],"tree_param":{"num_deleted":"0","num_feature":"12","num_nodes":"13","size_leaf_vector":"1"}},{"base_weights":[4.2316336E-3,2.0775658E-1,-3.6069024E-1,4.1847122E-1,-7.094175E-2,-3.5337295E-2,3.1463263E-5,2.7327059E-2,2.4697925E-3,-1.9897131E-2,7.648906E-3],"categories":[],"categories_nodes":[],"categories_segments":[],"categories_sizes":[],"default_left":[0,0,0,0,0,0,0,0,0,0,0],"id":66,"left_children":[1,3,5,7,9,-1,-1,-1,-1,-1,-1],"loss_changes":[2.3719168E0,1.285744E0,1.4885159E0,4.8969722E-1,7.88645E-1,0E0,0E0,0E0,0E0,0E0,0E0],"parents":[2147483647,0,0,1,1,2,2,3,3,4,4],"right_children":[2,4,6,8,10,-1,-1,-1,-1,-1,-1],"split_conditions":[1E0,1E0,1E0,1E0,4.4E1,-3.5337295E-2,3.1463263E-5,2.7327059E-2,2.4697925E-3,-1.9897131E-2,7.648906E-3],"split_indices":[7,10,2,8,0,0,0,0,0,0,0],"split_type":[0,0,0,0,0,0,0,0,0,0,0],"sum_hessian":[3.0133059E1,1.9796711E1,1.0336348E1,1.1192057E1,8.604655E0,4.9327393E0,5.4036083E0,7.750745E0,3.4413116E0,3.3629713E0,5.241684E0],"tree_param":{"num_deleted":"0","num_feature":"12","num_nodes":"11","size_leaf_vector":"1"}},{"base_weights":[3.499624E-2,-3.1290248E-1,2.4198765E-1,-3.0849436E-2,-1.5606348E-4,2.7040977E-2,-2.0197963E-2,-1.8800257E-2,1.8479098E-2],"categories":[],"categories_nodes":[],"categories_segments":[],"categories_sizes":[],"default_left":[0,0,0,0,0,0,0,0,0],"id":67,"left_children":[1,3,5,-1,-1,-1,7,-1,-1],"loss_changes":[2.3451612E0,1.0710453E0,1.6742125E0,0E0,0E0,0E0,1.767747E0,0E0,0E0],"parents":[2147483647,0,0,1,1,2,2,6,6],"right_children":[2,4,6,-1,-1,-1,8,-1,-1],"split_conditions":[1E0,1E0,1E0,-3.0849436E-2,-1.5606348E-4,2.7040977E-2,1E0,-1.8800257E-2,1.8479098E-2],"split_indices":[5,4,10,0,0,0,2,0,0],"split_type":[0,0,0,0,0,0,0,0,0],"sum_hessian":[3.0613243E1,1.1048614E1,1.9564629E1,4.9122095E0,6.1364045E0,8.824912E0,1.0739717E1,5.767134E0,4.972583E0],"tree_param":{"num_deleted":"0","num_feature":"12","num_nodes":"9","size_leaf_vector":"1"}},{"base_weights":[-2.9648343E-2,-4.1049343E-2,9.135602E-2,-1.4468639E-1,3.3749524E-1,-4.0753074E-2,8.966184E-2,6.202183E-2,3.0861706E-2,-1.7141012E-2,3.7673423E-1,-1.2168136E-2,1.543721E-2,2.9594202E-2,3.4339104E-3],"categories":[],"categories_nodes":[],"categories_segments":[],"categories_sizes":[],"default_left":[0,0,0,0,0,0,0,0,0,0,0,0,0,0,0],"id":68,"left_children":[1,-1,3,5,7,-1,9,11,-1,-1,13,-1,-1,-1,-1],"loss_changes":[3.1524303E0,0E0,1.6951966E0,2.4688919E0,9.893526E-1,0E0,1.5911189E0,7.187083E-1,0E0,0E0,4.0208077E-1,0E0,0E0,0E0,0E0],"parents":[2147483647,0,0,2,2,3,3,4,4,6,6,7,7,10,10],"right_children":[2,-1,4,6,8,-1,10,12,-1,-1,14,-1,-1,-1,-1],"split_conditions":[2E0,-4.1049343E-2,1E0,2.8E1,1E0,-4.0753074E-2,1E0,1.1E1,3.0861706E-2,-1.7141012E-2,5E0,-1.2168136E-2,1.543721E-2,2.9594202E-2,3.4339104E-3],"split_indices":[11,0,2,0,4,0,5,9,0,0,11,0,0,0,0],"split_type":[0,0,0,0,0,0,0,0,0,0,0,0,0,0,0],"sum_hessian":[3.0376453E1,3.3712115E0,2.7005241E1,1.3788377E1,1.3216865E1,3.0402317E0,1.0748145E1,7.454863E0,5.762002E0,4.071614E0,6.6765313E0,3.156347E0,4.2985163E0,3.1974373E0,3.4790943E0],"tree_param":{"num_deleted":"0","num_feature":"12","num_nodes":"15","size_leaf_vector":"1"}},{"base_weights":[-7.859404E-2,-3.719785E-2,2.7630692E-2,-2.9651728E-1,2.2745667E-1,-2.6561955E-2,2.803099E-4,-1.8816268E-2,3.978325E-1,6.195302E-1,-1.1883518E-2,1.4649835E-2,4.859255E-2],"categories":[],"categories_nodes":[],"categories_segments":[],"categories_sizes":[],"default_left":[0,0,0,0,0,0,0,0,0,0,0,0,0],"id":69,"left_children":[1,-1,3,5,7,-1,-1,-1,9,11,-1,-1,-1],"loss_changes":[2.1760333E0,0E0,1.761431E0,7.8296053E-1,1.9008152E0,0E0,0E0,0E0,2.1402957E0,8.175063E-1,0E0,0E0,0E0],"parents":[2147483647,0,0,2,2,3,3,4,4,8,8,9,9],"right_children":[2,-1,4,6,8,-1,-1,-1,10,12,-1,-1,-1],"split_conditions":[2E0,-3.719785E-2,1E0,1E0,2.8E1,-2.6561955E-2,2.803099E-4,-1.8816268E-2,6E0,1E0,-1.1883518E-2,1.4649835E-2,4.859255E-2],"split_indices":[11,0,5,2,0,0,0,0,11,4,0,0,0],"split_type":[0,0,0,0,0,0,0,0,0,0,0,0,0],"sum_hessian":[2.8483639E1,3.2244353E0,2.5259203E1,9.257624E0,1.600158E1,4.9694576E0,4.2881665E0,3.1264074E0,1.2875172E1,9.68056E0,3.194612E0,6.12205E0,3.55851E0],"tree_param":{"num_deleted":"0","num_feature":"12","num_nodes":"13","size_leaf_vector":"1"}},{"base_weights":[6.7196056E-2,-2.817318E-1,2.7136478E-1,-2.8752375E-2,6.347175E-3,-1.5733864E-2,5.1969576E-1,-2.1137167E-2,1.8479187E-2,3.6693525E-2,-0E0],"categories":[],"categories_nodes":[],"categories_segments":[],"categories_sizes":[],"default_left":[0,0,0,0,0,0,0,0,0,0,0],"id":70,"left_children":[1,3,5,-1,-1,7,9,-1,-1,-1,-1],"loss_changes":[2.1992881E0,1.4741329E0,1.4486914E0,0E0,0E0,1.7026976E0,1.2111809E0,0E0,0E0,0E0,0E0],"parents":[2147483647,0,0,1,1,2,2,5,5,6,6],"right_children":[2,4,6,-1,-1,8,10,-1,-1,-1,-1],"split_conditions":[1E0,1E0,1.1E1,-2.8752375E-2,6.347175E-3,5E0,1E0,-2.1137167E-2,1.8479187E-2,3.6693525E-2,-0E0],"split_indices":[5,2,9,0,0,6,7,0,0,0,0],"split_type":[0,0,0,0,0,0,0,0,0,0,0],"sum_hessian":[2.8812857E1,1.0314873E1,1.8497984E1,5.91042E0,4.404453E0,8.826967E0,9.671017E0,4.371629E0,4.455338E0,6.6002736E0,3.0707428E0],"tree_param":{"num_deleted":"0","num_feature":"12","num_nodes":"11","size_leaf_vector":"1"}},{"base_weights":[-2.1484831E-2,-3.6477745E-1,1.9239047E-1,-6.1637685E-2,-4.33355E-2,-1.3716402E-2,4.1294673E-1,-2.132478E-2,1.01247495E-2,5.290416E-3,3.238714E-2],"categories":[],"categories_nodes":[],"categories_segments":[],"categories_sizes":[],"default_left":[0,0,0,0,0,0,0,0,0,0,0],"id":71,"left_children":[1,3,5,7,-1,-1,9,-1,-1,-1,-1],"loss_changes":[2.2002678E0,1.6143533E0,2.001203E0,9.197174E-1,0E0,0E0,7.8696203E-1,0E0,0E0,0E0,0E0],"parents":[2147483647,0,0,1,1,2,2,3,3,6,6],"right_children":[2,4,6,8,-1,-1,10,-1,-1,-1,-1],"split_conditions":[1E0,1.2E1,8E0,7E0,-4.33355E-2,-1.3716402E-2,1E0,-2.132478E-2,1.01247495E-2,5.290416E-3,3.238714E-2],"split_indices":[5,9,9,9,0,0,2,0,0,0,0],"split_type":[0,0,0,0,0,0,0,0,0,0,0],"sum_hessian":[2.7776861E1,1.0571109E1,1.7205753E1,7.414929E0,3.15618E0,5.29783E0,1.1907923E1,3.0146112E0,4.4003177E0,5.972194E0,5.935729E0],"tree_param":{"num_deleted":"0","num_feature":"12","num_nodes":"11","size_leaf_vector":"1"}},{"base_weights":[-0E0,-2.911769E-1,3.2909918E-1,4.6308124E-3,-4.0394574E-2,-6.602839E-2,3.3183098E-2,1.4058585E-2,-1.7303832E-2,-2.1040058E-2,1.584023E-2],"categories":[],"categories_nodes":[],"categories_segments":[],"categories_sizes":[],"default_left":[0,0,0,0,0,0,0,0,0,0,0],"id":72,"left_children":[1,3,5,7,-1,9,-1,-1,-1,-1,-1],"loss_changes":[2.9837854E0,2.5903802E0,2.048615E0,1.1866469E0,0E0,1.1648691E0,0E0,0E0,0E0,0E0,0E0],"parents":[2147483647,0,0,1,1,2,2,3,3,5,5],"right_children":[2,4,6,8,-1,10,-1,-1,-1,-1,-1],"split_conditions":[1E0,1E0,1E0,3E0,-4.0394574E-2,5E0,3.3183098E-2,1.4058585E-2,-1.7303832E-2,-2.1040058E-2,1.584023E-2],"split_indices":[2,7,3,1,0,6,0,0,0,0,0],"split_type":[0,0,0,0,0,0,0,0,0,0,0],"sum_hessian":[2.9110756E1,1.5397404E1,1.3713351E1,1.0298975E1,5.0984287E0,6.518534E0,7.194817E0,6.028654E0,4.2703214E0,3.467356E0,3.0511782E0],"tree_param":{"num_deleted":"0","num_feature":"12","num_nodes":"11","size_leaf_vector":"1"}},{"base_weights":[-3.3980366E-2,3.0118182E-2,-1.4966314E-1,2.8754203E-2,-5.4499054E-1,1.9734451E-1,-2.3392957E-2,-3.628452E-2,-7.52077E-3,-1.5990179E-2,4.4688898E-1,-1.2245531E-3,3.587337E-2],"categories":[],"categories_nodes":[],"categories_segments":[],"categories_sizes":[],"default_left":[0,0,0,0,0,0,0,0,0,0,0,0,0],"id":73,"left_children":[1,-1,3,5,7,9,-1,-1,-1,-1,11,-1,-1],"loss_changes":[2.2429578E0,0E0,1.9152806E0,1.6416643E0,4.001472E-1,2.0797958E0,0E0,0E0,0E0,0E0,1.4394464E0,0E0,0E0],"parents":[2147483647,0,0,2,2,3,3,4,4,5,5,10,10],"right_children":[2,-1,4,6,8,10,-1,-1,-1,-1,12,-1,-1],"split_conditions":[2E0,3.0118182E-2,4E0,6E0,1E0,3E0,-2.3392957E-2,-3.628452E-2,-7.52077E-3,-1.5990179E-2,5E0,-1.2245531E-3,3.587337E-2],"split_indices":[6,0,1,11,8,11,0,0,0,0,6,0,0],"split_type":[0,0,0,0,0,0,0,0,0,0,0,0,0],"sum_hessian":[2.8859472E1,3.6592617E0,2.520021E1,1.7828323E1,7.371887E0,1.3910105E1,3.9182193E0,4.306893E0,3.0649943E0,4.3054166E0,9.604688E0,3.6995442E0,5.9051437E0],"tree_param":{"num_deleted":"0","num_feature":"12","num_nodes":"13","size_leaf_vector":"1"}},{"base_weights":[-2.8383643E-3,-2.852714E-2,1.4311282E-1,-1.4753056E-1,5.137674E-1,1.6123299E-2,-3.69587E-1,1.7298105E-3,3.8178016E-2,-3.0899024E-2,4.0741065E-3],"categories":[],"categories_nodes":[],"categories_segments":[],"categories_sizes":[],"default_left":[0,0,0,0,0,0,0,0,0,0,0],"id":74,"left_children":[1,-1,3,5,7,-1,9,-1,-1,-1,-1],"loss_changes":[2.5291388E0,0E0,2.6706018E0,1.5782866E0,1.1877806E0,0E0,1.2327845E0,0E0,0E0,0E0,0E0],"parents":[2147483647,0,0,2,2,3,3,4,4,6,6],"right_children":[2,-1,4,6,8,-1,10,-1,-1,-1,-1],"split_conditions":[4E0,-2.852714E-2,1E0,3E0,3.3E1,1.6123299E-2,5E0,1.7298105E-3,3.8178016E-2,-3.0899024E-2,4.0741065E-3],"split_indices":[9,0,4,6,0,0,11,0,0,0,0],"split_type":[0,0,0,0,0,0,0,0,0,0,0],"sum_hessian":[2.8022774E1,5.2761655E0,2.2746607E1,1.2935559E1,9.8110485E0,3.8609977E0,9.074561E0,3.8892431E0,5.9218054E0,5.7563376E0,3.3182235E0],"tree_param":{"num_deleted":"0","num_feature":"12","num_nodes":"11","size_leaf_vector":"1"}},{"base_weights":[-8.734907E-2,-4.040613E-1,1.6114804E-1,-2.1122199E-2,-4.086455E-2,4.346546E-1,-1.3090049E-1,-2.3103304E-2,2.4361836E-2,3.488702E-2,-0E0,-2.4840806E-2,1.4428221E-2],"categories":[],"categories_nodes":[],"categories_segments":[],"categories_sizes":[],"default_left":[0,0,0,0,0,0,0,0,0,0,0,0,0],"id":75,"left_children":[1,3,5,7,-1,9,11,-1,-1,-1,-1,-1,-1],"loss_changes":[2.4670534E0,2.0738254E0,1.4824392E0,2.0799353E0,0E0,1.138873E0,1.5515132E0,0E0,0E0,0E0,0E0,0E0,0E0],"parents":[2147483647,0,0,1,1,2,2,3,3,5,5,6,6],"right_children":[2,4,6,8,-1,10,12,-1,-1,-1,-1,-1,-1],"split_conditions":[1E0,1E0,4E0,4.8E1,-4.086455E-2,4.9E1,1E0,-2.3103304E-2,2.4361836E-2,3.488702E-2,-0E0,-2.4840806E-2,1.4428221E-2],"split_indices":[3,10,6,0,0,0,4,0,0,0,0,0,0],"split_type":[0,0,0,0,0,0,0,0,0,0,0,0,0],"sum_hessian":[2.9210747E1,1.2744344E1,1.6466402E1,7.285758E0,5.4585857E0,8.427795E0,8.038608E0,4.0556846E0,3.2300735E0,4.997876E0,3.4299195E0,4.3221884E0,3.716419E0],"tree_param":{"num_deleted":"0","num_feature":"12","num_nodes":"13","size_leaf_vector":"1"}},{"base_weights":[2.596229E-3,3.404324E-2,-1.0912039E-1,6.956791E-2,-4.7227484E-1,-2.8154194E-1,4.4427714E-1,-3.5724018E-2,-4.921973E-3,1.9239382E-3,-3.6629364E-2,1.4636458E-3,3.43496E-2],"categories":[],"categories_nodes":[],"categories_segments":[],"categories_sizes":[],"default_left":[0,0,0,0,0,0,0,0,0,0,0,0,0],"id":76,"left_children":[1,-1,3,5,7,9,11,-1,-1,-1,-1,-1,-1],"loss_changes":[2.3558269E0,0E0,1.7563564E0,2.5189874E0,6.512499E-1,1.5127677E0,8.417964E-1,0E0,0E0,0E0,0E0,0E0,0E0],"parents":[2147483647,0,0,2,2,3,3,4,4,5,5,6,6],"right_children":[2,-1,4,6,8,10,12,-1,-1,-1,-1,-1,-1],"split_conditions":[2E0,3.404324E-2,4E0,1E0,1.1E1,1E0,1E0,-3.5724018E-2,-4.921973E-3,1.9239382E-3,-3.6629364E-2,1.4636458E-3,3.43496E-2],"split_indices":[6,0,1,4,9,8,5,0,0,0,0,0,0],"split_type":[0,0,0,0,0,0,0,0,0,0,0,0,0],"sum_hessian":[2.8355183E1,3.4160094E0,2.4939173E1,1.7072035E1,7.8671384E0,8.804145E0,8.26789E0,4.0587726E0,3.808366E0,5.5554705E0,3.248674E0,3.6166313E0,4.6512585E0],"tree_param":{"num_deleted":"0","num_feature":"12","num_nodes":"13","size_leaf_vector":"1"}},{"base_weights":[-2.2341307E-2,-3.4306955E-1,1.6446887E-1,-0E0,-4.480529E-2,-8.432414E-2,5.44599E-1,-1.1168475E-2,9.723731E-3,-3.3070657E-2,1.6985136E-1,4.1016705E-2,2.9224667E-3,1.9650435E-2,-1.2992403E-3],"categories":[],"categories_nodes":[],"categories_segments":[],"categories_sizes":[],"default_left":[0,0,0,0,0,0,0,0,0,0,0,0,0,0,0],"id":77,"left_children":[1,3,5,7,-1,9,11,-1,-1,-1,13,-1,-1,-1,-1],"loss_changes":[1.859188E0,2.1199074E0,1.917636E0,3.9993405E-1,0E0,1.9766507E0,9.271264E-1,0E0,0E0,0E0,4.5187324E-1,0E0,0E0,0E0,0E0],"parents":[2147483647,0,0,1,1,2,2,3,3,5,5,6,6,10,10],"right_children":[2,4,6,8,-1,10,12,-1,-1,-1,14,-1,-1,-1,-1],"split_conditions":[1E0,1.2E1,1E0,8E0,-4.480529E-2,9E0,3E0,-1.1168475E-2,9.723731E-3,-3.3070657E-2,1E0,4.1016705E-2,2.9224667E-3,1.9650435E-2,-1.2992403E-3],"split_indices":[5,9,4,9,0,9,1,0,0,0,10,0,0,0,0],"split_type":[0,0,0,0,0,0,0,0,0,0,0,0,0,0,0],"sum_hessian":[2.879045E1,1.0486082E1,1.8304367E1,7.162598E0,3.323484E0,1.1374757E1,6.9296107E0,3.422987E0,3.7396114E0,3.1084533E0,8.266303E0,3.851821E0,3.0777898E0,3.6317236E0,4.6345797E0],"tree_param":{"num_deleted":"0","num_feature":"12","num_nodes":"15","size_leaf_vector":"1"}},{"base_weights":[-6.1860032E-2,3.0351985E-2,-1.8777916E-1,-3.504637E-2,-0E0,-3.7602586E-1,3.2099473E-1,-3.3805188E-2,-1.4626592E-3,6.2103424E-4,3.2458287E-2],"categories":[],"categories_nodes":[],"categories_segments":[],"categories_sizes":[],"default_left":[0,0,0,0,0,0,0,0,0,0,0],"id":78,"left_children":[1,-1,3,-1,5,7,9,-1,-1,-1,-1],"loss_changes":[2.315987E0,0E0,2.2511811E0,0E0,2.299601E0,8.217634E-1,9.6780586E-1,0E0,0E0,0E0,0E0],"parents":[2147483647,0,0,2,2,4,4,5,5,6,6],"right_children":[2,-1,4,-1,6,8,10,-1,-1,-1,-1],"split_conditions":[2E0,3.0351985E-2,3E0,-3.504637E-2,1E0,5E0,5E0,-3.3805188E-2,-1.4626592E-3,6.2103424E-4,3.2458287E-2],"split_indices":[6,0,11,0,3,6,6,0,0,0,0],"split_type":[0,0,0,0,0,0,0,0,0,0,0],"sum_hessian":[2.5641296E1,3.331085E0,2.2310211E1,5.255094E0,1.7055119E1,7.7650175E0,9.2901E0,3.4990535E0,4.265964E0,5.479954E0,3.8101468E0],"tree_param":{"num_deleted":"0","num_feature":"12","num_nodes":"11","size_leaf_vector":"1"}},{"base_weights":[-8.776628E-2,-2.2500811E-2,3.710705E-2,-3.3658186E-1,3.743425E-1,9.784568E-2,-4.7905814E-2,-0E0,5.5507934E-1,-9.214892E-3,1.9155815E-2,3.7504435E-2,1.3058737E-2],"categories":[],"categories_nodes":[],"categories_segments":[],"categories_sizes":[],"default_left":[0,0,0,0,0,0,0,0,0,0,0,0,0],"id":79,"left_children":[1,-1,3,5,7,9,-1,-1,11,-1,-1,-1,-1],"loss_changes":[1.3548759E0,0E0,2.9071321E0,3.1067772E0,8.090756E-1,6.694486E-1,0E0,0E0,1.714499E-1,0E0,0E0,0E0,0E0],"parents":[2147483647,0,0,2,2,3,3,4,4,5,5,8,8],"right_children":[2,-1,4,6,8,10,-1,-1,12,-1,-1,-1,-1],"split_conditions":[3E0,-2.2500811E-2,1E0,1E0,3.4E1,4.5E1,-4.7905814E-2,-0E0,4.6E1,-9.214892E-3,1.9155815E-2,3.7504435E-2,1.3058737E-2],"split_indices":[11,0,3,10,0,0,0,0,0,0,0,0,0],"split_type":[0,0,0,0,0,0,0,0,0,0,0,0,0],"sum_hessian":[2.7669744E1,6.630909E0,2.1038836E1,9.84028E0,1.1198555E1,6.1931787E0,3.6471007E0,4.024649E0,7.1739063E0,3.1153696E0,3.0778093E0,3.174914E0,3.9989924E0],"tree_param":{"num_deleted":"0","num_feature":"12","num_nodes":"13","size_leaf_vector":"1"}},{"base_weights":[-3.9792813E-2,-2.5356758E-2,7.504298E-2,-2.458179E-2,1.8302304E-1,-6.0010973E-2,5.0616807E-1,1.7431144E-2,-2.4104504E-1,3.8013954E-2,6.0888603E-3,3.5537637E-3,-3.5732985E-2],"categories":[],"categories_nodes":[],"categories_segments":[],"categories_sizes":[],"default_left":[0,0,0,0,0,0,0,0,0,0,0,0,0],"id":80,"left_children":[1,-1,3,-1,5,7,9,-1,11,-1,-1,-1,-1],"loss_changes":[1.6623782E0,0E0,1.5490495E0,0E0,1.7500734E0,1.0269E0,7.411113E-1,0E0,1.5481741E0,0E0,0E0,0E0,0E0],"parents":[2147483647,0,0,2,2,4,4,5,5,6,6,8,8],"right_children":[2,-1,4,-1,6,8,10,-1,12,-1,-1,-1,-1],"split_conditions":[4E0,-2.5356758E-2,2.6E1,-2.458179E-2,1E0,3.3E1,4.3E1,1.7431144E-2,5E0,3.8013954E-2,6.0888603E-3,3.5537637E-3,-3.5732985E-2],"split_indices":[9,0,0,0,4,0,0,0,6,0,0,0,0],"split_type":[0,0,0,0,0,0,0,0,0,0,0,0,0],"sum_hessian":[2.846119E1,5.1119475E0,2.3349241E1,3.0201883E0,2.0329054E1,1.189088E1,8.438174E0,3.1968257E0,8.694054E0,4.3346295E0,4.1035447E0,5.6255236E0,3.06853E0],"tree_param":{"num_deleted":"0","num_feature":"12","num_nodes":"13","size_leaf_vector":"1"}},{"base_weights":[-3.583133E-2,-4.076998E-1,1.6829763E-1,-9.096982E-2,-4.3093633E-2,3.8583776E-1,-3.0940348E-2,-1.782584E-2,7.7851163E-3,7.3738755E-3,2.8547917E-2,-1.902697E-2,1.21243885E-2],"categories":[],"categories_nodes":[],"categories_segments":[],"categories_sizes":[],"default_left":[0,0,0,0,0,0,0,0,0,0,0,0,0],"id":81,"left_children":[1,3,5,7,-1,9,11,-1,-1,-1,-1,-1,-1],"loss_changes":[2.2089517E0,1.3146546E0,8.507408E-1,5.5659986E-1,0E0,2.4877286E-1,1.0963829E0,0E0,0E0,0E0,0E0,0E0,0E0],"parents":[2147483647,0,0,1,1,2,2,3,3,5,5,6,6],"right_children":[2,4,6,8,-1,10,12,-1,-1,-1,-1,-1,-1],"split_conditions":[1E0,1.2E1,1E0,8E0,-4.3093633E-2,1.1E1,1E0,-1.782584E-2,7.7851163E-3,7.3738755E-3,2.8547917E-2,-1.902697E-2,1.21243885E-2],"split_indices":[5,9,10,9,0,9,3,0,0,0,0,0,0],"split_type":[0,0,0,0,0,0,0,0,0,0,0,0,0],"sum_hessian":[2.688066E1,9.346483E0,1.7534176E1,6.3432918E0,3.0031912E0,8.174311E0,9.359864E0,3.035554E0,3.3077378E0,4.5948505E0,3.5794606E0,4.0963526E0,5.263512E0],